{"learner":{"attributes":{"scikit_learn":"{\"_estimator_type\": \"regressor\"}"},"feature_names":[],"feature_types":[],"gradient_booster":{"model":{"gbtree_model_param":{"num_parallel_tree":"1","num_trees":"300"},"iteration_indptr":[0,1,2,3,4,5,6,7,8,9,10,11,12,13,14,15,16,17,18,19,20,21,22,23,24,25,26,27,28,29,30,31,32,33,34,35,36,37,38,39,40,41,42,43,44,45,46,47,48,49,50,51,52,53,54,55,56,57,58,59,60,61,62,63,64,65,66,67,68,69,70,71,72,73,74,75,76,77,78,79,80,81,82,83,84,85,86,87,88,89,90,91,92,93,94,95,96,97,98,99,100,101,102,103,104,105,106,107,108,109,110,111,112,113,114,115,116,117,118,119,120,121,122,123,124,125,126,127,128,129,130,131,132,133,134,135,136,137,138,139,140,141,142,143,144,145,146,147,148,149,150,151,152,153,154,155,156,157,158,159,160,161,162,163,164,165,166,167,168,169,170,171,172,173,174,175,176,177,178,179,180,181,182,183,184,185,186,187,188,189,190,191,192,193,194,195,196,197,198,199,200,201,202,203,204,205,206,207,208,209,210,211,212,213,214,215,216,217,218,219,220,221,222,223,224,225,226,227,228,229,230,231,232,233,234,235,236,237,238,239,240,241,242,243,244,245,246,247,248,249,250,251,252,253,254,255,256,257,258,259,260,261,262,263,264,265,266,267,268,269,270,271,272,273,274,275,276,277,278,279,280,281,282,283,284,285,286,287,288,289,290,291,292,293,294,295,296,297,298,299,300],"tree_info":[0,0,0,0,0,0,0,0,0,0,0,0,0,0,0,0,0,0,0,0,0,0,0,0,0,0,0,0,0,0,0,0,0,0,0,0,0,0,0,0,0,0,0,0,0,0,0,0,0,0,0,0,0,0,0,0,0,0,0,0,0,0,0,0,0,0,0,0,0,0,0,0,0,0,0,0,0,0,0,0,0,0,0,0,0,0,0,0,0,0,0,0,0,0,0,0,0,0,0,0,0,0,0,0,0,0,0,0,0,0,0,0,0,0,0,0,0,0,0,0,0,0,0,0,0,0,0,0,0,0,0,0,0,0,0,0,0,0,0,0,0,0,0,0,0,0,0,0,0,0,0,0,0,0,0,0,0,0,0,0,0,0,0,0,0,0,0,0,0,0,0,0,0,0,0,0,0,0,0,0,0,0,0,0,0,0,0,0,0,0,0,0,0,0,0,0,0,0,0,0,0,0,0,0,0,0,0,0,0,0,0,0,0,0,0,0,0,0,0,0,0,0,0,0,0,0,0,0,0,0,0,0,0,0,0,0,0,0,0,0,0,0,0,0,0,0,0,0,0,0,0,0,0,0,0,0,0,0,0,0,0,0,0,0,0,0,0,0,0,0,0,0,0,0,0,0,0,0,0,0,0,0,0,0,0,0,0,0,0,0,0,0,0,0,0,0,0,0,0,0],"trees":[{"base_weights":[-2.634895E-1,-2.1616785E1,4.244389E1,-3.9852955E1,-5.3286204E0,2.346707E1,6.018097E1,-4.905576E1,-2.9532984E1,-1.5757013E1,3.4523556E0,1.868212E1,3.0216433E1,5.284556E1,3.518253E0,-2.7907417E0,-2.1678362E0,-1.7330513E0,-1.2885484E0,-9.6119064E-1,-9.855343E0,-1.6709441E-1,6.7509346E0,7.3639536E-1,1.0523148E0,1.3121055E0,1.6928526E0,2.1907349E0,2.8212945E0,-5.9541047E-1,-4.2971298E-1,-1.322187E-1,6.8670414E-2,2.545663E-1,4.5772773E-1],"categories":[],"categories_nodes":[],"categories_segments":[],"categories_sizes":[],"default_left":[0,0,0,0,0,0,0,0,0,0,0,0,0,0,0,0,0,0,0,0,0,0,0,0,0,0,0,0,0,0,0,0,0,0,0],"id":0,"left_children":[1,3,5,7,9,11,13,15,17,19,21,23,25,27,-1,-1,-1,-1,-1,-1,29,31,33,-1,-1,-1,-1,-1,-1,-1,-1,-1,-1,-1,-1],"loss_changes":[9.137727E5,1.9820616E5,1.1100994E5,2.8467625E4,3.2470697E4,4.6996406E3,9.13075E3,3.9359062E3,2.0198125E3,3.1250469E3,2.3053633E3,6.061836E2,6.647266E1,8.90375E2,0E0,0E0,0E0,0E0,0E0,0E0,5.8166016E1,3.5854364E2,3.562871E2,0E0,0E0,0E0,0E0,0E0,0E0,0E0,0E0,0E0,0E0,0E0,0E0],"parents":[2147483647,0,0,1,1,2,2,3,3,4,4,5,5,6,6,7,7,8,8,9,9,10,10,11,11,12,12,13,13,20,20,21,21,22,22],"right_children":[2,4,6,8,10,12,14,16,18,20,22,24,26,28,-1,-1,-1,-1,-1,-1,30,32,34,-1,-1,-1,-1,-1,-1,-1,-1,-1,-1,-1,-1],"split_conditions":[1.808754E2,1.4471825E2,2.0592995E2,1.2872723E2,1.6191269E2,1.913551E2,2.29294E2,1.1612824E2,1.3566304E2,1.5223227E2,1.7010268E2,1.8596812E2,2.0037E2,2.1603061E2,3.518253E0,-2.7907417E0,-2.1678362E0,-1.7330513E0,-1.2885484E0,-9.6119064E-1,1.5495187E2,1.657337E2,1.7486737E2,7.3639536E-1,1.0523148E0,1.3121055E0,1.6928526E0,2.1907349E0,2.8212945E0,-5.9541047E-1,-4.2971298E-1,-1.322187E-1,6.8670414E-2,2.545663E-1,4.5772773E-1],"split_indices":[1,3,2,3,3,3,3,2,3,3,3,1,1,3,0,0,0,0,0,0,3,3,3,0,0,0,0,0,0,0,0,0,0,0,0],"split_type":[0,0,0,0,0,0,0,0,0,0,0,0,0,0,0,0,0,0,0,0,0,0,0,0,0,0,0,0,0,0,0,0,0,0,0],"sum_hessian":[1E3,6.67E2,3.33E2,3.14E2,3.53E2,1.62E2,1.71E2,1.64E2,1.5E2,1.61E2,1.92E2,9.7E1,6.5E1,1.03E2,6.8E1,7.1E1,9.3E1,6E1,9E1,1E2,6.1E1,9.2E1,1E2,3.9E1,5.8E1,3.5E1,3E1,3.3E1,7E1,2E1,4.1E1,3.5E1,5.7E1,6.1E1,3.9E1],"tree_param":{"num_deleted":"0","num_feature":"8","num_nodes":"35","size_leaf_vector":"1"}},{"base_weights":[2.904414E-1,-2.0243322E1,4.1108196E1,-4.0226215E1,-6.9375973E0,2.2515099E1,5.705299E1,-5.0169914E1,-3.336347E1,-1.6642097E1,3.3056722E0,1.8105934E1,1.4850384E0,5.147544E1,3.4735322E0,-2.7304018E0,-2.2199993E0,-1.8585293E0,-1.3746691E0,-1.9493408E1,-9.685053E0,-8.212061E-1,6.2976217E0,1.3744964E1,1.03194E0,2.1809528E0,2.7375915E0,-1.0198745E0,-7.7845365E-1,-6.0098934E-1,-4.1264963E-1,-1.676868E-1,3.5218194E-2,2.4519499E-1,4.1700515E-1,1.8259545E-1,6.957234E-1],"categories":[],"categories_nodes":[],"categories_segments":[],"categories_sizes":[],"default_left":[0,0,0,0,0,0,0,0,0,0,0,0,0,0,0,0,0,0,0,0,0,0,0,0,0,0,0,0,0,0,0,0,0,0,0,0,0],"id":1,"left_children":[1,3,5,7,9,11,13,15,17,19,21,23,-1,25,-1,-1,-1,-1,-1,27,29,31,33,35,-1,-1,-1,-1,-1,-1,-1,-1,-1,-1,-1,-1,-1],"loss_changes":[8.264022E5,1.7414272E5,9.654831E4,1.62053125E4,3.9320305E4,4.341383E3,8.6829375E3,2.6421875E2,2.5090625E3,3.8380586E3,2.3882222E3,7.9880273E2,0E0,8.5509375E2,0E0,0E0,0E0,0E0,0E0,1.8978125E2,1.0475293E2,3.191735E2,2.7792627E2,1.5907715E1,0E0,0E0,0E0,0E0,0E0,0E0,0E0,0E0,0E0,0E0,0E0,0E0,0E0],"parents":[2147483647,0,0,1,1,2,2,3,3,4,4,5,5,6,6,7,7,8,8,9,9,10,10,11,11,13,13,19,19,20,20,21,21,22,22,23,23],"right_children":[2,4,6,8,10,12,14,16,18,20,22,24,-1,26,-1,-1,-1,-1,-1,28,30,32,34,36,-1,-1,-1,-1,-1,-1,-1,-1,-1,-1,-1,-1,-1],"split_conditions":[1.7680064E2,1.4147896E2,2.0592995E2,1.2296011E2,1.5945079E2,1.921727E2,2.323096E2,1.1513848E2,1.3303671E2,1.5223227E2,1.6963266E2,1.8541287E2,1.4850384E0,2.1991696E2,3.4735322E0,-2.7304018E0,-2.2199993E0,-1.8585293E0,-1.3746691E0,1.475132E2,1.5495187E2,1.6484444E2,1.7396382E2,1.7518088E2,1.03194E0,2.1809528E0,2.7375915E0,-1.0198745E0,-7.7845365E-1,-6.0098934E-1,-4.1264963E-1,-1.676868E-1,3.5218194E-2,2.4519499E-1,4.1700515E-1,1.8259545E-1,6.957234E-1],"split_indices":[2,3,2,3,2,3,3,3,3,3,3,3,0,3,0,0,0,0,0,2,3,3,5,5,0,0,0,0,0,0,0,0,0,0,0,0,0],"split_type":[0,0,0,0,0,0,0,0,0,0,0,0,0,0,0,0,0,0,0,0,0,0,0,0,0,0,0,0,0,0,0,0,0,0,0,0,0],"sum_hessian":[9.84E2,6.55E2,3.29E2,2.61E2,3.94E2,1.53E2,1.76E2,1.04E2,1.57E2,2.02E2,1.92E2,9.7E1,5.6E1,1.25E2,5.1E1,5.4E1,5E1,9.2E1,6.5E1,1.42E2,6E1,8.1E1,1.11E2,3.8E1,5.9E1,4.1E1,8.4E1,1.12E2,3E1,2E1,4E1,3E1,5.1E1,6.8E1,4.3E1,1E0,3.7E1],"tree_param":{"num_deleted":"0","num_feature":"8","num_nodes":"37","size_leaf_vector":"1"}},{"base_weights":[-7.632873E-2,-1.9805271E1,3.647375E1,-3.763924E1,-6.8906765E0,1.9959528E1,5.4468388E1,-4.5953865E1,-2.97653E1,-1.5815427E1,1.6051317E0,1.4615564E1,2.6741968E1,4.7951523E1,3.2129185E0,-2.6043117E0,-2.0773358E0,-1.6789671E0,-1.2461191E0,-9.322816E-1,-1.0679319E1,-3.880301E0,3.9499464E0,1.0398777E1,8.4928274E-1,1.109249E0,1.4764415E0,1.993759E0,2.5362165E0,-6.4272016E-1,-4.2246318E-1,-3.0224702E-1,-1.417665E-1,8.970578E-2,2.7752596E-1,5.3793424E-1,1.186849E-1],"categories":[],"categories_nodes":[],"categories_segments":[],"categories_sizes":[],"default_left":[0,0,0,0,0,0,0,0,0,0,0,0,0,0,0,0,0,0,0,0,0,0,0,0,0,0,0,0,0,0,0,0,0,0,0,0,0],"id":2,"left_children":[1,3,5,7,9,11,13,15,17,19,21,23,25,27,-1,-1,-1,-1,-1,-1,29,31,33,35,-1,-1,-1,-1,-1,-1,-1,-1,-1,-1,-1,-1,-1],"loss_changes":[7.117215E5,1.4737481E5,1.0173278E5,1.62433125E4,2.8307355E4,6.205758E3,7.4457188E3,1.3223438E3,1.7675391E3,2.4464727E3,2.484893E3,8.627656E2,3.481836E2,2.8396875E2,0E0,0E0,0E0,0E0,0E0,0E0,2.1637744E2,1.14055664E2,4.5586792E2,8.9993164E1,0E0,0E0,0E0,0E0,0E0,0E0,0E0,0E0,0E0,0E0,0E0,0E0,0E0],"parents":[2147483647,0,0,1,1,2,2,3,3,4,4,5,5,6,6,7,7,8,8,9,9,10,10,11,11,12,12,13,13,20,20,21,21,22,22,23,23],"right_children":[2,4,6,8,10,12,14,16,18,20,22,24,26,28,-1,-1,-1,-1,-1,-1,30,32,34,36,-1,-1,-1,-1,-1,-1,-1,-1,-1,-1,-1,-1,-1],"split_conditions":[1.7784163E2,1.4147896E2,2.0829585E2,1.24904274E2,1.5698148E2,1.900373E2,2.29294E2,1.1513848E2,1.3618513E2,1.5062346E2,1.6596956E2,1.8135193E2,1.9598344E2,2.1603061E2,3.2129185E0,-2.6043117E0,-2.0773358E0,-1.6789671E0,-1.2461191E0,-9.322816E-1,1.5184044E2,1.6191269E2,1.708593E2,1.228669E8,8.4928274E-1,1.109249E0,1.4764415E0,1.993759E0,2.5362165E0,-6.4272016E-1,-4.2246318E-1,-3.0224702E-1,-1.417665E-1,8.970578E-2,2.7752596E-1,5.3793424E-1,1.186849E-1],"split_indices":[1,3,3,3,2,3,3,3,1,3,3,3,1,3,0,0,0,0,0,0,2,3,3,4,0,0,0,0,0,0,0,0,0,0,0,0,0],"split_type":[0,0,0,0,0,0,0,0,0,0,0,0,0,0,0,0,0,0,0,0,0,0,0,0,0,0,0,0,0,0,0,0,0,0,0,0,0],"sum_hessian":[9.85E2,6.4E2,3.45E2,2.68E2,3.72E2,1.81E2,1.64E2,1.28E2,1.4E2,1.81E2,1.91E2,1.03E2,7.8E1,1.02E2,6.2E1,4.9E1,7.9E1,7.5E1,6.5E1,1.15E2,6.6E1,5.7E1,1.34E2,3.9E1,6.4E1,3.3E1,4.5E1,3E1,7.2E1,3.1E1,3.5E1,1.7E1,4E1,5.8E1,7.6E1,3.7E1,2E0],"tree_param":{"num_deleted":"0","num_feature":"8","num_nodes":"37","size_leaf_vector":"1"}},{"base_weights":[-6.2953275E-1,-1.8682148E1,3.6241158E1,-3.5947975E1,-6.2331357E0,2.0128513E1,5.194382E1,-4.5040657E1,-2.8676474E1,-1.4697436E1,2.568707E0,1.4611321E1,2.527472E1,2.2063005E0,5.8966576E1,-2.5376992E0,-2.0510283E0,-1.6375843E0,-1.2041756E0,-1.72451E1,-7.9586844E0,-5.524325E-1,5.111619E0,1.2097928E1,1.6716984E1,1.0443736E0,1.4486078E0,2.6701624E0,3.3255994E0,-9.433262E-1,-7.165647E-1,-4.392347E-1,-3.0621746E-1,-1.3756274E-1,4.7576517E-2,1.8071394E-1,3.25715E-1,6.1171204E-1,1.6613579E-1,8.509796E-1,3.5549292E-1],"categories":[],"categories_nodes":[],"categories_segments":[],"categories_sizes":[],"default_left":[0,0,0,0,0,0,0,0,0,0,0,0,0,0,0,0,0,0,0,0,0,0,0,0,0,0,0,0,0,0,0,0,0,0,0,0,0,0,0,0,0],"id":3,"left_children":[1,3,5,7,9,11,13,15,17,19,21,23,25,-1,27,-1,-1,-1,-1,29,31,33,35,37,39,-1,-1,-1,-1,-1,-1,-1,-1,-1,-1,-1,-1,-1,-1,-1,-1],"loss_changes":[6.702831E5,1.4507706E5,8.270122E4,1.7419625E4,2.9391324E4,4.315492E3,6.5667812E3,7.6609375E2,2.2059844E3,3.3135352E3,1.5425594E3,2.3173242E2,7.574492E2,0E0,1.615625E1,0E0,0E0,0E0,0E0,4.1467578E2,3.2564453E1,2.936292E2,2.0118701E2,8.39209E0,1.0966797E0,0E0,0E0,0E0,0E0,0E0,0E0,0E0,0E0,0E0,0E0,0E0,0E0,0E0,0E0,0E0,0E0],"parents":[2147483647,0,0,1,1,2,2,3,3,4,4,5,5,6,6,7,7,8,8,9,9,10,10,11,11,12,12,14,14,19,19,20,20,21,21,22,22,23,23,24,24],"right_children":[2,4,6,8,10,12,14,16,18,20,22,24,26,-1,28,-1,-1,-1,-1,30,32,34,36,38,40,-1,-1,-1,-1,-1,-1,-1,-1,-1,-1,-1,-1,-1,-1,-1,-1],"split_conditions":[1.7858148E2,1.4240863E2,2.094054E2,1.2347062E2,1.6191269E2,1.900373E2,2.2604543E2,1.1133402E2,1.3130334E2,1.5356276E2,1.6963266E2,1.8258195E2,1.9586316E2,2.2063005E0,2.3901343E2,-2.5376992E0,-2.0510283E0,-1.6375843E0,-1.2041756E0,1.4795366E2,1.5698148E2,1.657337E2,1.7250778E2,1.8585628E2,1.9089867E2,1.0443736E0,1.4486078E0,2.6701624E0,3.3255994E0,-9.433262E-1,-7.165647E-1,-4.392347E-1,-3.0621746E-1,-1.3756274E-1,4.7576517E-2,1.8071394E-1,3.25715E-1,6.1171204E-1,1.6613579E-1,8.509796E-1,3.5549292E-1],"split_indices":[3,3,3,3,3,3,3,2,2,3,3,2,0,0,3,0,0,0,0,3,2,3,3,0,5,0,0,0,0,0,0,0,0,0,0,0,0,0,0,0,0],"split_type":[0,0,0,0,0,0,0,0,0,0,0,0,0,0,0,0,0,0,0,0,0,0,0,0,0,0,0,0,0,0,0,0,0,0,0,0,0,0,0,0,0],"sum_hessian":[1.005E3,6.75E2,3.3E2,2.82E2,3.93E2,1.64E2,1.66E2,1.23E2,1.59E2,2E2,1.93E2,8.1E1,8.3E1,8.2E1,8.4E1,4.6E1,7.7E1,8.1E1,7.8E1,1.44E2,5.6E1,8.7E1,1.06E2,4E1,4.1E1,4.1E1,4.2E1,5.3E1,3.1E1,8.9E1,5.5E1,3.6E1,2E1,3.5E1,5.2E1,5.3E1,5.3E1,3.9E1,1E0,3.9E1,2E0],"tree_param":{"num_deleted":"0","num_feature":"8","num_nodes":"41","size_leaf_vector":"1"}},{"base_weights":[-5.244686E-1,-2.3706223E1,2.5587152E1,-3.7576595E1,-1.3843934E1,1.2287227E1,4.8326637E1,-2.203797E0,-1.5847573E0,-1.8641117E1,-5.35819E0,5.3955517E0,1.9426865E1,1.9513003E0,5.5115517E1,-1.0434917E0,-7.664272E-1,-8.257895E0,-2.1501756E0,2.616715E0,7.179394E0,1.5894738E1,1.1764781E0,2.5024042E0,3.1922367E0,-4.9169835E-1,-3.3590713E-1,-1.648417E-1,-4.1947175E-2,1.0613513E-1,1.7283049E-1,3.0842265E-1,5.255179E-1,6.439179E-1,8.505683E-1],"categories":[],"categories_nodes":[],"categories_segments":[],"categories_sizes":[],"default_left":[0,0,0,0,0,0,0,0,0,0,0,0,0,0,0,0,0,0,0,0,0,0,0,0,0,0,0,0,0,0,0,0,0,0,0],"id":4,"left_children":[1,3,5,7,9,11,13,-1,-1,15,17,19,21,-1,23,-1,-1,25,27,29,31,33,-1,-1,-1,-1,-1,-1,-1,-1,-1,-1,-1,-1,-1],"loss_changes":[6.0107725E5,7.143328E4,1.4064262E5,6.9361875E3,1.2478781E4,1.4459582E4,8.709281E3,0E0,0E0,1.1345078E3,1.0334036E3,7.346787E2,1.7272383E3,0E0,1.0954688E3,0E0,0E0,7.711304E1,7.992857E1,1.7972656E1,2.4496875E2,5.374414E1,0E0,0E0,0E0,0E0,0E0,0E0,0E0,0E0,0E0,0E0,0E0,0E0,0E0],"parents":[2147483647,0,0,1,1,2,2,3,3,4,4,5,5,6,6,9,9,10,10,11,11,12,12,14,14,17,17,18,18,19,19,20,20,21,21],"right_children":[2,4,6,8,10,12,14,-1,-1,16,18,20,22,-1,24,-1,-1,26,28,30,32,34,-1,-1,-1,-1,-1,-1,-1,-1,-1,-1,-1,-1,-1],"split_conditions":[1.6782642E2,1.3618513E2,2.0508107E2,1.1996085E2,1.5223227E2,1.8135193E2,2.2457826E2,-2.203797E0,-1.5847573E0,1.4564066E2,1.5945079E2,1.7184377E2,1.913551E2,1.9513003E0,2.3901343E2,-1.0434917E0,-7.664272E-1,1.562769E2,1.645921E2,1.708593E2,1.7997801E2,1.8596812E2,1.1764781E0,2.5024042E0,3.1922367E0,-4.9169835E-1,-3.3590713E-1,-1.648417E-1,-4.1947175E-2,1.0613513E-1,1.7283049E-1,3.0842265E-1,5.255179E-1,6.439179E-1,8.505683E-1],"split_indices":[3,1,3,2,3,3,3,0,0,3,2,3,3,0,3,0,0,3,3,3,1,1,0,0,0,0,0,0,0,0,0,0,0,0,0],"split_type":[0,0,0,0,0,0,0,0,0,0,0,0,0,0,0,0,0,0,0,0,0,0,0,0,0,0,0,0,0,0,0,0,0,0,0],"sum_hessian":[9.91E2,5.25E2,4.66E2,2.17E2,3.08E2,2.95E2,1.71E2,1E2,1.17E2,1.96E2,1.12E2,1.51E2,1.44E2,7.5E1,9.6E1,1.14E2,8.2E1,5.8E1,5.4E1,6E1,9.1E1,8E1,6.4E1,6.5E1,3.1E1,2.6E1,3.2E1,2.8E1,2.6E1,4E1,2E1,7.2E1,1.9E1,2.5E1,5.5E1],"tree_param":{"num_deleted":"0","num_feature":"8","num_nodes":"35","size_leaf_vector":"1"}},{"base_weights":[-2.6770425E-1,-1.7022388E1,3.2706684E1,-3.0758242E1,-3.6363502E0,1.7795824E1,4.651234E1,-3.8724182E1,-2.2845665E1,-1.1567366E1,2.411393E0,1.1516922E1,2.0305563E1,1.8775043E0,5.1841198E1,-2.2125254E0,-1.7093178E0,-1.3748873E0,-9.960208E-1,-1.4356137E1,-7.308873E0,-1.3982303E0,4.022671E0,1.301534E-1,1.1834103E1,8.900218E-1,2.3711168E1,2.4049127E0,3.0254002E0,-7.243058E-1,-2.9006705E-1,-4.6051174E-1,-3.2140812E-1,-1.3143896E-1,-1.7300573E-3,1.3945574E-1,3.0361423E-1,1.715992E-1,5.969925E-1,3.9541653E-1,1.2118888E0],"categories":[],"categories_nodes":[],"categories_segments":[],"categories_sizes":[],"default_left":[0,0,0,0,0,0,0,0,0,0,0,0,0,0,0,0,0,0,0,0,0,0,0,0,0,0,0,0,0,0,0,0,0,0,0,0,0,0,0,0,0],"id":5,"left_children":[1,3,5,7,9,11,13,15,17,19,21,23,25,-1,27,-1,-1,-1,-1,29,31,33,35,-1,37,-1,39,-1,-1,-1,-1,-1,-1,-1,-1,-1,-1,-1,-1,-1,-1],"loss_changes":[5.640817E5,1.2436725E5,6.9986125E4,2.0167719E4,1.6527766E4,2.3977969E3,6.554375E3,2.6250156E3,1.7656875E3,1.6645898E3,1.2087438E3,1.1056006E2,5.8464453E2,0E0,6.255625E2,0E0,0E0,0E0,0E0,1.4925781E1,4.2942627E1,9.891177E1,3.3197095E2,0E0,1.6704102E0,0E0,1.9945117E2,0E0,0E0,0E0,0E0,0E0,0E0,0E0,0E0,0E0,0E0,0E0,0E0,0E0,0E0],"parents":[2147483647,0,0,1,1,2,2,3,3,4,4,5,5,6,6,7,7,8,8,9,9,10,10,11,11,12,12,14,14,19,19,20,20,21,21,22,22,24,24,26,26],"right_children":[2,4,6,8,10,12,14,16,18,20,22,24,26,-1,28,-1,-1,-1,-1,30,32,34,36,-1,38,-1,40,-1,-1,-1,-1,-1,-1,-1,-1,-1,-1,-1,-1,-1,-1],"split_conditions":[1.7997801E2,1.4378745E2,2.0947531E2,1.2644737E2,1.5945079E2,1.8585628E2,2.2205151E2,1.15109215E2,1.3618513E2,1.5469504E2,1.6966475E2,1.7734592E2,1.952005E2,1.8775043E0,2.3658928E2,-2.2125254E0,-1.7093178E0,-1.3748873E0,-9.960208E-1,2.83357E-2,1.5251807E2,1.6368953E2,1.715886E2,1.301534E-1,-4.63123E-2,8.900218E-1,-5.641909E-2,2.4049127E0,3.0254002E0,-7.243058E-1,-2.9006705E-1,-4.6051174E-1,-3.2140812E-1,-1.3143896E-1,-1.7300573E-3,1.3945574E-1,3.0361423E-1,1.715992E-1,5.969925E-1,3.9541653E-1,1.2118888E0],"split_indices":[1,2,1,2,2,0,2,2,1,1,1,0,1,0,2,0,0,0,0,6,2,2,2,0,6,0,6,0,0,0,0,0,0,0,0,0,0,0,0,0,0],"split_type":[0,0,0,0,0,0,0,0,0,0,0,0,0,0,0,0,0,0,0,0,0,0,0,0,0,0,0,0,0,0,0,0,0,0,0,0,0,0,0,0,0],"sum_hessian":[1.019E3,6.76E2,3.43E2,3.33E2,3.43E2,1.66E2,1.77E2,1.64E2,1.69E2,1.48E2,1.95E2,4.9E1,1.17E2,6.9E1,1.08E2,7E1,9.4E1,6.2E1,1.07E2,8.8E1,6E1,5.8E1,1.37E2,2E0,4.7E1,7.1E1,4.6E1,8E1,2.8E1,8.6E1,2E0,1.6E1,4.4E1,3E1,2.8E1,8.7E1,5E1,1E0,4.6E1,2E0,4.4E1],"tree_param":{"num_deleted":"0","num_feature":"8","num_nodes":"41","size_leaf_vector":"1"}},{"base_weights":[-3.0596378E-1,-1.6041672E1,3.1118977E1,-3.0954971E1,-5.457611E0,1.658545E1,4.3752373E1,-3.9357014E1,-2.545217E1,-1.3364643E1,1.7046258E0,1.2737099E1,1.0393245E0,1.7718371E0,4.9946136E1,-2.319749E0,-1.8072764E0,-1.4156104E0,-1.0448432E0,-1.4934132E1,-7.4880466E0,-2.5330937E0,3.7350042E0,1.0571573E1,7.482358E-1,2.2983596E0,2.8982706E0,-8.1362927E-1,-6.224035E-1,-4.088626E-1,-2.4325056E-1,-2.6361504E-1,-7.481586E-2,1.1349255E-1,2.9330188E-1,5.3784376E-1,5.5824663E-2],"categories":[],"categories_nodes":[],"categories_segments":[],"categories_sizes":[],"default_left":[0,0,0,0,0,0,0,0,0,0,0,0,0,0,0,0,0,0,0,0,0,0,0,0,0,0,0,0,0,0,0,0,0,0,0,0,0],"id":6,"left_children":[1,3,5,7,9,11,13,15,17,19,21,23,-1,-1,25,-1,-1,-1,-1,27,29,31,33,35,-1,-1,-1,-1,-1,-1,-1,-1,-1,-1,-1,-1,-1],"loss_changes":[4.920259E5,1.0448116E5,6.0232125E4,1.1712844E4,2.2052648E4,2.2573047E3,7.3464688E3,7.4146875E2,1.6101484E3,1.5944727E3,1.7733167E3,2.470127E2,0E0,0E0,4.9440625E2,0E0,0E0,0E0,0E0,2.7991992E2,3.4337646E1,1.8238733E2,4.2068335E2,6.8583984E1,0E0,0E0,0E0,0E0,0E0,0E0,0E0,0E0,0E0,0E0,0E0,0E0,0E0],"parents":[2147483647,0,0,1,1,2,2,3,3,4,4,5,5,6,6,7,7,8,8,9,9,10,10,11,11,14,14,19,19,20,20,21,21,22,22,23,23],"right_children":[2,4,6,8,10,12,14,16,18,20,22,24,-1,-1,26,-1,-1,-1,-1,28,30,32,34,36,-1,-1,-1,-1,-1,-1,-1,-1,-1,-1,-1,-1,-1],"split_conditions":[1.7997801E2,1.4147896E2,2.0508107E2,1.2296011E2,1.5698148E2,1.900373E2,2.237435E2,1.09311485E2,1.3130334E2,1.5356276E2,1.6782642E2,1.8541287E2,1.0393245E0,1.7718371E0,2.3901343E2,-2.319749E0,-1.8072764E0,-1.4156104E0,-1.0448432E0,1.4795366E2,1.177263E8,1.6191269E2,1.7250778E2,1.901165E2,7.482358E-1,2.2983596E0,2.8982706E0,-8.1362927E-1,-6.224035E-1,-4.088626E-1,-2.4325056E-1,-2.6361504E-1,-7.481586E-2,1.1349255E-1,2.9330188E-1,5.3784376E-1,5.5824663E-2],"split_indices":[1,3,3,3,2,3,3,2,2,3,3,3,0,0,3,0,0,0,0,3,4,3,3,1,0,0,0,0,0,0,0,0,0,0,0,0,0],"split_type":[0,0,0,0,0,0,0,0,0,0,0,0,0,0,0,0,0,0,0,0,0,0,0,0,0,0,0,0,0,0,0,0,0,0,0,0,0],"sum_hessian":[9.93E2,6.62E2,3.31E2,2.74E2,3.88E2,1.55E2,1.76E2,1.06E2,1.68E2,1.84E2,2.04E2,8.3E1,7.2E1,7.8E1,9.8E1,2.9E1,7.7E1,1E2,6.8E1,1.44E2,4E1,6.6E1,1.38E2,4.5E1,3.8E1,7E1,2.8E1,9E1,5.4E1,3E1,1E1,1.7E1,4.9E1,8.3E1,5.5E1,4.4E1,1E0],"tree_param":{"num_deleted":"0","num_feature":"8","num_nodes":"37","size_leaf_vector":"1"}},{"base_weights":[1.3853826E-1,-1.5815795E1,2.8565075E1,-2.9212326E1,-6.215045E0,1.5089441E1,4.0820076E1,-3.550912E1,-2.3156643E1,-1.25550785E1,1.4143854E0,1.0903627E1,1.9343958E1,1.6984606E0,4.633043E1,-2.031817E0,-1.6058081E0,-1.3065178E0,-9.949331E-1,-1.4581514E1,-8.0356455E0,-2.0824237E0,3.075983E0,7.8767805E0,6.387829E-1,8.6534846E-1,1.1340331E0,2.1563413E0,2.7018046E0,-7.758875E-1,-6.18944E-1,-4.7494408E-1,-3.0385956E-1,-1.7705901E-1,-5.17185E-2,1.0747284E-1,2.3705104E-1,4.0175518E-1,5.4428864E-2],"categories":[],"categories_nodes":[],"categories_segments":[],"categories_sizes":[],"default_left":[0,0,0,0,0,0,0,0,0,0,0,0,0,0,0,0,0,0,0,0,0,0,0,0,0,0,0,0,0,0,0,0,0,0,0,0,0,0,0],"id":7,"left_children":[1,3,5,7,9,11,13,15,17,19,21,23,25,-1,27,-1,-1,-1,-1,29,31,33,35,37,-1,-1,-1,-1,-1,-1,-1,-1,-1,-1,-1,-1,-1,-1,-1],"loss_changes":[4.5669934E5,8.277625E4,5.9166156E4,9.435078E3,1.8253566E4,2.8877773E3,5.5610312E3,9.5646875E2,8.3640625E2,1.7694473E3,1.00577527E3,4.0934082E2,1.8519531E2,0E0,1.875625E2,0E0,0E0,0E0,0E0,9.867578E1,1.314082E2,8.195299E1,1.7030554E2,3.101831E1,0E0,0E0,0E0,0E0,0E0,0E0,0E0,0E0,0E0,0E0,0E0,0E0,0E0,0E0,0E0],"parents":[2147483647,0,0,1,1,2,2,3,3,4,4,5,5,6,6,7,7,8,8,9,9,10,10,11,11,12,12,14,14,19,19,20,20,21,21,22,22,23,23],"right_children":[2,4,6,8,10,12,14,16,18,20,22,24,26,-1,28,-1,-1,-1,-1,30,32,34,36,38,-1,-1,-1,-1,-1,-1,-1,-1,-1,-1,-1,-1,-1,-1,-1],"split_conditions":[1.764236E2,1.4117134E2,2.0508107E2,1.24904274E2,1.6060759E2,1.887997E2,2.2457826E2,1.13810524E2,1.3303671E2,1.511284E2,1.6782642E2,1.8135193E2,1.9586316E2,1.6984606E0,2.3901343E2,-2.031817E0,-1.6058081E0,-1.3065178E0,-9.949331E-1,1.4721753E2,1.5495187E2,1.6355194E2,1.7250778E2,1.374261E8,6.387829E-1,8.6534846E-1,1.1340331E0,2.1563413E0,2.7018046E0,-7.758875E-1,-6.18944E-1,-4.7494408E-1,-3.0385956E-1,-1.7705901E-1,-5.17185E-2,1.0747284E-1,2.3705104E-1,4.0175518E-1,5.4428864E-2],"split_indices":[3,3,3,3,0,3,3,3,3,3,3,3,0,0,3,0,0,0,0,3,3,3,3,4,0,0,0,0,0,0,0,0,0,0,0,0,0,0,0],"split_type":[0,0,0,0,0,0,0,0,0,0,0,0,0,0,0,0,0,0,0,0,0,0,0,0,0,0,0,0,0,0,0,0,0,0,0,0,0,0,0],"sum_hessian":[1.005E3,6.44E2,3.61E2,2.68E2,3.76E2,1.73E2,1.88E2,1.29E2,1.39E2,2.05E2,1.71E2,8.9E1,8.4E1,8.7E1,1.01E2,4.7E1,8.2E1,6.9E1,7E1,1.4E2,6.5E1,5.5E1,1.16E2,3.6E1,5.3E1,5.6E1,2.8E1,7.6E1,2.5E1,9.4E1,4.6E1,3.5E1,3E1,2.2E1,3.3E1,7.6E1,4E1,3.5E1,1E0],"tree_param":{"num_deleted":"0","num_feature":"8","num_nodes":"39","size_leaf_vector":"1"}},{"base_weights":[-1.309657E-1,-1.4907469E1,2.6633606E1,-2.7911465E1,-5.3590975E0,1.4524778E1,3.90054E1,-3.4894386E1,-2.3027826E1,-1.2537158E1,3.60802E-1,1.0122169E1,1.8317482E1,3.314344E1,2.3189716E0,-2.0914898E0,-1.6444205E0,-1.264023E0,-9.2569584E-1,-7.06781E-1,-9.504254E0,-3.7847502E0,2.5833352E0,6.4448795E0,1.1523602E1,1.6221214E1,1.109481E0,1.4023838E0,1.7948229E0,-5.1740307E-1,-3.6496186E-1,-2.622136E-1,-1.1114692E-1,5.031213E-2,2.0500658E-1,5.9241105E-2,3.3039445E-1,1.03104405E-1,5.8234626E-1,8.172351E-1,2.048626E-1],"categories":[],"categories_nodes":[],"categories_segments":[],"categories_sizes":[],"default_left":[0,0,0,0,0,0,0,0,0,0,0,0,0,0,0,0,0,0,0,0,0,0,0,0,0,0,0,0,0,0,0,0,0,0,0,0,0,0,0,0,0],"id":8,"left_children":[1,3,5,7,9,11,13,15,17,19,21,23,25,27,-1,-1,-1,-1,-1,-1,29,31,33,35,37,39,-1,-1,-1,-1,-1,-1,-1,-1,-1,-1,-1,-1,-1,-1,-1],"loss_changes":[3.9469734E5,7.968978E4,5.2615266E4,8.472219E3,1.5278018E4,2.8368906E3,6.0274062E3,1.5464062E2,1.1893672E3,6.655703E2,1.9262119E3,3.6893066E2,4.1929102E2,4.1009375E2,0E0,0E0,0E0,0E0,0E0,0E0,3.6103027E1,1.547456E2,3.2120386E2,1.4464233E1,4.7159668E1,3.184375E1,0E0,0E0,0E0,0E0,0E0,0E0,0E0,0E0,0E0,0E0,0E0,0E0,0E0,0E0,0E0],"parents":[2147483647,0,0,1,1,2,2,3,3,4,4,5,5,6,6,7,7,8,8,9,9,10,10,11,11,12,12,13,13,20,20,21,21,22,22,23,23,24,24,25,25],"right_children":[2,4,6,8,10,12,14,16,18,20,22,24,26,28,-1,-1,-1,-1,-1,-1,30,32,34,36,38,40,-1,-1,-1,-1,-1,-1,-1,-1,-1,-1,-1,-1,-1,-1,-1],"split_conditions":[1.7784163E2,1.419555E2,2.0739E2,1.2321036E2,1.562769E2,1.8899596E2,2.274613E2,1.1024149E2,1.340242E2,1.4889134E2,1.6596956E2,1.8047006E2,1.9613371E2,2.1495811E2,2.3189716E0,-2.0914898E0,-1.6444205E0,-1.264023E0,-9.2569584E-1,-7.06781E-1,1.5391145E2,1.6191269E2,1.708593E2,1.7250778E2,-3.5786603E-2,1.219465E8,1.109481E0,1.4023838E0,1.7948229E0,-5.1740307E-1,-3.6496186E-1,-2.622136E-1,-1.1114692E-1,5.031213E-2,2.0500658E-1,5.9241105E-2,3.3039445E-1,1.03104405E-1,5.8234626E-1,8.172351E-1,2.048626E-1],"split_indices":[1,3,1,3,3,1,3,0,3,3,3,3,3,3,0,0,0,0,0,0,3,3,3,3,6,4,0,0,0,0,0,0,0,0,0,0,0,0,0,0,0],"split_type":[0,0,0,0,0,0,0,0,0,0,0,0,0,0,0,0,0,0,0,0,0,0,0,0,0,0,0,0,0,0,0,0,0,0,0,0,0,0,0,0,0],"sum_hessian":[9.96E2,6.42E2,3.54E2,2.71E2,3.71E2,1.8E2,1.74E2,1.09E2,1.62E2,1.64E2,2.07E2,8.5E1,9.5E1,1E2,7.4E1,2E1,8.9E1,1.05E2,5.7E1,1.05E2,5.9E1,7.2E1,1.35E2,2.5E1,6E1,6.5E1,3E1,3.9E1,6.1E1,4E1,1.9E1,3.6E1,3.6E1,6.7E1,6.8E1,1E0,2.4E1,1E0,5.9E1,6.4E1,1E0],"tree_param":{"num_deleted":"0","num_feature":"8","num_nodes":"41","size_leaf_vector":"1"}},{"base_weights":[-3.9154014E-1,-1.4801527E1,2.533587E1,-2.7523842E1,-6.0091043E0,1.3301682E1,3.8136776E1,-1.7139714E0,-2.3101942E1,-1.2672013E1,-5.2601725E-2,8.127418E0,1.655543E1,3.4053806E1,2.353802E0,-1.2640275E0,-9.490452E-1,-1.4001205E1,-9.207585E0,-3.1195414E0,2.8945816E0,5.447535E0,9.494001E0,1.4852383E1,2.0182348E1,1.3451161E0,1.8214953E0,-7.025468E-1,-1.9462661E-1,-4.7780067E-1,-1.3187198E-1,-2.5866795E-1,-7.757368E-2,1.0739907E-1,2.195282E-1,6.299267E-2,2.9592508E-1,1.5739085E-1,4.8530513E-1,7.5530976E-1,1.6512503E-1,1.0249183E0,2.5174522E-1],"categories":[],"categories_nodes":[],"categories_segments":[],"categories_sizes":[],"default_left":[0,0,0,0,0,0,0,0,0,0,0,0,0,0,0,0,0,0,0,0,0,0,0,0,0,0,0,0,0,0,0,0,0,0,0,0,0,0,0,0,0,0,0],"id":9,"left_children":[1,3,5,7,9,11,13,-1,15,17,19,21,23,25,-1,-1,-1,27,29,31,33,35,37,39,41,-1,-1,-1,-1,-1,-1,-1,-1,-1,-1,-1,-1,-1,-1,-1,-1,-1,-1],"loss_changes":[3.655457E5,7.0530125E4,5.4025875E4,6.9151875E3,1.4882196E4,2.9632246E3,4.6381875E3,0E0,9.476797E2,6.8614844E2,1.8077576E3,2.1562793E2,3.9204688E2,1.0760469E3,0E0,0E0,0E0,8.644531E0,9.3836426E1,3.0758508E2,1.0449298E2,4.5794495E1,3.271045E1,1.846289E2,5.4757812E1,0E0,0E0,0E0,0E0,0E0,0E0,0E0,0E0,0E0,0E0,0E0,0E0,0E0,0E0,0E0,0E0,0E0,0E0],"parents":[2147483647,0,0,1,1,2,2,3,3,4,4,5,5,6,6,8,8,9,9,10,10,11,11,12,12,13,13,17,17,18,18,19,19,20,20,21,21,22,22,23,23,24,24],"right_children":[2,4,6,8,10,12,14,-1,16,18,20,22,24,26,-1,-1,-1,28,30,32,34,36,38,40,42,-1,-1,-1,-1,-1,-1,-1,-1,-1,-1,-1,-1,-1,-1,-1,-1,-1,-1],"split_conditions":[1.775442E2,1.4157329E2,2.0739E2,1.19413765E2,1.5311496E2,1.874981E2,2.290349E2,-1.7139714E0,1.3031729E2,1.475132E2,1.6936713E2,1.7680064E2,1.9586316E2,2.1474571E2,2.353802E0,-1.2640275E0,-9.490452E-1,1.516819E2,1.5759018E2,1.5945079E2,7.4750036E-3,1.7429234E2,-3.5786603E-2,2.03326E2,2.10754E2,1.3451161E0,1.8214953E0,-7.025468E-1,-1.9462661E-1,-4.7780067E-1,-1.3187198E-1,-2.5866795E-1,-7.757368E-2,1.0739907E-1,2.195282E-1,6.299267E-2,2.9592508E-1,1.5739085E-1,4.8530513E-1,7.5530976E-1,1.6512503E-1,1.0249183E0,2.5174522E-1],"split_indices":[1,1,1,2,2,1,2,0,2,2,1,2,0,2,0,0,0,5,5,2,6,2,6,5,5,0,0,0,0,0,0,0,0,0,0,0,0,0,0,0,0,0,0],"split_type":[0,0,0,0,0,0,0,0,0,0,0,0,0,0,0,0,0,0,0,0,0,0,0,0,0,0,0,0,0,0,0,0,0,0,0,0,0,0,0,0,0,0,0],"sum_hessian":[9.84E2,6.31E2,3.53E2,2.57E2,3.74E2,1.83E2,1.7E2,9.9E1,1.58E2,1.76E2,1.98E2,7.2E1,1.11E2,1.2E2,5E1,1E2,5.8E1,1.25E2,5.1E1,9.7E1,1.01E2,2.6E1,4.6E1,7.9E1,3.2E1,3.3E1,8.7E1,1.24E2,1E0,4.8E1,3E0,4.1E1,5.6E1,6.9E1,3.2E1,3E0,2.3E1,2E0,4.4E1,7.7E1,2E0,3.1E1,1E0],"tree_param":{"num_deleted":"0","num_feature":"8","num_nodes":"43","size_leaf_vector":"1"}},{"base_weights":[-9.872468E-1,-1.4437659E1,2.3636635E1,-2.710184E1,-6.6205187E0,1.2110975E1,3.5093872E1,-3.364607E1,-2.3068693E1,-1.2028264E1,1.1585787E-1,7.5169606E0,1.55389185E1,1.4229399E0,3.887652E1,-2.2406242E0,-1.5947672E0,-1.2964902E0,-1.031174E0,-1.3635063E1,-8.244466E0,-2.8079727E0,2.5909812E0,5.6607547E0,4.7626454E-1,6.667653E-1,9.3500835E-1,1.8204346E0,2.272458E0,-7.3896646E-1,-6.091417E-1,-4.6534738E-1,-3.3209223E-1,-2.279036E-1,-6.505977E-2,4.7138423E-2,1.514125E-1,1.2633972E-1,3.2080075E-1],"categories":[],"categories_nodes":[],"categories_segments":[],"categories_sizes":[],"default_left":[0,0,0,0,0,0,0,0,0,0,0,0,0,0,0,0,0,0,0,0,0,0,0,0,0,0,0,0,0,0,0,0,0,0,0,0,0,0,0],"id":10,"left_children":[1,3,5,7,9,11,13,15,17,19,21,23,25,-1,27,-1,-1,-1,-1,29,31,33,35,37,-1,-1,-1,-1,-1,-1,-1,-1,-1,-1,-1,-1,-1,-1,-1],"loss_changes":[3.318738E5,6.397108E4,4.6321453E4,5.7430938E3,1.4645691E4,2.6863398E3,3.336E3,3.6922656E2,5.566172E2,1.2433867E3,1.3099069E3,2.36854E2,4.5421094E2,0E0,1.2946875E2,0E0,0E0,0E0,0E0,7.751172E1,5.5674316E1,2.1294086E2,6.777484E1,8.556714E1,0E0,0E0,0E0,0E0,0E0,0E0,0E0,0E0,0E0,0E0,0E0,0E0,0E0,0E0,0E0],"parents":[2147483647,0,0,1,1,2,2,3,3,4,4,5,5,6,6,7,7,8,8,9,9,10,10,11,11,12,12,14,14,19,19,20,20,21,21,22,22,23,23],"right_children":[2,4,6,8,10,12,14,16,18,20,22,24,26,-1,28,-1,-1,-1,-1,30,32,34,36,38,-1,-1,-1,-1,-1,-1,-1,-1,-1,-1,-1,-1,-1,-1,-1],"split_conditions":[1.747751E2,1.400893E2,2.061957E2,1.2075218E2,1.5984554E2,1.8585628E2,2.2504713E2,1.0001133E2,1.2862384E2,1.5074725E2,1.6936713E2,1.8032454E2,1.9318774E2,1.4229399E0,2.3706313E2,-2.2406242E0,-1.5947672E0,-1.2964902E0,-1.031174E0,1.460817E2,1.5293642E2,1.6392969E2,-8.122168E-3,-1.167616E-2,4.7626454E-1,6.667653E-1,9.3500835E-1,1.8204346E0,2.272458E0,-7.3896646E-1,-6.091417E-1,-4.6534738E-1,-3.3209223E-1,-2.279036E-1,-6.505977E-2,4.7138423E-2,1.514125E-1,1.2633972E-1,3.2080075E-1],"split_indices":[0,1,1,1,1,0,1,0,1,1,1,0,5,0,5,0,0,0,0,1,0,1,6,6,0,0,0,0,0,0,0,0,0,0,0,0,0,0,0],"split_type":[0,0,0,0,0,0,0,0,0,0,0,0,0,0,0,0,0,0,0,0,0,0,0,0,0,0,0,0,0,0,0,0,0,0,0,0,0,0,0],"sum_hessian":[1E3,6.47E2,3.53E2,2.46E2,4.01E2,1.77E2,1.76E2,9.1E1,1.55E2,2.22E2,1.79E2,7.7E1,1E2,6.7E1,1.09E2,9E0,8.2E1,6.7E1,8.8E1,1.54E2,6.8E1,8.2E1,9.7E1,4.2E1,3.5E1,6.2E1,3.8E1,8.4E1,2.5E1,8.1E1,7.3E1,3.8E1,3E1,3.7E1,4.5E1,2.1E1,7.6E1,9E0,3.3E1],"tree_param":{"num_deleted":"0","num_feature":"8","num_nodes":"39","size_leaf_vector":"1"}},{"base_weights":[4.0845272E-1,-1.2398623E1,2.4383303E1,-2.457258E1,-4.1979666E0,1.4161973E1,3.5386066E1,-3.2224342E1,-2.0780985E1,-1.0200949E1,1.4358119E0,1.034352E1,1.9369894E1,3.166113E1,2.1902997E0,-2.1798167E0,-1.5049224E0,-1.179789E0,-8.554144E-1,-1.1653706E1,-6.098427E0,-6.5913624E-1,3.758219E0,8.211938E0,1.2170771E1,7.6710874E-1,2.0964464E1,1.311118E0,1.6689974E0,-6.372116E-1,-4.94978E-1,-3.5676858E-1,-2.3172788E-1,-1.2834296E-1,2.9184336E-2,1.5858234E-1,2.6806718E-1,2.6894662E-1,4.463683E-1,6.134286E-1,1.722374E-1,2.0987816E-1,1.0607926E0],"categories":[],"categories_nodes":[],"categories_segments":[],"categories_sizes":[],"default_left":[0,0,0,0,0,0,0,0,0,0,0,0,0,0,0,0,0,0,0,0,0,0,0,0,0,0,0,0,0,0,0,0,0,0,0,0,0,0,0,0,0,0,0],"id":11,"left_children":[1,3,5,7,9,11,13,15,17,19,21,23,25,27,-1,-1,-1,-1,-1,29,31,33,35,37,39,-1,41,-1,-1,-1,-1,-1,-1,-1,-1,-1,-1,-1,-1,-1,-1,-1,-1],"loss_changes":[3.033584E5,6.4190234E4,3.8186094E4,6.844547E3,1.3068962E4,3.379168E3,3.7880625E3,7.185781E2,1.4157812E3,1.0434453E3,9.7554175E2,3.12917E2,1.6004297E2,2.2779688E2,0E0,0E0,0E0,0E0,0E0,1.3591016E2,4.434619E1,2.5282016E2,7.232861E1,5.737451E1,4.6757812E0,0E0,1.259082E2,0E0,0E0,0E0,0E0,0E0,0E0,0E0,0E0,0E0,0E0,0E0,0E0,0E0,0E0,0E0,0E0],"parents":[2147483647,0,0,1,1,2,2,3,3,4,4,5,5,6,6,7,7,8,8,9,9,10,10,11,11,12,12,13,13,19,19,20,20,21,21,22,22,23,23,24,24,26,26],"right_children":[2,4,6,8,10,12,14,16,18,20,22,24,26,28,-1,-1,-1,-1,-1,30,32,34,36,38,40,-1,42,-1,-1,-1,-1,-1,-1,-1,-1,-1,-1,-1,-1,-1,-1,-1,-1],"split_conditions":[1.7782181E2,1.4147896E2,2.1145E2,1.1803571E2,1.5751495E2,1.921727E2,2.3417685E2,1.0344273E2,1.3060817E2,1.5223227E2,1.7010268E2,1.8607735E2,1.9961824E2,2.1991696E2,2.1902997E0,-2.1798167E0,-1.5049224E0,-1.179789E0,-8.554144E-1,1.4540646E2,1.562769E2,1.6484444E2,1.7429234E2,1.7750455E2,1.9598344E2,7.6710874E-1,-5.641909E-2,1.311118E0,1.6689974E0,-6.372116E-1,-4.94978E-1,-3.5676858E-1,-2.3172788E-1,-1.2834296E-1,2.9184336E-2,1.5858234E-1,2.6806718E-1,2.6894662E-1,4.463683E-1,6.134286E-1,1.722374E-1,2.0987816E-1,1.0607926E0],"split_indices":[3,3,3,2,2,3,3,1,3,3,3,3,1,3,0,0,0,0,0,2,3,3,2,2,1,0,6,0,0,0,0,0,0,0,0,0,0,0,0,0,0,0,0],"split_type":[0,0,0,0,0,0,0,0,0,0,0,0,0,0,0,0,0,0,0,0,0,0,0,0,0,0,0,0,0,0,0,0,0,0,0,0,0,0,0,0,0,0,0],"sum_hessian":[9.86E2,6.43E2,3.43E2,2.58E2,3.85E2,1.79E2,1.64E2,8.3E1,1.75E2,1.86E2,1.99E2,1.05E2,7.4E1,1.17E2,4.7E1,1E1,7.3E1,9.6E1,7.9E1,1.36E2,5E1,1.05E2,9.4E1,5.1E1,5.4E1,2.4E1,5E1,3.2E1,8.5E1,8E1,5.6E1,2.7E1,2.3E1,4.1E1,6.4E1,7.1E1,2.3E1,1.2E1,3.9E1,5.3E1,1E0,1E0,4.9E1],"tree_param":{"num_deleted":"0","num_feature":"8","num_nodes":"43","size_leaf_vector":"1"}},{"base_weights":[-5.647906E-1,-1.4195391E1,1.827216E1,-2.3992493E1,-7.287171E0,9.024913E0,3.1763569E1,-2.9896381E1,-2.0416607E1,-1.152613E1,-2.065019E0,5.070028E0,1.3698546E1,1.2929014E0,3.615365E1,-2.0590801E0,-1.4044719E0,-1.1431009E0,-8.8689035E-1,-6.3023376E-1,-4.507577E-1,-4.5158305E0,1.4198433E-1,3.7150195E0,8.263048E0,1.1363503E1,8.0858225E-1,1.6633028E0,2.165501E0,-2.634269E-1,-1.3252215E-1,-4.5487057E-2,5.3548433E-2,1.3606247E-1,2.4363999E-1,4.181789E-1,1.08559035E-1,3.393593E-2,5.7637686E-1],"categories":[],"categories_nodes":[],"categories_segments":[],"categories_sizes":[],"default_left":[0,0,0,0,0,0,0,0,0,0,0,0,0,0,0,0,0,0,0,0,0,0,0,0,0,0,0,0,0,0,0,0,0,0,0,0,0,0,0],"id":12,"left_children":[1,3,5,7,9,11,13,15,17,19,21,23,25,-1,27,-1,-1,-1,-1,-1,-1,29,31,33,35,37,-1,-1,-1,-1,-1,-1,-1,-1,-1,-1,-1,-1,-1],"loss_changes":[2.5624805E5,3.9012203E4,5.198711E4,4.435297E3,7.524742E3,4.5514688E3,3.4725156E3,6.377031E2,5.901914E2,3.955078E2,8.336192E2,5.620427E2,4.745586E2,0E0,5.223906E2,0E0,0E0,0E0,0E0,0E0,0E0,8.853479E1,8.1091286E1,9.949548E1,6.3378906E0,1.0084131E2,0E0,0E0,0E0,0E0,0E0,0E0,0E0,0E0,0E0,0E0,0E0,0E0,0E0],"parents":[2147483647,0,0,1,1,2,2,3,3,4,4,5,5,6,6,7,7,8,8,9,9,10,10,11,11,12,12,14,14,21,21,22,22,23,23,24,24,25,25],"right_children":[2,4,6,8,10,12,14,16,18,20,22,24,26,-1,28,-1,-1,-1,-1,-1,-1,30,32,34,36,38,-1,-1,-1,-1,-1,-1,-1,-1,-1,-1,-1,-1,-1],"split_conditions":[1.708593E2,1.3869185E2,2.0282E2,1.2022083E2,1.5515085E2,1.8596812E2,2.2351431E2,1.0001133E2,1.294713E2,1.4795366E2,1.6355194E2,1.7986285E2,1.921727E2,1.2929014E0,2.3901343E2,-2.0590801E0,-1.4044719E0,-1.1431009E0,-8.8689035E-1,-6.3023376E-1,-4.507577E-1,1.6060759E2,1.6782642E2,1.7486737E2,1.8878549E2,1.7734592E2,8.0858225E-1,1.6633028E0,2.165501E0,-2.634269E-1,-1.3252215E-1,-4.5487057E-2,5.3548433E-2,1.3606247E-1,2.4363999E-1,4.181789E-1,1.08559035E-1,3.393593E-2,5.7637686E-1],"split_indices":[3,3,3,3,1,1,0,0,3,3,3,3,3,0,3,0,0,0,0,0,0,0,3,3,5,0,0,0,0,0,0,0,0,0,0,0,0,0,0],"split_type":[0,0,0,0,0,0,0,0,0,0,0,0,0,0,0,0,0,0,0,0,0,0,0,0,0,0,0,0,0,0,0,0,0,0,0,0,0,0,0],"sum_hessian":[9.96E2,5.78E2,4.18E2,2.38E2,3.4E2,2.49E2,1.69E2,8.7E1,1.51E2,1.87E2,1.53E2,1.36E2,1.13E2,7.5E1,9.4E1,9E0,7.8E1,7.5E1,7.6E1,1.28E2,5.9E1,7.2E1,8.1E1,9.7E1,3.9E1,6.1E1,5.2E1,7.1E1,2.3E1,5E1,2.2E1,3.8E1,4.3E1,5.4E1,4.3E1,3.8E1,1E0,1E0,6E1],"tree_param":{"num_deleted":"0","num_feature":"8","num_nodes":"39","size_leaf_vector":"1"}},{"base_weights":[1.9343953E-1,-1.1392539E1,2.2155865E1,-2.165024E1,-3.7982864E0,1.2349067E1,3.1394241E1,-2.6716698E1,-1.6750086E1,-8.761824E0,1.7410556E0,9.76856E0,1.6228212E1,2.835987E1,1.9832423E0,-1.6664788E0,-1.2296542E0,-9.369423E-1,-6.908776E-1,-1.0376515E1,-5.1937E0,-1.5826523E-1,3.422121E0,7.2057405E0,1.0807511E1,6.93385E-1,1.8302893E1,1.1275966E0,1.5025486E0,-5.550144E-1,-4.4091725E-1,-3.227906E-1,-2.0163648E-1,-1.0835724E-1,2.4659611E-2,1.351888E-1,2.5655732E-1,3.6947802E-1,3.308754E-2,5.4366195E-1,1.5352212E-1,9.3354875E-1,1.7230836E-1],"categories":[],"categories_nodes":[],"categories_segments":[],"categories_sizes":[],"default_left":[0,0,0,0,0,0,0,0,0,0,0,0,0,0,0,0,0,0,0,0,0,0,0,0,0,0,0,0,0,0,0,0,0,0,0,0,0,0,0,0,0,0,0],"id":13,"left_children":[1,3,5,7,9,11,13,15,17,19,21,23,25,27,-1,-1,-1,-1,-1,29,31,33,35,37,39,-1,41,-1,-1,-1,-1,-1,-1,-1,-1,-1,-1,-1,-1,-1,-1,-1,-1],"loss_changes":[2.5419969E5,5.0864094E4,3.0868922E4,6.4542266E3,1.0380769E4,1.5331895E3,3.3171094E3,1.0761484E3,5.8089453E2,1.0926299E3,5.720675E2,1.9904004E2,6.94043E1,6.2860156E2,0E0,0E0,0E0,0E0,0E0,5.5490234E1,6.774304E1,1.1230829E2,1.0275513E2,3.4806152E1,3.2285156E0,0E0,1.1064844E2,0E0,0E0,0E0,0E0,0E0,0E0,0E0,0E0,0E0,0E0,0E0,0E0,0E0,0E0,0E0,0E0],"parents":[2147483647,0,0,1,1,2,2,3,3,4,4,5,5,6,6,7,7,8,8,9,9,10,10,11,11,12,12,13,13,19,19,20,20,21,21,22,22,23,23,24,24,26,26],"right_children":[2,4,6,8,10,12,14,16,18,20,22,24,26,28,-1,-1,-1,-1,-1,30,32,34,36,38,40,-1,42,-1,-1,-1,-1,-1,-1,-1,-1,-1,-1,-1,-1,-1,-1,-1,-1],"split_conditions":[1.778099E2,1.4258252E2,2.094054E2,1.24904274E2,1.5945079E2,1.921727E2,2.3417685E2,1.09311485E2,1.3566304E2,1.5223227E2,1.7010268E2,1.8345653E2,1.992E2,2.1722412E2,1.9832423E0,-1.6664788E0,-1.2296542E0,-9.369423E-1,-6.908776E-1,1.4795366E2,1.562769E2,1.645921E2,1.7429234E2,1.374261E8,1.219465E8,6.93385E-1,2.1777443E2,1.1275966E0,1.5025486E0,-5.550144E-1,-4.4091725E-1,-3.227906E-1,-2.0163648E-1,-1.0835724E-1,2.4659611E-2,1.351888E-1,2.5655732E-1,3.6947802E-1,3.308754E-2,5.4366195E-1,1.5352212E-1,9.3354875E-1,1.7230836E-1],"split_indices":[5,3,3,3,2,3,3,2,3,3,3,3,3,3,0,0,0,0,0,3,3,3,2,4,4,0,5,0,0,0,0,0,0,0,0,0,0,0,0,0,0,0,0],"split_type":[0,0,0,0,0,0,0,0,0,0,0,0,0,0,0,0,0,0,0,0,0,0,0,0,0,0,0,0,0,0,0,0,0,0,0,0,0,0,0,0,0,0,0],"sum_hessian":[9.97E2,6.53E2,3.44E2,2.77E2,3.76E2,1.68E2,1.76E2,1.34E2,1.43E2,1.98E2,1.78E2,1.03E2,6.5E1,1.32E2,4.4E1,2.9E1,1.05E2,8.2E1,6.1E1,1.35E2,6.3E1,8.4E1,9.4E1,3.2E1,7.1E1,3.4E1,3.1E1,3.3E1,9.9E1,8.8E1,4.7E1,2.8E1,3.5E1,2E1,6.4E1,6.8E1,2.6E1,3.1E1,1E0,7E1,1E0,3E1,1E0],"tree_param":{"num_deleted":"0","num_feature":"8","num_nodes":"43","size_leaf_vector":"1"}},{"base_weights":[5.6883253E-2,-1.1484721E1,1.996043E1,-2.2357231E1,-5.3284316E0,1.0693998E1,2.9854116E1,-2.7312067E1,-1.8877472E1,-9.951282E0,6.380031E-1,6.998993E0,1.3646656E1,2.727378E1,1.937047E0,-1.636999E0,-1.260799E0,-1.0335714E0,-8.1303024E-1,-1.1389384E1,-6.514012E0,-1.6707342E0,2.2524245E0,4.858425E0,8.11716E0,1.1521039E1,1.6394135E1,1.0698494E0,1.438126E0,-5.897042E-1,-4.591236E-1,-4.01381E-1,-2.6079783E-1,-1.3097017E-1,-7.0525073E-3,7.651901E-2,1.759274E-1,2.2609456E-2,2.5685507E-1,4.511757E-2,4.1170287E-1,3.2260515E-2,5.844377E-1,8.312235E-1,1.680008E-1],"categories":[],"categories_nodes":[],"categories_segments":[],"categories_sizes":[],"default_left":[0,0,0,0,0,0,0,0,0,0,0,0,0,0,0,0,0,0,0,0,0,0,0,0,0,0,0,0,0,0,0,0,0,0,0,0,0,0,0,0,0,0,0,0,0],"id":14,"left_children":[1,3,5,7,9,11,13,15,17,19,21,23,25,27,-1,-1,-1,-1,-1,29,31,33,35,37,39,41,43,-1,-1,-1,-1,-1,-1,-1,-1,-1,-1,-1,-1,-1,-1,-1,-1,-1,-1],"loss_changes":[2.2719145E5,4.1781758E4,3.296028E4,3.3810234E3,1.1066704E4,1.9664902E3,2.9563125E3,2.0977344E2,3.0232812E2,1.042959E3,6.597635E2,1.6640576E2,4.184922E2,6.006797E2,0E0,0E0,0E0,0E0,0E0,3.2820312E1,9.36958E1,1.0556549E2,8.969183E1,3.6970215E1,3.8956543E1,1.05549805E2,7.323633E1,0E0,0E0,0E0,0E0,0E0,0E0,0E0,0E0,0E0,0E0,0E0,0E0,0E0,0E0,0E0,0E0,0E0,0E0],"parents":[2147483647,0,0,1,1,2,2,3,3,4,4,5,5,6,6,7,7,8,8,9,9,10,10,11,11,12,12,13,13,19,19,20,20,21,21,22,22,23,23,24,24,25,25,26,26],"right_children":[2,4,6,8,10,12,14,16,18,20,22,24,26,28,-1,-1,-1,-1,-1,30,32,34,36,38,40,42,44,-1,-1,-1,-1,-1,-1,-1,-1,-1,-1,-1,-1,-1,-1,-1,-1,-1,-1],"split_conditions":[1.775442E2,1.3497456E2,2.0592995E2,1.1803571E2,1.5698148E2,1.8899596E2,2.3324736E2,1.10309654E2,1.2762021E2,1.475132E2,1.6966475E2,1.7883943E2,1.9656055E2,2.1347006E2,1.937047E0,-1.636999E0,-1.260799E0,-1.0335714E0,-8.1303024E-1,1.4540646E2,1.5469504E2,1.6368953E2,1.7394536E2,1.7429234E2,-3.5786603E-2,1.7734592E2,2.1592285E2,1.0698494E0,1.438126E0,-5.897042E-1,-4.591236E-1,-4.01381E-1,-2.6079783E-1,-1.3097017E-1,-7.0525073E-3,7.651901E-2,1.759274E-1,2.2609456E-2,2.5685507E-1,4.511757E-2,4.1170287E-1,3.2260515E-2,5.844377E-1,8.312235E-1,1.680008E-1],"split_indices":[1,2,2,2,2,1,2,1,2,2,1,2,1,2,0,0,0,0,0,2,1,2,1,2,6,0,5,0,0,0,0,0,0,0,0,0,0,0,0,0,0,0,0,0,0],"split_type":[0,0,0,0,0,0,0,0,0,0,0,0,0,0,0,0,0,0,0,0,0,0,0,0,0,0,0,0,0,0,0,0,0,0,0,0,0,0,0,0,0,0,0,0,0],"sum_hessian":[9.87E2,6.25E2,3.62E2,2.25E2,4E2,1.88E2,1.74E2,9E1,1.35E2,2.25E2,1.75E2,8.5E1,1.03E2,1.38E2,3.6E1,2.1E1,6.9E1,7.6E1,5.9E1,1.57E2,6.8E1,7.2E1,1.03E2,3.1E1,5.4E1,6.1E1,4.2E1,3.1E1,1.07E2,1.29E2,2.8E1,2.9E1,3.9E1,4.4E1,2.8E1,6.7E1,3.6E1,2E0,2.9E1,1E0,5.3E1,1E0,6E1,4.1E1,1E0],"tree_param":{"num_deleted":"0","num_feature":"8","num_nodes":"45","size_leaf_vector":"1"}},{"base_weights":[1.7804942E-1,-1.0326597E1,2.0006191E1,-2.0041298E1,-3.6321194E0,1.2201976E1,2.9937904E1,-2.6086187E1,-1.7025019E1,-8.907903E0,8.146809E-1,9.293853E0,1.6769829E1,1.373083E0,1.8715509E0,-1.8230267E0,-1.2210852E0,-1.8444817E1,-6.6240305E-1,-1.0051042E1,-6.3694944E0,-1.7675142E0,2.6974685E0,7.1903434E0,1.06547575E1,1.9513626E-1,1.7068892E1,-9.96973E-1,-8.3332044E-1,-5.562921E-1,-4.5825276E-1,-3.3745262E-1,-1.3199954E-1,-1.7532068E-1,-4.41671E-2,9.256702E-2,1.9478944E-1,9.297969E-2,3.684987E-1,3.1454086E-2,5.393552E-1,7.4692833E-1,9.536565E-1],"categories":[],"categories_nodes":[],"categories_segments":[],"categories_sizes":[],"default_left":[0,0,0,0,0,0,0,0,0,0,0,0,0,0,0,0,0,0,0,0,0,0,0,0,0,0,0,0,0,0,0,0,0,0,0,0,0,0,0,0,0,0,0],"id":15,"left_children":[1,3,5,7,9,11,13,15,17,19,21,23,25,-1,-1,-1,-1,27,-1,29,31,33,35,37,39,-1,41,-1,-1,-1,-1,-1,-1,-1,-1,-1,-1,-1,-1,-1,-1,-1,-1],"loss_changes":[2.0870252E5,4.2525047E4,2.6530406E4,4.4241094E3,9.133336E3,2.4477852E3,1.7924219E3,6.118789E2,7.262578E2,4.524922E2,1.0354535E3,2.7263477E2,2.2198828E2,0E0,0E0,0E0,0E0,1.0578125E1,0E0,1.3253906E1,6.42854E1,1.352764E2,1.1750128E2,3.5130615E1,8.874707E1,0E0,2.6759766E1,0E0,0E0,0E0,0E0,0E0,0E0,0E0,0E0,0E0,0E0,0E0,0E0,0E0,0E0,0E0,0E0],"parents":[2147483647,0,0,1,1,2,2,3,3,4,4,5,5,6,6,7,7,8,8,9,9,10,10,11,11,12,12,17,17,19,19,20,20,21,21,22,22,23,23,24,24,26,26],"right_children":[2,4,6,8,10,12,14,16,18,20,22,24,26,-1,-1,-1,-1,28,-1,30,32,34,36,38,40,-1,42,-1,-1,-1,-1,-1,-1,-1,-1,-1,-1,-1,-1,-1,-1,-1,-1],"split_conditions":[1.808754E2,1.4240535E2,2.157709E2,1.2075218E2,1.5984554E2,1.952005E2,2.3706313E2,1.0001133E2,1.3618513E2,1.4893655E2,1.6966475E2,1.874981E2,-5.641909E-2,1.373083E0,1.8715509E0,-1.8230267E0,-1.2210852E0,1.2862384E2,-6.6240305E-1,-3.4348741E-3,1.9596012E-2,1.6341554E2,1.7554977E2,-3.5786603E-2,1.7734592E2,1.9513626E-1,2.061957E2,-9.96973E-1,-8.3332044E-1,-5.562921E-1,-4.5825276E-1,-3.3745262E-1,-1.3199954E-1,-1.7532068E-1,-4.41671E-2,9.256702E-2,1.9478944E-1,9.297969E-2,3.684987E-1,3.1454086E-2,5.393552E-1,7.4692833E-1,9.536565E-1],"split_indices":[1,1,1,1,1,1,5,0,1,5,1,1,6,0,0,0,0,1,0,6,6,1,1,6,0,0,1,0,0,0,0,0,0,0,0,0,0,0,0,0,0,0,0],"split_type":[0,0,0,0,0,0,0,0,0,0,0,0,0,0,0,0,0,0,0,0,0,0,0,0,0,0,0,0,0,0,0,0,0,0,0,0,0,0,0,0,0,0,0],"sum_hessian":[1E3,6.54E2,3.46E2,2.66E2,3.88E2,1.95E2,1.51E2,8.6E1,1.8E2,1.77E2,2.11E2,1.21E2,7.4E1,1.17E2,3.4E1,9E0,7.7E1,1.28E2,5.2E1,1.2E2,5.7E1,8.9E1,1.22E2,5E1,7.1E1,2E0,7.2E1,6.4E1,6.4E1,4.9E1,7.1E1,5.1E1,6E0,2.9E1,6E1,7.3E1,4.9E1,2E0,4.8E1,1E0,7E1,3.9E1,3.3E1],"tree_param":{"num_deleted":"0","num_feature":"8","num_nodes":"43","size_leaf_vector":"1"}},{"base_weights":[1.19888045E-1,-9.5629425E0,1.879356E1,-1.6552563E1,-1.599186E0,1.1076724E1,2.7951105E1,-2.2846735E1,-1.2780972E1,-6.263298E0,1.3934406E0,8.868186E0,1.57216835E1,2.5768747E1,1.7854246E0,-1.4803656E0,-1.0541937E0,-7.746357E-1,-1.0715923E1,-7.5336847E0,-4.0834737E0,-7.1123266E-1,2.640737E0,6.4510183E0,9.905378E0,1.5892258E-1,7.9429895E-1,2.1094019E1,1.3493273E0,-1.5442811E-1,-5.375973E-1,-3.8179356E-1,-1.8520355E-3,-2.7138597E-1,-1.6289724E-1,-8.14185E-2,5.197264E-3,4.181608E-2,1.5248992E-1,8.988012E-2,3.3217812E-1,4.9814352E-1,1.24025345E-1,1.0700542E0,3.0472872E-1],"categories":[],"categories_nodes":[],"categories_segments":[],"categories_sizes":[],"default_left":[0,0,0,0,0,0,0,0,0,0,0,0,0,0,0,0,0,0,0,0,0,0,0,0,0,0,0,0,0,0,0,0,0,0,0,0,0,0,0,0,0,0,0,0,0],"id":16,"left_children":[1,3,5,7,9,11,13,15,17,19,21,23,25,27,-1,-1,-1,-1,29,31,33,35,37,39,41,-1,-1,43,-1,-1,-1,-1,-1,-1,-1,-1,-1,-1,-1,-1,-1,-1,-1,-1,-1],"loss_changes":[1.7791989E5,3.604356E4,2.3434594E4,7.8979688E3,4.251943E3,1.7481523E3,1.6700312E3,9.012578E2,1.0547539E3,2.9877344E2,4.9015634E2,2.5449902E2,6.90332E1,1.3096875E2,0E0,0E0,0E0,0E0,1.6855469E0,5.640576E1,3.3363586E1,5.250336E1,8.380896E1,2.4792969E1,1.2424805E1,0E0,0E0,7.7441406E0,0E0,0E0,0E0,0E0,0E0,0E0,0E0,0E0,0E0,0E0,0E0,0E0,0E0,0E0,0E0,0E0,0E0],"parents":[2147483647,0,0,1,1,2,2,3,3,4,4,5,5,6,6,7,7,8,8,9,9,10,10,11,11,12,12,13,13,18,18,19,19,20,20,21,21,22,22,23,23,24,24,27,27],"right_children":[2,4,6,8,10,12,14,16,18,20,22,24,26,28,-1,-1,-1,-1,30,32,34,36,38,40,42,-1,-1,44,-1,-1,-1,-1,-1,-1,-1,-1,-1,-1,-1,-1,-1,-1,-1,-1,-1],"split_conditions":[1.7680064E2,1.4540646E2,2.1003E2,1.2383021E2,1.5945079E2,1.9586316E2,2.3658928E2,1.1024149E2,1.3497456E2,1.5184044E2,1.7039095E2,1.8258195E2,-5.641909E-2,2.1739491E2,1.7854246E0,-1.4803656E0,-1.0541937E0,-7.746357E-1,1.3528952E2,1.5748418E2,-1.2154121E-2,1.6368953E2,-1.2317011E-2,-3.5786603E-2,1.9961824E2,1.5892258E-1,7.9429895E-1,1.8401196E1,1.3493273E0,-1.5442811E-1,-5.375973E-1,-3.8179356E-1,-1.8520355E-3,-2.7138597E-1,-1.6289724E-1,-8.14185E-2,5.197264E-3,4.181608E-2,1.5248992E-1,8.988012E-2,3.3217812E-1,4.9814352E-1,1.24025345E-1,1.0700542E0,3.0472872E-1],"split_indices":[2,2,2,2,2,0,2,0,2,2,1,2,6,2,0,0,0,0,0,1,6,2,6,6,1,0,0,7,0,0,0,0,0,0,0,0,0,0,0,0,0,0,0,0,0],"split_type":[0,0,0,0,0,0,0,0,0,0,0,0,0,0,0,0,0,0,0,0,0,0,0,0,0,0,0,0,0,0,0,0,0,0,0,0,0,0,0,0,0,0,0,0,0],"sum_hessian":[9.82E2,6.47E2,3.35E2,3.44E2,3.03E2,1.83E2,1.52E2,1.27E2,2.17E2,1.18E2,1.85E2,1.26E2,5.7E1,1.22E2,3E1,2.3E1,1.04E2,9.1E1,1.26E2,7.3E1,4.5E1,6.9E1,1.16E2,4E1,8.6E1,1E0,5.6E1,2.9E1,9.3E1,1E0,1.25E2,7.2E1,1E0,1.5E1,3E1,3.2E1,3.7E1,2.2E1,9.4E1,2E0,3.8E1,8.5E1,1E0,2.8E1,1E0],"tree_param":{"num_deleted":"0","num_feature":"8","num_nodes":"45","size_leaf_vector":"1"}},{"base_weights":[2.339064E-1,-9.179036E0,1.8364931E1,-1.6803547E1,-2.3235207E0,1.1401782E1,2.7062487E1,-2.117202E1,-1.2326663E1,-6.5630827E0,1.0890628E0,8.409104E0,1.5878433E1,2.51683E1,1.7979147E0,-2.5216986E1,-9.314621E-1,-7.014223E-1,-1.0555886E1,-7.9064245E0,-4.442213E0,-6.242036E-1,2.7048E0,6.854444E0,4.9490306E-1,1.3528922E1,8.798017E-1,1.2636864E0,2.9711038E-1,-1.6241448E0,-1.1683899E0,-1.5056725E-1,-5.3066343E-1,-4.386916E-1,-3.4552214E-1,-2.4178155E-1,-1.373975E-1,-9.363884E-2,9.153103E-3,7.155275E-2,1.7544417E-1,4.2170715E-2,3.4710154E-1,6.869189E-1,1.5494958E-1],"categories":[],"categories_nodes":[],"categories_segments":[],"categories_sizes":[],"default_left":[0,0,0,0,0,0,0,0,0,0,0,0,0,0,0,0,0,0,0,0,0,0,0,0,0,0,0,0,0,0,0,0,0,0,0,0,0,0,0,0,0,0,0,0,0],"id":17,"left_children":[1,3,5,7,9,11,13,15,17,19,21,23,25,27,-1,29,-1,-1,31,33,35,37,39,41,-1,43,-1,-1,-1,-1,-1,-1,-1,-1,-1,-1,-1,-1,-1,-1,-1,-1,-1,-1,-1],"loss_changes":[1.6929888E5,3.4093234E4,2.0222086E4,5.7821797E3,4.9985586E3,2.4119375E3,1.6225312E3,1.1244688E3,3.1900586E2,4.0363184E2,5.331805E2,2.0067383E2,6.4609375E1,1.0725E2,0E0,6.796875E0,0E0,0E0,2.6738281E0,1.9713867E1,2.8038208E1,9.508828E1,9.6374084E1,2.573413E1,0E0,3.60708E1,0E0,0E0,0E0,0E0,0E0,0E0,0E0,0E0,0E0,0E0,0E0,0E0,0E0,0E0,0E0,0E0,0E0,0E0,0E0],"parents":[2147483647,0,0,1,1,2,2,3,3,4,4,5,5,6,6,7,7,8,8,9,9,10,10,11,11,12,12,13,13,15,15,18,18,19,19,20,20,21,21,22,22,23,23,25,25],"right_children":[2,4,6,8,10,12,14,16,18,20,22,24,26,28,-1,30,-1,-1,32,34,36,38,40,42,-1,44,-1,-1,-1,-1,-1,-1,-1,-1,-1,-1,-1,-1,-1,-1,-1,-1,-1,-1,-1],"split_conditions":[1.7680064E2,1.4505502E2,2.1495811E2,1.2872723E2,1.6060759E2,1.9527E2,2.4277437E2,1.1340151E2,1.3869185E2,1.5223227E2,1.7010268E2,1.8716469E2,2.0508107E2,1.843649E1,1.7979147E0,1.0001133E2,-9.314621E-1,-7.014223E-1,1.3528952E2,1.4795366E2,1.5698148E2,1.645921E2,1.7250778E2,1.7734592E2,4.9490306E-1,2.0801201E2,8.798017E-1,1.2636864E0,2.9711038E-1,-1.6241448E0,-1.1683899E0,-1.5056725E-1,-5.3066343E-1,-4.386916E-1,-3.4552214E-1,-2.4178155E-1,-1.373975E-1,-9.363884E-2,9.153103E-3,7.155275E-2,1.7544417E-1,4.2170715E-2,3.4710154E-1,6.869189E-1,1.5494958E-1],"split_indices":[2,3,3,3,0,3,3,2,3,3,3,2,3,7,0,0,0,0,0,3,2,3,3,0,0,5,0,0,0,0,0,0,0,0,0,0,0,0,0,0,0,0,0,0,0],"split_type":[0,0,0,0,0,0,0,0,0,0,0,0,0,0,0,0,0,0,0,0,0,0,0,0,0,0,0,0,0,0,0,0,0,0,0,0,0,0,0,0,0,0,0,0,0],"sum_hessian":[9.9E2,6.52E2,3.38E2,3.08E2,3.44E2,1.89E2,1.49E2,1.54E2,1.54E2,1.53E2,1.91E2,1.15E2,7.4E1,1.26E2,2.3E1,5.6E1,9.8E1,7.5E1,7.9E1,9.2E1,6.1E1,9.3E1,9.8E1,5.9E1,5.6E1,3.5E1,3.9E1,1.25E2,1E0,8E0,4.8E1,1E0,7.8E1,4.5E1,4.7E1,4.8E1,1.3E1,3.6E1,5.7E1,3.9E1,5.9E1,1E0,5.8E1,3.4E1,1E0],"tree_param":{"num_deleted":"0","num_feature":"8","num_nodes":"45","size_leaf_vector":"1"}},{"base_weights":[-1.6300924E-1,-8.643136E0,1.7314823E1,-1.50323E1,-1.2294116E0,1.0576432E1,2.5851542E1,-1.9971256E1,-1.0996939E1,-5.2795787E0,1.2028174E0,8.292134E0,1.5824916E1,1.1716605E0,1.5776689E0,-2.4084991E1,-8.785372E-1,-6.7370474E-1,-4.7757512E-1,-6.5156045E0,-3.528023E0,-2.986004E-1,2.5211892E0,6.0068793E0,9.499278E0,1.5107575E-1,8.003031E-1,-1.617096E0,-1.1141093E0,-3.384355E-1,-2.0521383E-1,-9.6576884E-2,-2.0697856E-1,-8.595929E-2,8.289746E-3,8.540919E-2,1.601033E-1,7.5314075E-2,3.084906E-1,4.84152E-1,2.3296158E-1],"categories":[],"categories_nodes":[],"categories_segments":[],"categories_sizes":[],"default_left":[0,0,0,0,0,0,0,0,0,0,0,0,0,0,0,0,0,0,0,0,0,0,0,0,0,0,0,0,0,0,0,0,0,0,0,0,0,0,0,0,0],"id":18,"left_children":[1,3,5,7,9,11,13,15,17,19,21,23,25,-1,-1,27,-1,-1,-1,29,31,33,35,37,39,-1,-1,-1,-1,-1,-1,-1,-1,-1,-1,-1,-1,-1,-1,-1,-1],"loss_changes":[1.4880853E5,3.2001953E4,1.8594383E4,7.015133E3,3.0995435E3,2.0867598E3,1.2462109E3,1.1765664E3,5.945762E2,2.3247925E2,3.9069998E2,3.043203E2,7.919824E1,0E0,0E0,1.2783594E2,0E0,0E0,0E0,1.3720947E1,4.1796997E1,6.1638367E1,5.2653687E1,2.5904541E1,2.9595215E1,0E0,0E0,0E0,0E0,0E0,0E0,0E0,0E0,0E0,0E0,0E0,0E0,0E0,0E0,0E0,0E0],"parents":[2147483647,0,0,1,1,2,2,3,3,4,4,5,5,6,6,7,7,8,8,9,9,10,10,11,11,12,12,15,15,19,19,20,20,21,21,22,22,23,23,24,24],"right_children":[2,4,6,8,10,12,14,16,18,20,22,24,26,-1,-1,28,-1,-1,-1,30,32,34,36,38,40,-1,-1,-1,-1,-1,-1,-1,-1,-1,-1,-1,-1,-1,-1,-1,-1],"split_conditions":[1.808754E2,1.4721753E2,2.1495811E2,1.2762021E2,1.6191269E2,2.0132599E2,2.3655978E2,1.15914E2,1.3806949E2,1.5184044E2,1.7010268E2,1.874981E2,-5.641909E-2,1.1716605E0,1.5776689E0,1.0001133E2,-8.785372E-1,-6.7370474E-1,-4.7757512E-1,2.5004115E-2,1.565055E2,1.6355194E2,1.7299358E2,-3.5786603E-2,1.219465E8,1.5107575E-1,8.003031E-1,-1.617096E0,-1.1141093E0,-3.384355E-1,-2.0521383E-1,-9.6576884E-2,-2.0697856E-1,-8.595929E-2,8.289746E-3,8.540919E-2,1.601033E-1,7.5314075E-2,3.084906E-1,4.84152E-1,2.3296158E-1],"split_indices":[1,3,3,2,3,1,3,3,3,2,3,1,6,0,0,0,0,0,0,6,0,3,3,6,4,0,0,0,0,0,0,0,0,0,0,0,0,0,0,0,0],"split_type":[0,0,0,0,0,0,0,0,0,0,0,0,0,0,0,0,0,0,0,0,0,0,0,0,0,0,0,0,0,0,0,0,0,0,0,0,0,0,0,0,0],"sum_hessian":[1.002E3,6.75E2,3.27E2,3.62E2,3.13E2,1.84E2,1.43E2,1.61E2,2.01E2,1.17E2,1.96E2,1.3E2,5.4E1,1.04E2,3.9E1,5.6E1,1.05E2,7.1E1,1.3E2,6.7E1,5E1,9.2E1,1.04E2,4.7E1,8.3E1,1E0,5.3E1,7E0,4.9E1,5.9E1,8E0,1.5E1,3.5E1,2.2E1,7E1,4.9E1,5.5E1,2E0,4.5E1,7.9E1,4E0],"tree_param":{"num_deleted":"0","num_feature":"8","num_nodes":"41","size_leaf_vector":"1"}},{"base_weights":[1.7105404E-1,-1.0367445E1,1.3226179E1,-1.7601873E1,-5.599762E0,6.4917703E0,2.2253672E1,-2.3200064E1,-1.5501891E1,-8.30312E0,-1.3589432E0,3.600793E0,9.684985E0,1.9256195E1,1.4019066E0,-1.5515771E0,-1.0663198E0,-8.2972044E-1,-6.6474193E-1,-4.8542067E-1,-6.9510655E0,-3.7649376E0,-2.719355E-1,2.2171793E0,5.013267E0,7.2897625E0,5.544397E-1,8.1864274E-1,1.0525757E0,-3.7743488E-1,-2.9360586E-1,-8.8928014E-2,-2.1741657E-1,-8.041986E-2,9.8430915E-3,-1.9622995E-2,1.16904095E-1,1.9766869E-1,2.882896E-1,3.7484086E-1,8.425038E-2],"categories":[],"categories_nodes":[],"categories_segments":[],"categories_sizes":[],"default_left":[0,0,0,0,0,0,0,0,0,0,0,0,0,0,0,0,0,0,0,0,0,0,0,0,0,0,0,0,0,0,0,0,0,0,0,0,0,0,0,0,0],"id":19,"left_children":[1,3,5,7,9,11,13,15,17,19,21,23,25,27,-1,-1,-1,-1,-1,-1,29,31,33,35,37,39,-1,-1,-1,-1,-1,-1,-1,-1,-1,-1,-1,-1,-1,-1,-1],"loss_changes":[1.3799372E5,1.9044191E4,2.7091617E4,2.2266953E3,3.8407715E3,2.3468555E3,2.7717969E3,1.8927734E2,1.7241016E2,3.2202246E2,3.4420032E2,2.5662622E2,3.293828E2,3.2310156E2,0E0,0E0,0E0,0E0,0E0,0E0,2.5312988E1,3.9778687E1,5.795736E1,2.331897E1,3.0644653E1,4.307129E1,0E0,0E0,0E0,0E0,0E0,0E0,0E0,0E0,0E0,0E0,0E0,0E0,0E0,0E0,0E0],"parents":[2147483647,0,0,1,1,2,2,3,3,4,4,5,5,6,6,7,7,8,8,9,9,10,10,11,11,12,12,13,13,20,20,21,21,22,22,23,23,24,24,25,25],"right_children":[2,4,6,8,10,12,14,16,18,20,22,24,26,28,-1,-1,-1,-1,-1,-1,30,32,34,36,38,40,-1,-1,-1,-1,-1,-1,-1,-1,-1,-1,-1,-1,-1,-1,-1],"split_conditions":[1.708593E2,1.3566304E2,2.0282E2,1.15914E2,1.5463705E2,1.8404727E2,2.29294E2,1.0001133E2,1.2762021E2,1.4471825E2,1.6060759E2,1.7429234E2,1.900373E2,2.1722412E2,1.4019066E0,-1.5515771E0,-1.0663198E0,-8.2972044E-1,-6.6474193E-1,-4.8542067E-1,1.4889134E2,6.83566E7,1.6355194E2,4.63119E7,1.7680064E2,1.8879968E2,5.544397E-1,8.1864274E-1,1.0525757E0,-3.7743488E-1,-2.9360586E-1,-8.8928014E-2,-2.1741657E-1,-8.041986E-2,9.8430915E-3,-1.9622995E-2,1.16904095E-1,1.9766869E-1,2.882896E-1,3.7484086E-1,8.425038E-2],"split_indices":[3,3,3,3,3,0,3,0,2,3,0,2,3,3,0,0,0,0,0,0,3,4,3,4,2,2,0,0,0,0,0,0,0,0,0,0,0,0,0,0,0],"split_type":[0,0,0,0,0,0,0,0,0,0,0,0,0,0,0,0,0,0,0,0,0,0,0,0,0,0,0,0,0,0,0,0,0,0,0,0,0,0,0,0,0],"sum_hessian":[1.001E3,5.54E2,4.47E2,2.19E2,3.35E2,2.57E2,1.9E2,5.7E1,1.62E2,2.04E2,1.31E2,1.36E2,1.21E2,1.28E2,6.2E1,8E0,4.9E1,1.04E2,5.8E1,9.7E1,1.07E2,4E1,9.1E1,7E1,6.6E1,4.7E1,7.4E1,5.3E1,7.5E1,6.5E1,4.2E1,1E1,3E1,2.3E1,6.8E1,3E0,6.7E1,3E1,3.6E1,4.5E1,2E0],"tree_param":{"num_deleted":"0","num_feature":"8","num_nodes":"41","size_leaf_vector":"1"}},{"base_weights":[1.0996068E-1,-8.142428E0,1.4900827E1,-1.5368387E1,-2.7540705E0,8.435771E0,2.2064528E1,-1.911725E1,-1.1695036E1,-6.432095E0,8.613466E-1,6.2129145E0,1.13336525E1,1.9565163E1,1.4269809E0,-1.4689728E0,-1.8077868E1,-6.4892644E-1,-4.8679405E-1,-7.3485055E0,-4.038926E0,-1.4981308E0,1.6418575E0,4.555756E0,7.4295015E0,4.8085043E-1,1.2636656E1,8.136892E-1,1.046461E0,-9.8674613E-1,-8.174955E-1,-3.9276353E-1,-3.104138E-1,-2.262698E-1,-1.078284E-1,-5.4159064E-2,-1.3976996E-1,5.4103386E-2,1.5108833E-1,-6.7749023E-3,2.4290405E-1,3.743359E-1,9.7052E-2,6.406274E-1,1.2683259E-1],"categories":[],"categories_nodes":[],"categories_segments":[],"categories_sizes":[],"default_left":[0,0,0,0,0,0,0,0,0,0,0,0,0,0,0,0,0,0,0,0,0,0,0,0,0,0,0,0,0,0,0,0,0,0,0,0,0,0,0,0,0,0,0,0,0],"id":20,"left_children":[1,3,5,7,9,11,13,15,17,19,21,23,25,27,-1,-1,29,-1,-1,31,33,35,37,39,41,-1,43,-1,-1,-1,-1,-1,-1,-1,-1,-1,-1,-1,-1,-1,-1,-1,-1,-1,-1],"loss_changes":[1.2474457E5,2.5499727E4,1.6764695E4,3.6322734E3,5.0187334E3,1.179251E3,2.2413828E3,9.301719E2,2.3574023E2,3.8043408E2,3.5420486E2,1.9195361E2,6.412793E1,2.3407812E2,0E0,0E0,4.0976562E1,0E0,0E0,2.8661133E1,3.9688965E1,2.2810524E1,1.07964325E2,7.157239E1,5.251709E0,0E0,4.566504E1,0E0,0E0,0E0,0E0,0E0,0E0,0E0,0E0,0E0,0E0,0E0,0E0,0E0,0E0,0E0,0E0,0E0,0E0],"parents":[2147483647,0,0,1,1,2,2,3,3,4,4,5,5,6,6,7,7,8,8,9,9,10,10,11,11,12,12,13,13,16,16,19,19,20,20,21,21,22,22,23,23,24,24,26,26],"right_children":[2,4,6,8,10,12,14,16,18,20,22,24,26,28,-1,-1,30,-1,-1,32,34,36,38,40,42,-1,44,-1,-1,-1,-1,-1,-1,-1,-1,-1,-1,-1,-1,-1,-1,-1,-1,-1,-1],"split_conditions":[1.7643745E2,1.4258252E2,2.094054E2,1.24904274E2,1.5751495E2,1.913551E2,2.3417685E2,1.0001133E2,1.3566304E2,1.5223227E2,1.657337E2,1.8404727E2,1.9672203E2,2.1739491E2,1.4269809E0,-1.4689728E0,1.16562706E2,-6.4892644E-1,-4.8679405E-1,1.4812132E2,1.177263E8,1.6554025E2,1.7299358E2,1.7465915E2,1.212516E8,4.8085043E-1,2.1777443E2,8.136892E-1,1.046461E0,-9.8674613E-1,-8.174955E-1,-3.9276353E-1,-3.104138E-1,-2.262698E-1,-1.078284E-1,-5.4159064E-2,-1.3976996E-1,5.4103386E-2,1.5108833E-1,-6.7749023E-3,2.4290405E-1,3.743359E-1,9.7052E-2,6.406274E-1,1.2683259E-1],"split_indices":[5,3,3,3,2,3,3,0,3,3,3,0,3,2,0,0,3,0,0,3,4,0,3,2,4,0,5,0,0,0,0,0,0,0,0,0,0,0,0,0,0,0,0,0,0],"split_type":[0,0,0,0,0,0,0,0,0,0,0,0,0,0,0,0,0,0,0,0,0,0,0,0,0,0,0,0,0,0,0,0,0,0,0,0,0,0,0,0,0,0,0,0,0],"sum_hessian":[1.02E3,6.55E2,3.65E2,2.79E2,3.76E2,1.93E2,1.72E2,1.36E2,1.43E2,1.86E2,1.9E2,1.11E2,8.2E1,1.27E2,4.5E1,1E1,1.26E2,8.3E1,6E1,1.33E2,5.3E1,4.7E1,1.43E2,4.9E1,6.2E1,3.9E1,4.3E1,4.1E1,8.6E1,5.9E1,6.7E1,8.8E1,4.5E1,4.1E1,1.2E1,3.7E1,1E1,1.03E2,4E1,3E0,4.6E1,6.1E1,1E0,4.2E1,1E0],"tree_param":{"num_deleted":"0","num_feature":"8","num_nodes":"45","size_leaf_vector":"1"}},{"base_weights":[-1.764663E-2,-7.1993384E0,1.5055095E1,-1.2904461E1,-1.1449817E0,7.991996E0,2.0661173E1,-1.7200933E1,-9.4409E0,-4.3333526E0,1.5212556E0,6.312692E0,5.201056E-1,1.7813328E1,1.2833639E0,-1.0713468E0,-7.610454E-1,-5.6925696E-1,-8.114673E0,-5.76758E0,-2.497934E0,8.900445E-1,3.4091372E0,4.893997E0,6.9621205E0,1.5188791E1,9.7285E-1,-4.0725252E-1,-1.12493135E-1,-3.007345E-1,-1.5200171E-1,-1.1093631E-1,-2.5066465E-1,3.9680856E-3,7.603573E-2,-1.4729691E-2,1.8403518E-1,1.5114366E-1,2.706697E-1,3.5380453E-1,1.2569885E-1,1.556038E-1,7.685872E-1],"categories":[],"categories_nodes":[],"categories_segments":[],"categories_sizes":[],"default_left":[0,0,0,0,0,0,0,0,0,0,0,0,0,0,0,0,0,0,0,0,0,0,0,0,0,0,0,0,0,0,0,0,0,0,0,0,0,0,0,0,0,0,0],"id":21,"left_children":[1,3,5,7,9,11,13,15,17,19,21,23,-1,25,-1,-1,-1,-1,27,29,31,33,35,37,39,41,-1,-1,-1,-1,-1,-1,-1,-1,-1,-1,-1,-1,-1,-1,-1,-1,-1],"loss_changes":[1.0868091E5,2.3473E4,1.2664078E4,5.0459844E3,2.8204075E3,5.211953E2,2.1089688E3,9.7084375E2,4.1300195E2,3.8308667E2,2.126547E2,4.700537E1,0E0,2.1350781E2,0E0,0E0,0E0,0E0,3.053711E0,3.83313E1,3.663379E1,6.992378E1,4.6345764E1,1.3763489E1,1.1614014E1,6.2634766E1,0E0,0E0,0E0,0E0,0E0,0E0,0E0,0E0,0E0,0E0,0E0,0E0,0E0,0E0,0E0,0E0,0E0],"parents":[2147483647,0,0,1,1,2,2,3,3,4,4,5,5,6,6,7,7,8,8,9,9,10,10,11,11,13,13,18,18,19,19,20,20,21,21,22,22,23,23,24,24,25,25],"right_children":[2,4,6,8,10,12,14,16,18,20,22,24,-1,26,-1,-1,-1,-1,28,30,32,34,36,38,40,42,-1,-1,-1,-1,-1,-1,-1,-1,-1,-1,-1,-1,-1,-1,-1,-1,-1],"split_conditions":[1.8032454E2,1.4540646E2,2.0508107E2,1.2872723E2,1.6355194E2,1.913551E2,2.29294E2,1.1133402E2,1.3869185E2,1.5495187E2,1.7486737E2,1.8404727E2,5.201056E-1,2.1991696E2,1.2833639E0,-1.0713468E0,-7.610454E-1,-5.6925696E-1,5.1532343E-2,1.5184044E2,3.3613045E-2,1.6930547E2,1.715886E2,-7.395046E-3,1.8613379E1,-3.6734242E-2,9.7285E-1,-4.0725252E-1,-1.12493135E-1,-3.007345E-1,-1.5200171E-1,-1.1093631E-1,-2.5066465E-1,3.9680856E-3,7.603573E-2,-1.4729691E-2,1.8403518E-1,1.5114366E-1,2.706697E-1,3.5380453E-1,1.2569885E-1,1.556038E-1,7.685872E-1],"split_indices":[0,2,3,3,3,3,3,2,3,3,3,0,0,3,0,0,0,0,6,2,6,3,2,6,7,6,0,0,0,0,0,0,0,0,0,0,0,0,0,0,0,0,0],"split_type":[0,0,0,0,0,0,0,0,0,0,0,0,0,0,0,0,0,0,0,0,0,0,0,0,0,0,0,0,0,0,0,0,0,0,0,0,0,0,0,0,0,0,0],"sum_hessian":[1.002E3,6.79E2,3.23E2,3.49E2,3.3E2,1.44E2,1.79E2,1.54E2,1.95E2,1.5E2,1.8E2,8.7E1,5.7E1,1.17E2,6.2E1,4.6E1,1.08E2,7.6E1,1.19E2,8.3E1,6.7E1,1.36E2,4.4E1,3E1,5.7E1,4.9E1,6.8E1,1.18E2,1E0,7.5E1,8E0,6.2E1,5E0,6E1,7.6E1,3E0,4.1E1,8E0,2.2E1,5.5E1,2E0,1E0,4.8E1],"tree_param":{"num_deleted":"0","num_feature":"8","num_nodes":"43","size_leaf_vector":"1"}},{"base_weights":[-6.005366E-2,-8.701671E0,1.1626848E1,-1.4564674E1,-4.209409E0,5.776385E0,1.9548397E1,-1.8259607E1,-1.2238743E1,-6.5178485E0,-6.8727726E-1,3.131931E0,8.644607E0,1.6063015E1,2.2631872E1,-1.2982277E0,-8.614486E-1,-6.877744E-1,-5.5759853E-1,-3.6956856E-1,-5.052841E0,-2.1531167E0,3.3060285E-1,2.1520932E0,4.3532925E0,7.3092065E0,1.051784E1,8.1412584E-1,3.7188777E-1,1.0484694E0,1.4366438E0,-2.559003E-1,-4.138184E-3,-6.377538E-2,-1.5802075E-1,-1.5902964E-2,3.994709E-2,5.0077926E-2,1.1200887E-1,3.9009094E-2,2.235591E-1,1.2828828E-3,3.7064454E-1,5.387418E-1,1.6213125E-1],"categories":[],"categories_nodes":[],"categories_segments":[],"categories_sizes":[],"default_left":[0,0,0,0,0,0,0,0,0,0,0,0,0,0,0,0,0,0,0,0,0,0,0,0,0,0,0,0,0,0,0,0,0,0,0,0,0,0,0,0,0,0,0,0,0],"id":22,"left_children":[1,3,5,7,9,11,13,15,17,19,21,23,25,27,29,-1,-1,-1,-1,-1,31,33,35,37,39,41,43,-1,-1,-1,-1,-1,-1,-1,-1,-1,-1,-1,-1,-1,-1,-1,-1,-1,-1],"loss_changes":[9.9781984E4,1.4898754E4,1.9351867E4,1.8906914E3,2.6217134E3,1.8160508E3,1.5494453E3,2.9116992E2,1.0044531E2,2.1219727E2,1.9318614E2,1.438136E2,2.132998E2,4.360742E1,3.306289E2,0E0,0E0,0E0,0E0,0E0,2.4190552E1,4.282161E1,2.3646225E1,5.1544495E0,2.0100586E1,5.3428223E1,5.1067383E1,0E0,0E0,0E0,0E0,0E0,0E0,0E0,0E0,0E0,0E0,0E0,0E0,0E0,0E0,0E0,0E0,0E0,0E0],"parents":[2147483647,0,0,1,1,2,2,3,3,4,4,5,5,6,6,7,7,8,8,9,9,10,10,11,11,12,12,13,13,14,14,20,20,21,21,22,22,23,23,24,24,25,25,26,26],"right_children":[2,4,6,8,10,12,14,16,18,20,22,24,26,28,30,-1,-1,-1,-1,-1,32,34,36,38,40,42,44,-1,-1,-1,-1,-1,-1,-1,-1,-1,-1,-1,-1,-1,-1,-1,-1,-1,-1],"split_conditions":[1.708593E2,1.3869185E2,2.0739E2,1.2022083E2,1.562769E2,1.8569017E2,2.2604543E2,1.0001133E2,1.2862384E2,1.4795366E2,1.6355194E2,1.764236E2,1.9318774E2,9.80704E7,2.445493E2,-1.2982277E0,-8.614486E-1,-6.877744E-1,-5.5759853E-1,-3.6956856E-1,1.5759018E2,9.02218E7,1.6782642E2,4.63119E7,1.747751E2,1.8135193E2,2.0915399E2,8.1412584E-1,3.7188777E-1,1.0484694E0,1.4366438E0,-2.559003E-1,-4.138184E-3,-6.377538E-2,-1.5802075E-1,-1.5902964E-2,3.994709E-2,5.0077926E-2,1.1200887E-1,3.9009094E-2,2.235591E-1,1.2828828E-3,3.7064454E-1,5.387418E-1,1.6213125E-1],"split_indices":[3,3,1,3,3,1,3,0,1,3,3,3,5,4,3,0,0,0,0,0,5,4,3,4,0,3,5,0,0,0,0,0,0,0,0,0,0,0,0,0,0,0,0,0,0],"split_type":[0,0,0,0,0,0,0,0,0,0,0,0,0,0,0,0,0,0,0,0,0,0,0,0,0,0,0,0,0,0,0,0,0,0,0,0,0,0,0,0,0,0,0,0,0],"sum_hessian":[9.86E2,5.67E2,4.19E2,2.45E2,3.22E2,2.42E2,1.77E2,9.2E1,1.53E2,1.94E2,1.28E2,1.27E2,1.15E2,8.6E1,9.1E1,8E0,8.4E1,5.9E1,9.4E1,1.19E2,7.5E1,5.2E1,7.6E1,7.2E1,5.5E1,7E1,4.5E1,8.3E1,3E0,7.5E1,1.6E1,7.4E1,1E0,2.9E1,2.3E1,3.2E1,4.4E1,6E0,6.6E1,2E0,5.3E1,1E0,6.9E1,4.3E1,2E0],"tree_param":{"num_deleted":"0","num_feature":"8","num_nodes":"45","size_leaf_vector":"1"}},{"base_weights":[-5.184121E-2,-7.342377E0,1.1922904E1,-1.3784464E1,-3.195142E0,6.2492285E0,1.844917E1,-1.7978407E1,-1.1826801E1,-6.1852846E0,-9.43395E-2,4.602024E0,8.991848E0,1.6219845E1,1.1721519E0,-1.277723E0,-8.427869E-1,-6.563218E-1,-5.026442E-1,-6.9096613E0,-4.457009E0,-1.7883499E0,9.688055E-1,3.1214697E0,5.755877E0,7.8009253E0,5.2536905E-1,1.2904215E1,8.7979746E-1,-3.48791E-1,-8.146388E-2,-1.9606379E-1,-2.9192528E-1,-1.3145828E-1,-5.4256458E-2,1.5625421E-2,7.884718E-2,1.2532006E-1,2.3281288E-1,3.004156E-1,9.67818E-2,3.5746807E-1,5.2514064E-1,6.520541E-1,1.8573914E-1],"categories":[],"categories_nodes":[],"categories_segments":[],"categories_sizes":[],"default_left":[0,0,0,0,0,0,0,0,0,0,0,0,0,0,0,0,0,0,0,0,0,0,0,0,0,0,0,0,0,0,0,0,0,0,0,0,0,0,0,0,0,0,0,0,0],"id":23,"left_children":[1,3,5,7,9,11,13,15,17,19,21,23,25,27,-1,-1,-1,-1,-1,29,31,33,35,37,39,41,-1,43,-1,-1,-1,-1,-1,-1,-1,-1,-1,-1,-1,-1,-1,-1,-1,-1,-1],"loss_changes":[8.904859E4,1.6894441E4,1.4177477E4,1.8235312E3,3.5876187E3,8.98291E2,1.6125586E3,2.2417773E2,2.6457812E2,2.1583252E2,3.4571948E2,2.0753442E2,5.700879E1,3.5239453E2,0E0,0E0,0E0,0E0,0E0,3.6495117E1,2.2252563E1,4.0901672E1,4.660325E1,4.4969482E1,5.876831E1,7.652832E0,0E0,3.1220703E0,0E0,0E0,0E0,0E0,0E0,0E0,0E0,0E0,0E0,0E0,0E0,0E0,0E0,0E0,0E0,0E0,0E0],"parents":[2147483647,0,0,1,1,2,2,3,3,4,4,5,5,6,6,7,7,8,8,9,9,10,10,11,11,12,12,13,13,19,19,20,20,21,21,22,22,23,23,24,24,25,25,27,27],"right_children":[2,4,6,8,10,12,14,16,18,20,22,24,26,28,-1,-1,-1,-1,-1,30,32,34,36,38,40,42,-1,44,-1,-1,-1,-1,-1,-1,-1,-1,-1,-1,-1,-1,-1,-1,-1,-1,-1],"split_conditions":[1.7396382E2,1.3930551E2,2.0508107E2,1.18202324E2,1.562769E2,1.900373E2,2.323096E2,1.0001133E2,1.2762021E2,1.4889134E2,1.657337E2,1.8135193E2,1.9699966E2,2.1778152E2,1.1721519E0,-1.277723E0,-8.427869E-1,-6.563218E-1,-5.026442E-1,1.516819E2,9.38862E7,1.6060759E2,1.7010268E2,1.8032454E2,1.9014621E2,8.56719E7,5.2536905E-1,2.2341866E2,8.7979746E-1,-3.48791E-1,-8.146388E-2,-1.9606379E-1,-2.9192528E-1,-1.3145828E-1,-5.4256458E-2,1.5625421E-2,7.884718E-2,1.2532006E-1,2.3281288E-1,3.004156E-1,9.67818E-2,3.5746807E-1,5.2514064E-1,6.520541E-1,1.8573914E-1],"split_indices":[5,3,3,3,3,3,3,0,2,3,3,3,5,3,0,0,0,0,0,5,4,0,3,0,5,4,0,5,0,0,0,0,0,0,0,0,0,0,0,0,0,0,0,0,0],"split_type":[0,0,0,0,0,0,0,0,0,0,0,0,0,0,0,0,0,0,0,0,0,0,0,0,0,0,0,0,0,0,0,0,0,0,0,0,0,0,0,0,0,0,0,0,0],"sum_hessian":[1.018E3,6.33E2,3.85E2,2.47E2,3.86E2,2.07E2,1.78E2,7.6E1,1.71E2,1.96E2,1.9E2,1.31E2,7.6E1,1.26E2,5.2E1,7E0,6.9E1,9.5E1,7.6E1,1.36E2,6E1,7.3E1,1.17E2,5.9E1,7.2E1,4.6E1,3E1,4E1,8.6E1,1.34E2,2E0,4.6E1,1.4E1,3.2E1,4.1E1,5.7E1,6E1,4.4E1,1.5E1,6.7E1,5E0,4E1,6E0,3.9E1,1E0],"tree_param":{"num_deleted":"0","num_feature":"8","num_nodes":"45","size_leaf_vector":"1"}},{"base_weights":[6.549024E-2,-6.8685102E0,1.2405156E1,-1.245019E1,-2.3995924E0,7.3197184E0,1.910622E1,-1.5869942E1,-9.933401E0,-5.055615E0,5.655765E-1,5.192301E0,1.0105903E1,1.7569948E1,1.2614088E0,-1.0257806E0,-7.278446E-1,-1.1146631E1,-8.24164E0,-6.023306E0,-2.9606504E0,-1.020667E0,1.3676515E0,3.7361097E0,6.2884507E0,8.778721E0,5.951367E-1,7.636129E-1,9.295843E-1,-5.632687E-1,3.791809E-4,-4.151294E-1,-9.481239E-2,-3.0497664E-1,-1.0581722E-1,-2.2517984E-1,-1.2296937E-1,-7.932643E-2,-2.0004878E-2,-2.4332771E-2,8.718178E-2,2.091955E-1,5.1611494E-2,2.490839E-1,3.4291583E-1,4.5437232E-1,2.3714459E-1],"categories":[],"categories_nodes":[],"categories_segments":[],"categories_sizes":[],"default_left":[0,0,0,0,0,0,0,0,0,0,0,0,0,0,0,0,0,0,0,0,0,0,0,0,0,0,0,0,0,0,0,0,0,0,0,0,0,0,0,0,0,0,0,0,0,0,0],"id":24,"left_children":[1,3,5,7,9,11,13,15,17,19,21,23,25,27,-1,-1,-1,29,31,33,35,37,39,41,43,45,-1,-1,-1,-1,-1,-1,-1,-1,-1,-1,-1,-1,-1,-1,-1,-1,-1,-1,-1,-1,-1],"loss_changes":[8.633297E4,1.6083994E4,1.2230406E4,2.312504E3,2.8380586E3,1.1804209E3,1.02391797E3,4.3335547E2,2.5295312E2,3.673506E2,2.1895685E2,1.680498E2,1.0774902E2,1.6558594E1,0E0,0E0,0E0,1.2591016E2,1.2874512E1,2.5509277E1,3.687616E1,1.9732304E1,8.032817E1,6.1064392E1,1.5728027E1,2.5427246E1,0E0,0E0,0E0,0E0,0E0,0E0,0E0,0E0,0E0,0E0,0E0,0E0,0E0,0E0,0E0,0E0,0E0,0E0,0E0,0E0,0E0],"parents":[2147483647,0,0,1,1,2,2,3,3,4,4,5,5,6,6,7,7,8,8,9,9,10,10,11,11,12,12,13,13,17,17,18,18,19,19,20,20,21,21,22,22,23,23,24,24,25,25],"right_children":[2,4,6,8,10,12,14,16,18,20,22,24,26,28,-1,-1,-1,30,32,34,36,38,40,42,44,46,-1,-1,-1,-1,-1,-1,-1,-1,-1,-1,-1,-1,-1,-1,-1,-1,-1,-1,-1,-1,-1],"split_conditions":[1.7784163E2,1.4258252E2,2.1495811E2,1.25018585E2,1.6191269E2,1.921727E2,2.4206607E2,1.12213486E2,1.340242E2,1.5223227E2,1.6782642E2,1.8404727E2,2.0739E2,2.2457826E2,1.2614088E0,-1.0257806E0,-7.278446E-1,1.362166E2,1.614982E8,3.2570586E-2,-1.2154121E-2,1.645921E2,-1.3232992E-2,7.9471E7,1.8899596E2,2.03326E2,5.951367E-1,7.636129E-1,9.295843E-1,-5.632687E-1,3.791809E-4,-4.151294E-1,-9.481239E-2,-3.0497664E-1,-1.0581722E-1,-2.2517984E-1,-1.2296937E-1,-7.932643E-2,-2.0004878E-2,-2.4332771E-2,8.718178E-2,2.091955E-1,5.1611494E-2,2.490839E-1,3.4291583E-1,4.5437232E-1,2.3714459E-1],"split_indices":[1,3,3,1,3,3,3,1,3,3,3,0,1,3,0,0,0,0,4,6,6,3,6,4,1,5,0,0,0,0,0,0,0,0,0,0,0,0,0,0,0,0,0,0,0,0,0],"split_type":[0,0,0,0,0,0,0,0,0,0,0,0,0,0,0,0,0,0,0,0,0,0,0,0,0,0,0,0,0,0,0,0,0,0,0,0,0,0,0,0,0,0,0,0,0,0,0],"sum_hessian":[1.007E3,6.45E2,3.62E2,2.86E2,3.59E2,2.07E2,1.55E2,1.19E2,1.67E2,1.89E2,1.7E2,1.19E2,8.8E1,1.27E2,2.8E1,2.3E1,9.6E1,9.4E1,7.3E1,1.28E2,6.1E1,5.7E1,1.13E2,5.3E1,6.6E1,5.4E1,3.4E1,4.4E1,8.3E1,9.3E1,1E0,7.2E1,1E0,1.25E2,3E0,1.3E1,4.8E1,2.9E1,2.8E1,1.9E1,9.4E1,4.5E1,8E0,2.3E1,4.3E1,4.9E1,5E0],"tree_param":{"num_deleted":"0","num_feature":"8","num_nodes":"47","size_leaf_vector":"1"}},{"base_weights":[7.468208E-2,-6.181179E0,1.1964161E1,-1.1680196E1,-1.6787801E0,7.55813E0,1.791628E1,-1.4970499E1,-9.091249E0,-4.44945E0,8.1632775E-1,5.989206E0,1.0974465E1,1.6618114E1,1.296192E0,-1.0242404E0,-6.896191E-1,-5.217607E-1,-7.5750566E0,-5.683903E0,-3.1927435E0,-2.9799676E-1,1.8563724E0,4.4247856E0,6.87111E0,5.5474967E-1,8.754273E-2,1.3512054E1,8.848484E-1,-3.810886E-1,-9.244194E-2,-2.8846154E-1,-6.858241E-2,-1.936673E-1,-1.2205956E-1,-5.7341576E-2,6.553841E-3,1.937917E-2,1.0441371E-1,2.3464672E-1,7.487183E-2,4.7378808E-1,3.2298198E-1,7.0220864E-1,1.3113074E-1],"categories":[],"categories_nodes":[],"categories_segments":[],"categories_sizes":[],"default_left":[0,0,0,0,0,0,0,0,0,0,0,0,0,0,0,0,0,0,0,0,0,0,0,0,0,0,0,0,0,0,0,0,0,0,0,0,0,0,0,0,0,0,0,0,0],"id":25,"left_children":[1,3,5,7,9,11,13,15,17,19,21,23,25,27,-1,-1,-1,-1,29,31,33,35,37,39,41,-1,-1,43,-1,-1,-1,-1,-1,-1,-1,-1,-1,-1,-1,-1,-1,-1,-1,-1,-1],"loss_changes":[7.594046E4,1.6544006E4,9.095863E3,2.4279414E3,2.5545737E3,1.027706E3,1.1180703E3,5.6850586E2,2.6940137E2,2.5333813E2,2.2654787E2,1.6550977E2,5.061133E1,1.9985547E2,0E0,0E0,0E0,0E0,8.378906E0,2.4098633E1,3.6068665E1,3.475052E1,3.3592773E1,3.536084E1,3.4174316E1,0E0,0E0,1.8335645E2,0E0,0E0,0E0,0E0,0E0,0E0,0E0,0E0,0E0,0E0,0E0,0E0,0E0,0E0,0E0,0E0,0E0],"parents":[2147483647,0,0,1,1,2,2,3,3,4,4,5,5,6,6,7,7,8,8,9,9,10,10,11,11,12,12,13,13,18,18,19,19,20,20,21,21,22,22,23,23,24,24,27,27],"right_children":[2,4,6,8,10,12,14,16,18,20,22,24,26,28,-1,-1,-1,-1,30,32,34,36,38,40,42,-1,-1,44,-1,-1,-1,-1,-1,-1,-1,-1,-1,-1,-1,-1,-1,-1,-1,-1,-1],"split_conditions":[1.7997801E2,1.4367085E2,2.1293416E2,1.246984E2,1.6191269E2,1.9672203E2,2.445493E2,1.10309654E2,1.3566304E2,1.4965897E2,1.7010268E2,1.8585628E2,2.1777443E2,2.2504713E2,1.296192E0,-1.0242404E0,-6.896191E-1,-5.217607E-1,1.4784917E2,1.516819E2,1.5495187E2,1.6484444E2,-1.2317011E-2,1.8451815E1,-1.8894048E-2,5.5474967E-1,8.754273E-2,2.2345697E2,8.848484E-1,-3.810886E-1,-9.244194E-2,-2.8846154E-1,-6.858241E-2,-1.936673E-1,-1.2205956E-1,-5.7341576E-2,6.553841E-3,1.937917E-2,1.0441371E-1,2.3464672E-1,7.487183E-2,4.7378808E-1,3.2298198E-1,7.0220864E-1,1.3113074E-1],"split_indices":[1,3,0,3,3,3,3,1,3,3,3,0,5,1,0,0,0,0,5,5,3,3,6,7,6,0,0,3,0,0,0,0,0,0,0,0,0,0,0,0,0,0,0,0,0],"split_type":[0,0,0,0,0,0,0,0,0,0,0,0,0,0,0,0,0,0,0,0,0,0,0,0,0,0,0,0,0,0,0,0,0,0,0,0,0,0,0,0,0,0,0,0,0],"sum_hessian":[1.019E3,6.68E2,3.51E2,3E2,3.68E2,2.03E2,1.48E2,1.3E2,1.7E2,1.74E2,1.94E2,1.41E2,6.2E1,1.3E2,1.8E1,2E1,1.1E2,8.7E1,8.3E1,8.6E1,8.8E1,9.4E1,1E2,5.3E1,8.8E1,6.1E1,1E0,3.7E1,9.3E1,8.2E1,1E0,8.4E1,2E0,4.4E1,4.4E1,3.1E1,6.3E1,1.4E1,8.6E1,4.8E1,5E0,9E0,7.9E1,3.5E1,2E0],"tree_param":{"num_deleted":"0","num_feature":"8","num_nodes":"45","size_leaf_vector":"1"}},{"base_weights":[2.523873E-1,-5.790482E0,1.1738388E1,-1.11677E1,-1.8877164E0,7.0602403E0,1.7171282E1,-1.3957262E1,-8.73379E0,-4.6630216E0,6.4604205E-1,5.44308E0,9.986907E0,1.5672731E1,1.1186339E0,-8.7736464E-1,-6.4241904E-1,-4.944356E-1,-7.585268E0,-5.517144E0,-3.4377499E0,-7.105328E-1,1.7500938E0,4.25649E0,6.2354684E0,8.535423E-2,5.044803E-1,3.017217E-1,7.889762E-1,-5.344006E-1,-3.5675842E-1,-2.775324E-1,-5.081978E-2,-2.0119551E-1,-1.2438574E-1,-1.0263821E-1,-1.0956425E-2,-3.058392E-5,1.0938885E-1,4.8026085E-1,1.9816379E-1,3.143818E-1,6.459313E-2],"categories":[],"categories_nodes":[],"categories_segments":[],"categories_sizes":[],"default_left":[0,0,0,0,0,0,0,0,0,0,0,0,0,0,0,0,0,0,0,0,0,0,0,0,0,0,0,0,0,0,0,0,0,0,0,0,0,0,0,0,0,0,0],"id":26,"left_children":[1,3,5,7,9,11,13,15,17,19,21,23,25,27,-1,-1,-1,-1,29,31,33,35,37,39,41,-1,-1,-1,-1,-1,-1,-1,-1,-1,-1,-1,-1,-1,-1,-1,-1,-1,-1],"loss_changes":[6.905992E4,1.3661803E4,8.596414E3,1.7384336E3,2.6681226E3,8.25958E2,8.8090234E2,2.7614062E2,1.2263281E2,1.7045581E2,2.992915E2,8.816797E1,3.804785E1,3.4470703E1,0E0,0E0,0E0,0E0,3.4066406E1,1.019165E1,3.2868896E1,5.8912224E1,8.428931E1,4.3484802E1,1.0187988E1,0E0,0E0,0E0,0E0,0E0,0E0,0E0,0E0,0E0,0E0,0E0,0E0,0E0,0E0,0E0,0E0,0E0,0E0],"parents":[2147483647,0,0,1,1,2,2,3,3,4,4,5,5,6,6,7,7,8,8,9,9,10,10,11,11,12,12,13,13,18,18,19,19,20,20,21,21,22,22,23,23,24,24],"right_children":[2,4,6,8,10,12,14,16,18,20,22,24,26,28,-1,-1,-1,-1,30,32,34,36,38,40,42,-1,-1,-1,-1,-1,-1,-1,-1,-1,-1,-1,-1,-1,-1,-1,-1,-1,-1],"split_conditions":[1.797008E2,1.4240863E2,2.1093352E2,1.2441184E2,1.5698148E2,1.9613371E2,2.3901343E2,1.09311485E2,1.3303671E2,1.475132E2,1.6816437E2,1.8725867E2,-5.641909E-2,2.1005365E2,1.1186339E0,-8.7736464E-1,-6.4241904E-1,-4.944356E-1,-3.390509E-2,1.5137611E2,1.5184044E2,-9.311765E-3,-1.0346987E-2,1.690391E2,1.219465E8,8.535423E-2,5.044803E-1,3.017217E-1,7.889762E-1,-5.344006E-1,-3.5675842E-1,-2.775324E-1,-5.081978E-2,-2.0119551E-1,-1.2438574E-1,-1.0263821E-1,-1.0956425E-2,-3.058392E-5,1.0938885E-1,4.8026085E-1,1.9816379E-1,3.143818E-1,6.459313E-2],"split_indices":[0,3,2,3,2,3,3,2,3,2,2,3,6,5,0,0,0,0,6,5,2,6,6,2,4,0,0,0,0,0,0,0,0,0,0,0,0,0,0,0,0,0,0],"split_type":[0,0,0,0,0,0,0,0,0,0,0,0,0,0,0,0,0,0,0,0,0,0,0,0,0,0,0,0,0,0,0,0,0,0,0,0,0,0,0,0,0,0,0],"sum_hessian":[9.93E2,6.51E2,3.42E2,2.73E2,3.78E2,1.85E2,1.57E2,1.25E2,1.48E2,1.8E2,1.98E2,1.21E2,6.4E1,1.25E2,3.2E1,2.6E1,9.9E1,7E1,7.8E1,1.04E2,7.6E1,8.9E1,1.09E2,5.1E1,7E1,1E0,6.3E1,2E0,1.23E2,7E0,7.1E1,1.03E2,1E0,4.5E1,3.1E1,2.3E1,6.6E1,2.2E1,8.7E1,1E0,5E1,6.9E1,1E0],"tree_param":{"num_deleted":"0","num_feature":"8","num_nodes":"43","size_leaf_vector":"1"}},{"base_weights":[6.850641E-2,-5.5227857E0,1.1267382E1,-1.0554446E1,-1.7218374E0,7.0637527E0,1.6331507E1,-1.4217419E1,-8.715869E0,-4.1486416E0,8.553194E-1,5.252203E0,9.583471E0,1.5163929E1,1.0987705E0,-1.082797E0,-6.64755E-1,-9.599915E0,-6.815719E0,-5.2098517E0,-2.944728E0,-2.4248393E-1,1.6809171E0,4.1742325E0,6.236384E0,1.6203995E-1,4.9433103E-1,1.5248344E1,1.0685807E-1,-2.3736887E-1,-4.8379818E-1,-3.4353E-1,-8.121186E-2,-1.22251235E-1,-2.67636E-1,-1.6546236E-1,-4.576516E-2,-6.7880295E-2,4.617834E-3,1.1199474E-2,9.567485E-2,-2.759552E-2,2.1350984E-1,5.57659E-1,2.8738186E-1,6.906604E-1,8.266282E-1],"categories":[],"categories_nodes":[],"categories_segments":[],"categories_sizes":[],"default_left":[0,0,0,0,0,0,0,0,0,0,0,0,0,0,0,0,0,0,0,0,0,0,0,0,0,0,0,0,0,0,0,0,0,0,0,0,0,0,0,0,0,0,0,0,0,0,0],"id":27,"left_children":[1,3,5,7,9,11,13,15,17,19,21,23,25,27,-1,-1,-1,29,31,33,35,37,39,41,43,-1,-1,45,-1,-1,-1,-1,-1,-1,-1,-1,-1,-1,-1,-1,-1,-1,-1,-1,-1,-1,-1],"loss_changes":[6.3742883E4,1.296776E4,7.101168E3,1.8426035E3,2.4301992E3,8.032451E2,6.749922E2,3.7070898E2,2.6549414E2,2.4017969E2,1.717066E2,9.172974E1,1.1601318E2,1.1036914E2,0E0,0E0,0E0,2.7763672E0,7.6450195E0,2.8387695E1,6.7988464E1,3.074321E1,3.616739E1,2.7755066E1,7.0467285E1,0E0,0E0,9.380859E0,0E0,0E0,0E0,0E0,0E0,0E0,0E0,0E0,0E0,0E0,0E0,0E0,0E0,0E0,0E0,0E0,0E0,0E0,0E0],"parents":[2147483647,0,0,1,1,2,2,3,3,4,4,5,5,6,6,7,7,8,8,9,9,10,10,11,11,12,12,13,13,17,17,18,18,19,19,20,20,21,21,22,22,23,23,24,24,27,27],"right_children":[2,4,6,8,10,12,14,16,18,20,22,24,26,28,-1,-1,-1,30,32,34,36,38,40,42,44,-1,-1,46,-1,-1,-1,-1,-1,-1,-1,-1,-1,-1,-1,-1,-1,-1,-1,-1,-1,-1,-1],"split_conditions":[1.808754E2,1.4258252E2,2.1495811E2,1.19413765E2,1.5945079E2,1.9598344E2,2.4277437E2,1.0001133E2,1.3566304E2,1.475132E2,1.6963266E2,1.8899596E2,-3.6734242E-2,1.843649E1,1.0987705E0,-1.082797E0,-6.64755E-1,1.7826641E1,1.8900005E1,-2.0534884E-2,1.8583874E1,-1.1200381E-2,-1.2317011E-2,-3.5786603E-2,-1.935768E-2,1.6203995E-1,4.9433103E-1,2.2471907E2,1.0685807E-1,-2.3736887E-1,-4.8379818E-1,-3.4353E-1,-8.121186E-2,-1.22251235E-1,-2.67636E-1,-1.6546236E-1,-4.576516E-2,-6.7880295E-2,4.617834E-3,1.1199474E-2,9.567485E-2,-2.759552E-2,2.1350984E-1,5.57659E-1,2.8738186E-1,6.906604E-1,8.266282E-1],"split_indices":[1,3,3,2,2,1,3,0,3,2,3,1,6,7,0,0,0,7,7,6,7,6,6,6,6,0,0,2,0,0,0,0,0,0,0,0,0,0,0,0,0,0,0,0,0,0,0],"split_type":[0,0,0,0,0,0,0,0,0,0,0,0,0,0,0,0,0,0,0,0,0,0,0,0,0,0,0,0,0,0,0,0,0,0,0,0,0,0,0,0,0,0,0,0,0,0,0],"sum_hessian":[1.016E3,6.78E2,3.38E2,2.91E2,3.87E2,1.86E2,1.52E2,9.5E1,1.96E2,1.99E2,1.88E2,1.1E2,7.6E1,1.29E2,2.3E1,8E0,8.7E1,1.31E2,6.5E1,1.04E2,9.5E1,8.1E1,1.07E2,5.5E1,5.5E1,4E0,7.2E1,1.28E2,1E0,3E0,1.28E2,6.4E1,1E0,6E0,9.8E1,8E1,1.5E1,1.8E1,6.3E1,1.5E1,9.2E1,1E0,5.4E1,3E0,5.2E1,6.6E1,6.2E1],"tree_param":{"num_deleted":"0","num_feature":"8","num_nodes":"47","size_leaf_vector":"1"}},{"base_weights":[-1.95974E-1,-7.0598903E0,7.493211E0,-1.1395037E1,-3.962548E0,3.7856627E0,1.4047161E1,-1.46884365E1,-9.72683E0,-5.4153247E0,-1.6966052E0,1.9647199E0,6.10592E0,1.2347714E1,1.7225561E1,-1.0541342E0,-6.6472906E-1,-5.1866627E-1,-8.616522E0,-6.2946186E0,-4.468347E0,-2.4587982E0,-6.0224617E-1,1.0871707E0,3.3177562E0,5.27575E0,7.9988155E0,1.04142475E1,6.69332E-1,8.683651E-1,2.3574448E-1,-1.0747299E-1,-4.3448505E-1,-3.164123E-1,-7.918167E-2,-2.4408452E-1,-1.8993126E-1,-1.9555432E-1,-9.458872E-2,-5.351556E-2,1.984217E-2,-1.4347725E-2,6.98852E-2,7.610326E-2,1.930968E-1,2.5251856E-1,5.214396E-1,4.1213655E-1,1.2027766E-1,9.4898604E-2,5.2840805E-1],"categories":[],"categories_nodes":[],"categories_segments":[],"categories_sizes":[],"default_left":[0,0,0,0,0,0,0,0,0,0,0,0,0,0,0,0,0,0,0,0,0,0,0,0,0,0,0,0,0,0,0,0,0,0,0,0,0,0,0,0,0,0,0,0,0,0,0,0,0,0,0],"id":28,"left_children":[1,3,5,7,9,11,13,15,17,19,21,23,25,27,29,-1,-1,-1,31,33,35,37,39,41,43,45,47,49,-1,-1,-1,-1,-1,-1,-1,-1,-1,-1,-1,-1,-1,-1,-1,-1,-1,-1,-1,-1,-1,-1,-1],"loss_changes":[5.214471E4,6.963965E3,1.1270195E4,1.0493418E3,9.981372E2,1.2512949E3,6.947617E2,3.525127E2,1.6135742E1,1.2675049E2,9.944687E1,1.9705609E2,1.6365723E2,8.757422E1,1.7419922E1,0E0,0E0,0E0,9.717285E0,4.869873E0,7.2009277E0,5.106833E1,2.4274328E1,4.4779083E1,5.8615723E1,5.650122E1,3.201465E1,3.761621E1,0E0,0E0,0E0,0E0,0E0,0E0,0E0,0E0,0E0,0E0,0E0,0E0,0E0,0E0,0E0,0E0,0E0,0E0,0E0,0E0,0E0,0E0,0E0],"parents":[2147483647,0,0,1,1,2,2,3,3,4,4,5,5,6,6,7,7,8,8,9,9,10,10,11,11,12,12,13,13,14,14,18,18,19,19,20,20,21,21,22,22,23,23,24,24,25,25,26,26,27,27],"right_children":[2,4,6,8,10,12,14,16,18,20,22,24,26,28,30,-1,-1,-1,32,34,36,38,40,42,44,46,48,50,-1,-1,-1,-1,-1,-1,-1,-1,-1,-1,-1,-1,-1,-1,-1,-1,-1,-1,-1,-1,-1,-1,-1],"split_conditions":[1.6810474E2,1.3566304E2,2.0508107E2,1.1612824E2,1.511284E2,1.8404727E2,2.2976236E2,1.0001133E2,1.2872723E2,1.4418675E2,1.6191269E2,1.7389577E2,1.9613371E2,2.1722412E2,7.5834E7,-1.0541342E0,-6.6472906E-1,-5.1866627E-1,1.256056E2,1.614982E8,3.9204997E-3,-1.2154121E-2,7.69578E7,-1.3232992E-2,-5.687065E-3,1.015933E8,1.015933E8,-3.6734242E-2,6.69332E-1,8.683651E-1,2.3574448E-1,-1.0747299E-1,-4.3448505E-1,-3.164123E-1,-7.918167E-2,-2.4408452E-1,-1.8993126E-1,-1.9555432E-1,-9.458872E-2,-5.351556E-2,1.984217E-2,-1.4347725E-2,6.98852E-2,7.610326E-2,1.930968E-1,2.5251856E-1,5.214396E-1,4.1213655E-1,1.2027766E-1,9.4898604E-2,5.2840805E-1],"split_indices":[3,3,3,2,3,0,3,0,3,3,3,2,3,3,4,0,0,0,0,4,6,6,4,6,6,4,4,6,0,0,0,0,0,0,0,0,0,0,0,0,0,0,0,0,0,0,0,0,0,0,0],"split_type":[0,0,0,0,0,0,0,0,0,0,0,0,0,0,0,0,0,0,0,0,0,0,0,0,0,0,0,0,0,0,0,0,0,0,0,0,0,0,0,0,0,0,0,0,0,0,0,0,0,0,0],"sum_hessian":[9.86E2,5.21E2,4.65E2,2.16E2,3.05E2,2.98E2,1.67E2,7E1,1.46E2,1.85E2,1.2E2,1.68E2,1.3E2,1.12E2,5.5E1,1E1,6E1,8.7E1,5.9E1,9.3E1,9.2E1,7E1,5E1,1.03E2,6.5E1,9.3E1,3.7E1,4.3E1,6.9E1,5.4E1,1E0,1E0,5.8E1,9.2E1,1E0,5.3E1,3.9E1,1.8E1,5.2E1,3.4E1,1.6E1,1.9E1,8.4E1,1.6E1,4.9E1,9.1E1,2E0,3.5E1,2E0,1E0,4.2E1],"tree_param":{"num_deleted":"0","num_feature":"8","num_nodes":"51","size_leaf_vector":"1"}},{"base_weights":[6.036216E-2,-6.196897E0,8.095115E0,-1.0502303E1,-2.9620044E0,3.9961607E0,1.3776288E1,-1.3871017E1,-8.993959E0,-4.8693914E0,-7.169729E-1,2.2114463E0,6.0797524E0,1.2178342E1,8.477678E-1,-1.0442537E0,-6.279168E-1,-4.9231648E-1,-7.7551227E0,-5.748417E0,-4.1684375E0,-1.7493545E0,3.112586E-1,4.4127694E-1,2.1003697E0,5.2664933E0,7.7177935E0,9.604781E0,1.2988264E1,-1.047863E-1,-3.90197E-1,-2.9189762E-1,-8.2679495E-2,-2.1123925E-1,-4.5975495E-2,-7.432177E-2,-2.5664672E-1,-2.787353E-2,2.8550953E-2,6.8662345E-2,1.4090644E-1,2.6544246E-1,4.589157E-2,1.12459056E-1,3.9830118E-1,2.9249683E-1,5.1002324E-1,6.550556E-1,2.6179048E-1],"categories":[],"categories_nodes":[],"categories_segments":[],"categories_sizes":[],"default_left":[0,0,0,0,0,0,0,0,0,0,0,0,0,0,0,0,0,0,0,0,0,0,0,0,0,0,0,0,0,0,0,0,0,0,0,0,0,0,0,0,0,0,0,0,0,0,0,0,0],"id":29,"left_children":[1,3,5,7,9,11,13,15,17,19,21,23,25,27,-1,-1,-1,-1,29,31,33,35,37,-1,39,41,43,45,47,-1,-1,-1,-1,-1,-1,-1,-1,-1,-1,-1,-1,-1,-1,-1,-1,-1,-1,-1,-1],"loss_changes":[5.0526797E4,7.8379434E3,1.0191172E4,1.1048926E3,1.3839231E3,9.4223975E2,7.2822656E2,4.098457E2,1.0315039E2,8.3865234E1,1.5977357E2,8.4316895E1,1.1654834E2,1.3788086E2,0E0,0E0,0E0,0E0,4.0893555E0,1.784375E1,1.4605103E1,5.909082E1,1.7468597E1,0E0,6.867401E1,1.0231201E1,3.2309814E1,1.6375488E1,1.2764648E1,0E0,0E0,0E0,0E0,0E0,0E0,0E0,0E0,0E0,0E0,0E0,0E0,0E0,0E0,0E0,0E0,0E0,0E0,0E0,0E0],"parents":[2147483647,0,0,1,1,2,2,3,3,4,4,5,5,6,6,7,7,8,8,9,9,10,10,11,11,12,12,13,13,18,18,19,19,20,20,21,21,22,22,24,24,25,25,26,26,27,27,28,28],"right_children":[2,4,6,8,10,12,14,16,18,20,22,24,26,28,-1,-1,-1,-1,30,32,34,36,38,-1,40,42,44,46,48,-1,-1,-1,-1,-1,-1,-1,-1,-1,-1,-1,-1,-1,-1,-1,-1,-1,-1,-1,-1],"split_conditions":[1.708593E2,1.3869185E2,2.0686E2,1.15886925E2,1.5184044E2,1.8541287E2,2.2976236E2,9.800886E1,1.2872723E2,1.4505502E2,1.6355194E2,-4.911874E-2,1.9613371E2,2.1495811E2,8.477678E-1,-1.0442537E0,-6.279168E-1,-4.9231648E-1,1.2560562E2,2.9999932E-2,1.5495187E2,3.3613045E-2,-1.167616E-2,4.4127694E-1,1.7429234E2,1.219465E8,-3.6734242E-2,-9.012624E-3,2.2772067E2,-1.047863E-1,-3.90197E-1,-2.9189762E-1,-8.2679495E-2,-2.1123925E-1,-4.5975495E-2,-7.432177E-2,-2.5664672E-1,-2.787353E-2,2.8550953E-2,6.8662345E-2,1.4090644E-1,2.6544246E-1,4.589157E-2,1.12459056E-1,3.9830118E-1,2.9249683E-1,5.1002324E-1,6.550556E-1,2.6179048E-1],"split_indices":[3,3,3,2,2,3,3,2,3,3,3,6,3,3,0,0,0,0,2,6,3,6,6,0,2,4,6,6,2,0,0,0,0,0,0,0,0,0,0,0,0,0,0,0,0,0,0,0,0],"split_type":[0,0,0,0,0,0,0,0,0,0,0,0,0,0,0,0,0,0,0,0,0,0,0,0,0,0,0,0,0,0,0,0,0,0,0,0,0,0,0,0,0,0,0,0,0,0,0,0,0],"sum_hessian":[1.003E3,5.64E2,4.39E2,2.41E2,3.23E2,2.56E2,1.83E2,7.2E1,1.69E2,1.74E2,1.49E2,1.39E2,1.17E2,1.25E2,5.8E1,9E0,6.3E1,9.6E1,7.3E1,7.4E1,1E2,7.4E1,7.5E1,1E0,1.38E2,8.1E1,3.6E1,3.3E1,9.2E1,1E0,7.2E1,7.2E1,2E0,9.8E1,2E0,7E1,4E0,1.7E1,5.8E1,7E1,6.8E1,8E1,1E0,2E0,3.4E1,6E0,2.7E1,9E1,2E0],"tree_param":{"num_deleted":"0","num_feature":"8","num_nodes":"49","size_leaf_vector":"1"}},{"base_weights":[-1.6543375E-2,-4.573495E0,9.962656E0,-8.896067E0,-9.8019373E-1,6.024726E0,1.3912376E1,-1.2156724E1,-7.2928596E0,-3.3576005E0,7.162497E-1,4.3114514E0,7.8155093E0,1.2835997E1,1.0135988E0,-9.340415E-1,-5.662245E-1,-4.2492944E-1,-6.0644712E0,-3.855142E0,-1.9373112E0,-6.645482E-1,1.2797662E0,3.0414379E0,4.5882993E0,7.873001E-2,7.960939E0,1.0600154E1,1.3712894E1,-4.353195E-1,-2.8548336E-1,-1.9770727E-1,-4.7258376E-3,-1.8240465E-2,-1.3032842E-1,-6.782407E-2,3.7476245E-2,3.8418017E-2,9.4779834E-2,1.704357E-1,-8.0056384E-2,4.4593047E-2,2.3153964E-1,3.2002142E-1,4.2439675E-1,5.561275E-1,2.2027206E-1,1.707901E-1,6.89305E-1],"categories":[],"categories_nodes":[],"categories_segments":[],"categories_sizes":[],"default_left":[0,0,0,0,0,0,0,0,0,0,0,0,0,0,0,0,0,0,0,0,0,0,0,0,0,0,0,0,0,0,0,0,0,0,0,0,0,0,0,0,0,0,0,0,0,0,0,0,0],"id":30,"left_children":[1,3,5,7,9,11,13,15,17,19,21,23,25,27,-1,-1,-1,-1,29,31,33,35,37,39,41,-1,43,45,47,-1,-1,-1,-1,-1,-1,-1,-1,-1,-1,-1,-1,-1,-1,-1,-1,-1,-1,-1,-1],"loss_changes":[4.583861E4,1.0739633E4,4.831158E3,1.5527793E3,1.5309634E3,4.572002E2,8.1450977E2,3.4226855E2,2.6393652E2,1.0418262E2,1.7358919E2,1.5579468E1,5.7351074E1,1.2324414E2,0E0,0E0,0E0,0E0,5.2461914E1,4.2814575E1,4.4302643E1,6.4615585E1,4.8303894E1,3.6149643E1,6.393921E0,0E0,7.352539E0,9.0151855E1,2.4521484E1,0E0,0E0,0E0,0E0,0E0,0E0,0E0,0E0,0E0,0E0,0E0,0E0,0E0,0E0,0E0,0E0,0E0,0E0,0E0,0E0],"parents":[2147483647,0,0,1,1,2,2,3,3,4,4,5,5,6,6,7,7,8,8,9,9,10,10,11,11,12,12,13,13,18,18,19,19,20,20,21,21,22,22,23,23,24,24,26,26,27,27,28,28],"right_children":[2,4,6,8,10,12,14,16,18,20,22,24,26,28,-1,-1,-1,-1,30,32,34,36,38,40,42,-1,44,46,48,-1,-1,-1,-1,-1,-1,-1,-1,-1,-1,-1,-1,-1,-1,-1,-1,-1,-1,-1,-1],"split_conditions":[1.8135193E2,1.4471825E2,2.1473578E2,1.2103746E2,1.6060759E2,1.9432693E2,2.445493E2,1.0001133E2,1.3130334E2,1.5184044E2,1.6782642E2,-7.0150164E-3,-5.641909E-2,2.2332558E2,1.0135988E0,-9.340415E-1,-5.662245E-1,-4.2492944E-1,-3.390509E-2,1.5495187E2,1.565055E2,-3.4197333E-4,1.7299358E2,-7.395046E-3,1.7295392E2,7.873001E-2,1.9672203E2,2.2061823E2,-4.63123E-2,-4.353195E-1,-2.8548336E-1,-1.9770727E-1,-4.7258376E-3,-1.8240465E-2,-1.3032842E-1,-6.782407E-2,3.7476245E-2,3.8418017E-2,9.4779834E-2,1.704357E-1,-8.0056384E-2,4.4593047E-2,2.3153964E-1,3.2002142E-1,4.2439675E-1,5.561275E-1,2.2027206E-1,1.707901E-1,6.89305E-1],"split_indices":[3,3,1,5,0,1,3,0,2,2,3,6,6,0,0,0,0,0,6,3,0,6,3,6,5,0,3,2,6,0,0,0,0,0,0,0,0,0,0,0,0,0,0,0,0,0,0,0,0],"split_type":[0,0,0,0,0,0,0,0,0,0,0,0,0,0,0,0,0,0,0,0,0,0,0,0,0,0,0,0,0,0,0,0,0,0,0,0,0,0,0,0,0,0,0,0,0,0,0,0,0],"sum_hessian":[1.006E3,6.91E2,3.15E2,3.13E2,3.78E2,1.59E2,1.56E2,1.01E2,2.12E2,1.57E2,2.21E2,8.3E1,7.6E1,1.36E2,2E1,9E0,9.2E1,1.04E2,1.08E2,1.15E2,4.2E1,6.4E1,1.57E2,1.7E1,6.6E1,2E0,7.4E1,4.2E1,9.4E1,1E1,9.8E1,1.12E2,3E0,1.3E1,2.9E1,4.3E1,2.1E1,8.7E1,7E1,1.6E1,1E0,1E0,6.5E1,2.2E1,5.2E1,3.8E1,4E0,1E0,9.3E1],"tree_param":{"num_deleted":"0","num_feature":"8","num_nodes":"49","size_leaf_vector":"1"}},{"base_weights":[-6.534932E-2,-5.317116E0,7.7803593E0,-9.372127E0,-2.5956044E0,4.2148967E0,1.2718167E1,-1.2156357E1,-7.948522E0,-4.3183002E0,-3.3987722E-1,2.7940052E0,6.454864E0,1.1450949E1,9.2641556E-1,-8.995795E-1,-5.588535E-1,-4.335288E-1,-3.2702088E-1,-4.755669E0,-3.1863506E0,-1.2275066E0,3.6414015E-1,1.8255628E0,3.6874561E0,5.778434E0,8.23292E0,9.695312E0,1.2603273E1,-2.5815496E-1,-2.07799E-1,-8.277964E-2,-1.7637213E-1,-3.6913645E-2,-1.17859654E-1,9.592899E-3,8.6160585E-2,-2.909012E-2,9.507852E-2,1.9396202E-1,4.0171687E-2,2.3728056E-1,3.4623536E-1,1.1356964E-1,4.2003265E-1,5.0021774E-1,1.3951798E-1,2.648463E-1,6.3591415E-1],"categories":[],"categories_nodes":[],"categories_segments":[],"categories_sizes":[],"default_left":[0,0,0,0,0,0,0,0,0,0,0,0,0,0,0,0,0,0,0,0,0,0,0,0,0,0,0,0,0,0,0,0,0,0,0,0,0,0,0,0,0,0,0,0,0,0,0,0,0],"id":31,"left_children":[1,3,5,7,9,11,13,15,17,19,21,23,25,27,-1,-1,-1,-1,-1,29,31,33,35,37,39,41,43,45,47,-1,-1,-1,-1,-1,-1,-1,-1,-1,-1,-1,-1,-1,-1,-1,-1,-1,-1,-1,-1],"loss_changes":[4.202807E4,6.7185215E3,7.147074E3,8.744668E2,1.4246692E3,7.426421E2,1.0468594E3,2.6177148E2,1.1105176E2,8.782324E1,1.0043203E2,1.21326294E2,6.3078125E1,1.6710742E2,0E0,0E0,0E0,0E0,0E0,1.4703125E1,2.6009827E1,3.7500076E1,2.0742327E1,1.4463684E1,3.8919678E1,5.0010742E1,3.9176025E0,1.02254395E2,2.375E0,0E0,0E0,0E0,0E0,0E0,0E0,0E0,0E0,0E0,0E0,0E0,0E0,0E0,0E0,0E0,0E0,0E0,0E0,0E0,0E0],"parents":[2147483647,0,0,1,1,2,2,3,3,4,4,5,5,6,6,7,7,8,8,9,9,10,10,11,11,12,12,13,13,19,19,20,20,21,21,22,22,23,23,24,24,25,25,26,26,27,27,28,28],"right_children":[2,4,6,8,10,12,14,16,18,20,22,24,26,28,-1,-1,-1,-1,-1,30,32,34,36,38,40,42,44,46,48,-1,-1,-1,-1,-1,-1,-1,-1,-1,-1,-1,-1,-1,-1,-1,-1,-1,-1,-1,-1],"split_conditions":[1.7184377E2,1.3869185E2,2.094054E2,1.18202324E2,1.562769E2,1.900373E2,2.3658928E2,1.0001133E2,1.3060817E2,1.475132E2,1.657337E2,1.8147401E2,6.88264E7,2.2332558E2,9.2641556E-1,-8.995795E-1,-5.588535E-1,-4.335288E-1,-3.2702088E-1,1.4505502E2,1.5017079E2,9.02218E7,1.031623E8,1.6800076E2,1.212516E8,1.9699966E2,1.71872E2,2.2061823E2,2.1739491E2,-2.5815496E-1,-2.07799E-1,-8.277964E-2,-1.7637213E-1,-3.6913645E-2,-1.17859654E-1,9.592899E-3,8.6160585E-2,-2.909012E-2,9.507852E-2,1.9396202E-1,4.0171687E-2,2.3728056E-1,3.4623536E-1,1.1356964E-1,4.2003265E-1,5.0021774E-1,1.3951798E-1,2.648463E-1,6.3591415E-1],"split_indices":[3,3,3,3,3,3,2,0,3,2,3,1,4,0,0,0,0,0,0,3,0,4,4,5,4,5,0,2,2,0,0,0,0,0,0,0,0,0,0,0,0,0,0,0,0,0,0,0,0],"split_type":[0,0,0,0,0,0,0,0,0,0,0,0,0,0,0,0,0,0,0,0,0,0,0,0,0,0,0,0,0,0,0,0,0,0,0,0,0,0,0,0,0,0,0,0,0,0,0,0,0],"sum_hessian":[1.018E3,6.1E2,4.08E2,2.44E2,3.66E2,2.38E2,1.7E2,8E1,1.64E2,2.07E2,1.59E2,1.47E2,9.1E1,1.42E2,2.8E1,9E0,7.1E1,1.05E2,5.9E1,1.47E2,6E1,7E1,8.9E1,7.2E1,7.5E1,6.9E1,2.2E1,6E1,8.2E1,8.3E1,6.4E1,1.2E1,4.8E1,5E1,2E1,8E1,9E0,2E0,7E1,7E1,5E0,3.9E1,3E1,1E0,2.1E1,5.7E1,3E0,2E0,8E1],"tree_param":{"num_deleted":"0","num_feature":"8","num_nodes":"49","size_leaf_vector":"1"}},{"base_weights":[-1.4408527E-1,-5.296469E0,6.7220755E0,-9.426049E0,-2.8545814E0,3.31618E0,1.170347E1,-1.2606691E1,-8.048543E0,-4.440349E0,-7.6258683E-1,1.8870763E0,4.908196E0,1.0874869E1,8.92357E-1,-8.7540656E-1,-5.663706E-1,-4.4659087E-1,-3.6623695E-1,-5.252408E0,-3.655095E0,-1.6510481E0,2.4423568E-1,1.4905207E0,3.0329037E0,5.0579457E0,1.219958E0,9.286028E0,1.1948773E1,-3.2692546E-1,-2.2944282E-1,-2.0224443E-1,-1.5825137E-1,-4.046094E-2,-1.0212399E-1,-4.0197294E-2,3.1047601E-2,-3.7320224E-3,8.298101E-2,1.6451006E-1,8.927059E-2,2.0612922E-1,3.0371788E-1,-3.2463837E-2,8.618301E-2,4.7583482E-1,2.2611986E-1,1.3654137E-1,6.011246E-1],"categories":[],"categories_nodes":[],"categories_segments":[],"categories_sizes":[],"default_left":[0,0,0,0,0,0,0,0,0,0,0,0,0,0,0,0,0,0,0,0,0,0,0,0,0,0,0,0,0,0,0,0,0,0,0,0,0,0,0,0,0,0,0,0,0,0,0,0,0],"id":32,"left_children":[1,3,5,7,9,11,13,15,17,19,21,23,25,27,-1,-1,-1,-1,-1,29,31,33,35,37,39,41,43,45,47,-1,-1,-1,-1,-1,-1,-1,-1,-1,-1,-1,-1,-1,-1,-1,-1,-1,-1,-1,-1],"loss_changes":[3.5235816E4,5.710872E3,7.205717E3,8.2299805E2,1.1875667E3,5.709026E2,6.8659766E2,1.9043848E2,3.047461E1,1.1088721E2,1.399488E2,5.7275635E1,6.0106934E1,1.5351562E2,0E0,0E0,0E0,0E0,0E0,5.3628418E1,7.6375732E0,2.569722E1,2.9719378E1,2.738469E1,5.0388184E0,8.4289795E1,6.768359E0,3.058252E1,2.7646484E1,0E0,0E0,0E0,0E0,0E0,0E0,0E0,0E0,0E0,0E0,0E0,0E0,0E0,0E0,0E0,0E0,0E0,0E0,0E0,0E0],"parents":[2147483647,0,0,1,1,2,2,3,3,4,4,5,5,6,6,7,7,8,8,9,9,10,10,11,11,12,12,13,13,19,19,20,20,21,21,22,22,23,23,24,24,25,25,26,26,27,27,28,28],"right_children":[2,4,6,8,10,12,14,16,18,20,22,24,26,28,-1,-1,-1,-1,-1,30,32,34,36,38,40,42,44,46,48,-1,-1,-1,-1,-1,-1,-1,-1,-1,-1,-1,-1,-1,-1,-1,-1,-1,-1,-1,-1],"split_conditions":[1.708593E2,1.340242E2,2.0739E2,1.15914E2,1.5356276E2,1.8569017E2,2.4277437E2,1.0344273E2,1.2365242E2,1.4505502E2,1.645921E2,1.7986285E2,2.03326E2,2.2504713E2,8.92357E-1,-8.7540656E-1,-5.663706E-1,-4.4659087E-1,-3.6623695E-1,-6.625457E-3,1.4812132E2,6.9246E7,-1.167616E-2,-1.2317011E-2,1.8394693E2,1.933441E2,1.9432693E2,9.88447E7,2.2104623E2,-3.2692546E-1,-2.2944282E-1,-2.0224443E-1,-1.5825137E-1,-4.046094E-2,-1.0212399E-1,-4.0197294E-2,3.1047601E-2,-3.7320224E-3,8.298101E-2,1.6451006E-1,8.927059E-2,2.0612922E-1,3.0371788E-1,-3.2463837E-2,8.618301E-2,4.7583482E-1,2.2611986E-1,1.3654137E-1,6.011246E-1],"split_indices":[3,3,1,3,3,1,3,1,5,3,3,3,5,1,0,0,0,0,0,6,3,4,6,6,5,1,1,4,3,0,0,0,0,0,0,0,0,0,0,0,0,0,0,0,0,0,0,0,0],"split_type":[0,0,0,0,0,0,0,0,0,0,0,0,0,0,0,0,0,0,0,0,0,0,0,0,0,0,0,0,0,0,0,0,0,0,0,0,0,0,0,0,0,0,0,0,0,0,0,0,0],"sum_hessian":[9.94E2,5.68E2,4.26E2,2.1E2,3.58E2,2.54E2,1.72E2,6.1E1,1.49E2,2.03E2,1.55E2,1.35E2,1.19E2,1.54E2,1.8E1,1E1,5.1E1,6.2E1,8.7E1,9.7E1,1.06E2,8.2E1,7.3E1,1.02E2,3.3E1,1.14E2,5E0,6.6E1,8.8E1,3E1,6.7E1,5.5E1,5.1E1,2.7E1,5.5E1,1.9E1,5.4E1,1E1,9.2E1,2.6E1,7E0,6.2E1,5.2E1,1E0,4E0,6.2E1,4E0,1E0,8.7E1],"tree_param":{"num_deleted":"0","num_feature":"8","num_nodes":"49","size_leaf_vector":"1"}},{"base_weights":[-5.462596E-2,-4.0673227E0,8.27585E0,-8.104033E0,-1.3432084E0,5.2294054E0,1.1966236E1,-1.1152674E1,-6.7961164E0,-3.265947E0,6.2403333E-1,4.0245934E0,7.496387E0,1.1022942E1,8.1903183E-1,-8.3561546E-1,-5.0671214E-1,-3.951717E-1,-5.868613E0,-3.8241189E0,-1.9590302E0,-1.3558899E-1,1.3628472E0,6.9057603E0,3.7028146E0,6.260746E0,4.2650342E-1,9.227219E0,1.1673106E1,-2.968888E-1,-7.1126305E-2,-2.1519859E-1,-1.6690728E-1,-1.1356413E-1,-3.4080397E-2,-4.620514E-2,1.0530069E-2,-5.860549E-3,7.7965386E-2,9.183903E-2,4.2885152E-1,1.344826E-1,2.0966847E-1,1.2644139E-1,3.2798028E-1,4.7172117E-1,3.901558E-2,1.3559456E-1,5.872469E-1],"categories":[],"categories_nodes":[],"categories_segments":[],"categories_sizes":[],"default_left":[0,0,0,0,0,0,0,0,0,0,0,0,0,0,0,0,0,0,0,0,0,0,0,0,0,0,0,0,0,0,0,0,0,0,0,0,0,0,0,0,0,0,0,0,0,0,0,0,0],"id":33,"left_children":[1,3,5,7,9,11,13,15,17,19,21,23,25,27,-1,-1,-1,-1,29,31,33,35,37,39,41,43,-1,45,47,-1,-1,-1,-1,-1,-1,-1,-1,-1,-1,-1,-1,-1,-1,-1,-1,-1,-1,-1,-1],"loss_changes":[3.3829043E4,7.499698E3,3.6362266E3,1.0207324E3,1.5490771E3,4.6692432E2,4.357207E2,2.8926465E2,1.5389062E2,1.4351172E2,1.1411234E2,8.6608154E1,2.5785645E1,3.822754E1,0E0,0E0,0E0,0E0,2.5379395E1,1.921289E1,2.3980072E1,2.7765182E1,3.01324E1,7.743384E1,4.388965E1,1.910205E1,0E0,5.914746E1,2.4794922E1,0E0,0E0,0E0,0E0,0E0,0E0,0E0,0E0,0E0,0E0,0E0,0E0,0E0,0E0,0E0,0E0,0E0,0E0,0E0,0E0],"parents":[2147483647,0,0,1,1,2,2,3,3,4,4,5,5,6,6,7,7,8,8,9,9,10,10,11,11,12,12,13,13,18,18,19,19,20,20,21,21,22,22,23,23,24,24,25,25,27,27,28,28],"right_children":[2,4,6,8,10,12,14,16,18,20,22,24,26,28,-1,-1,-1,-1,30,32,34,36,38,40,42,44,-1,46,48,-1,-1,-1,-1,-1,-1,-1,-1,-1,-1,-1,-1,-1,-1,-1,-1,-1,-1,-1,-1],"split_conditions":[1.797008E2,1.4147896E2,2.1495811E2,1.18202324E2,1.6341554E2,1.9672203E2,2.3947232E2,1.0001133E2,1.2872723E2,1.5223227E2,1.708593E2,-1.8894048E-2,4.1337474E-3,2.2504713E2,8.1903183E-1,-8.3561546E-1,-5.0671214E-1,-3.951717E-1,1.4030899E2,1.4473518E2,1.177263E8,1.6484444E2,-1.2317011E-2,1.8585628E2,1.8607735E2,2.0143E2,4.2650342E-1,9.42642E7,-4.63123E-2,-2.968888E-1,-7.1126305E-2,-2.1519859E-1,-1.6690728E-1,-1.1356413E-1,-3.4080397E-2,-4.620514E-2,1.0530069E-2,-5.860549E-3,7.7965386E-2,9.183903E-2,4.2885152E-1,1.344826E-1,2.0966847E-1,1.2644139E-1,3.2798028E-1,4.7172117E-1,3.901558E-2,1.3559456E-1,5.872469E-1],"split_indices":[0,3,3,3,1,3,2,0,3,3,3,6,6,1,0,0,0,0,2,2,4,3,6,0,3,0,0,4,6,0,0,0,0,0,0,0,0,0,0,0,0,0,0,0,0,0,0,0,0],"split_type":[0,0,0,0,0,0,0,0,0,0,0,0,0,0,0,0,0,0,0,0,0,0,0,0,0,0,0,0,0,0,0,0,0,0,0,0,0,0,0,0,0,0,0,0,0,0,0,0,0],"sum_hessian":[1.01E3,6.82E2,3.28E2,2.74E2,4.08E2,1.81E2,1.47E2,8E1,1.94E2,2.06E2,2.02E2,1.2E2,6.1E1,1.24E2,2.3E1,1E1,7E1,8.5E1,1.09E2,1.43E2,6.3E1,1E2,1.02E2,1E1,1.1E2,3.1E1,3E1,3.7E1,8.7E1,1.07E2,2E0,6.8E1,7.5E1,5E1,1.3E1,3E1,7E1,1.2E1,9E1,3E0,7E0,3.8E1,7.2E1,3E0,2.8E1,3.6E1,1E0,1E0,8.6E1],"tree_param":{"num_deleted":"0","num_feature":"8","num_nodes":"49","size_leaf_vector":"1"}},{"base_weights":[1.9007467E-1,-3.6516626E0,7.930152E0,-7.553628E0,-1.0764047E0,5.093077E0,1.1723596E1,-9.530788E0,-6.1888943E0,-3.054068E0,7.938863E-1,3.8928978E0,6.9454556E0,1.08741E1,9.123842E-1,-5.798401E-1,-4.3671432E-1,-6.852205E0,-4.978295E0,-3.461797E0,-1.4943585E0,2.7800745E-1,1.652342E0,3.1905296E0,4.9534354E0,7.0242996E0,2.7775193E-2,1.0987383E1,4.587158E0,-8.632889E-2,-3.4429294E-1,-3.7250072E-1,-2.2599618E-1,-1.755113E-1,-3.659153E-2,-9.5500074E-2,1.4403534E-2,3.3711088E-3,9.650584E-2,1.02067485E-1,3.0821925E-2,4.0856096E-1,1.5064006E-1,4.3798563E-1,2.2420835E-1,5.0527573E-2,3.5464182E-1,1.3220482E-1,5.516488E-1,3.804016E-2,2.8045043E-1],"categories":[],"categories_nodes":[],"categories_segments":[],"categories_sizes":[],"default_left":[0,0,0,0,0,0,0,0,0,0,0,0,0,0,0,0,0,0,0,0,0,0,0,0,0,0,0,0,0,0,0,0,0,0,0,0,0,0,0,0,0,0,0,0,0,0,0,0,0,0,0],"id":34,"left_children":[1,3,5,7,9,11,13,15,17,19,21,23,25,27,-1,-1,-1,29,31,33,35,37,39,41,43,45,-1,47,49,-1,-1,-1,-1,-1,-1,-1,-1,-1,-1,-1,-1,-1,-1,-1,-1,-1,-1,-1,-1,-1,-1],"loss_changes":[3.0121125E4,6.794749E3,3.556418E3,6.6685645E2,1.5152363E3,4.0426025E2,5.9410547E2,7.643359E1,9.597412E1,1.2137842E2,9.298392E1,7.358252E1,3.3883545E1,4.1473633E1,0E0,0E0,0E0,5.7055664E0,3.5437378E1,1.818811E1,3.2406937E1,4.614188E1,3.0576614E1,4.177246E1,4.2883667E1,2.333252E1,0E0,1.8757812E1,1.1372498E1,0E0,0E0,0E0,0E0,0E0,0E0,0E0,0E0,0E0,0E0,0E0,0E0,0E0,0E0,0E0,0E0,0E0,0E0,0E0,0E0,0E0,0E0],"parents":[2147483647,0,0,1,1,2,2,3,3,4,4,5,5,6,6,7,7,8,8,9,9,10,10,11,11,12,12,13,13,17,17,18,18,19,19,20,20,21,21,22,22,23,23,24,24,25,25,27,27,28,28],"right_children":[2,4,6,8,10,12,14,16,18,20,22,24,26,28,-1,-1,-1,30,32,34,36,38,40,42,44,46,-1,48,50,-1,-1,-1,-1,-1,-1,-1,-1,-1,-1,-1,-1,-1,-1,-1,-1,-1,-1,-1,-1,-1,-1],"split_conditions":[1.8254097E2,1.4117134E2,2.1722412E2,1.202344E2,1.6191269E2,1.9672203E2,2.4474959E2,1.09311485E2,1.3179555E2,1.5184044E2,1.7243835E2,1.900373E2,2.2051872E2,9.88447E7,9.123842E-1,-5.798401E-1,-4.3671432E-1,5.52092E7,-3.390509E-2,1.5495187E2,1.177263E8,9.69065E7,7.07837E7,1.690391E2,-1.8894048E-2,-5.641909E-2,2.7775193E-2,-4.63123E-2,2.2469017E2,-8.632889E-2,-3.4429294E-1,-3.7250072E-1,-2.2599618E-1,-1.755113E-1,-3.659153E-2,-9.5500074E-2,1.4403534E-2,3.3711088E-3,9.650584E-2,1.02067485E-1,3.0821925E-2,4.0856096E-1,1.5064006E-1,4.3798563E-1,2.2420835E-1,5.0527573E-2,3.5464182E-1,1.3220482E-1,5.516488E-1,3.804016E-2,2.8045043E-1],"split_indices":[1,3,3,2,3,3,2,2,2,2,3,3,1,4,0,0,0,4,6,3,4,4,4,2,6,6,0,6,1,0,0,0,0,0,0,0,0,0,0,0,0,0,0,0,0,0,0,0,0,0,0],"split_type":[0,0,0,0,0,0,0,0,0,0,0,0,0,0,0,0,0,0,0,0,0,0,0,0,0,0,0,0,0,0,0,0,0,0,0,0,0,0,0,0,0,0,0,0,0,0,0,0,0,0,0],"sum_hessian":[1.011E3,6.76E2,3.35E2,2.68E2,4.08E2,1.93E2,1.42E2,1.07E2,1.61E2,1.98E2,2.1E2,1.19E2,7.4E1,1.28E2,1.4E1,2.6E1,8.1E1,1.01E2,6E1,1.56E2,4.2E1,1.32E2,7.8E1,7.4E1,4.5E1,7.3E1,1E0,1.25E2,3E0,1E0,1E2,7E0,5.3E1,1.53E2,3E0,3.4E1,8E0,1.18E2,1.4E1,5.6E1,2.2E1,1E0,7.3E1,3E0,4.2E1,1E0,7.2E1,1E0,1.24E2,1E0,2E0],"tree_param":{"num_deleted":"0","num_feature":"8","num_nodes":"51","size_leaf_vector":"1"}},{"base_weights":[3.895581E-2,-3.687672E0,7.292084E0,-6.5071144E0,-7.9126984E-1,4.3014784E0,1.0809955E1,-9.108721E0,-5.104051E0,-2.5377212E0,4.982058E-1,3.2236366E0,5.9912014E0,1.01537695E1,8.510749E-1,-7.5189036E-1,-4.2779422E-1,-6.1174836E0,-4.2270594E0,-3.1105838E0,-2.084683E0,-2.0567067E-1,1.1557934E0,2.3888166E0,3.6926777E0,4.9216986E0,7.170835E0,9.040515E0,1.1346903E1,-1.3672648E-1,-3.0954465E-1,-3.5809228E-1,-1.95616E-1,-5.037705E-2,-1.619125E-1,-1.570317E-1,-8.638514E-2,-5.0247975E-2,1.676641E-2,4.0760603E-2,1.4053737E-1,6.9453E-2,1.4138806E-1,1.9540405E-1,8.394115E-2,3.0385768E-1,1.851484E-1,2.6162696E-1,4.0146324E-1,4.5669055E-1,3.7089158E-2,5.716695E-1,1.3880578E-1],"categories":[],"categories_nodes":[],"categories_segments":[],"categories_sizes":[],"default_left":[0,0,0,0,0,0,0,0,0,0,0,0,0,0,0,0,0,0,0,0,0,0,0,0,0,0,0,0,0,0,0,0,0,0,0,0,0,0,0,0,0,0,0,0,0,0,0,0,0,0,0,0,0],"id":35,"left_children":[1,3,5,7,9,11,13,15,17,19,21,23,25,27,-1,-1,-1,29,31,33,35,37,39,41,43,45,47,49,51,-1,-1,-1,-1,-1,-1,-1,-1,-1,-1,-1,-1,-1,-1,-1,-1,-1,-1,-1,-1,-1,-1,-1,-1],"loss_changes":[2.8191848E4,5.6213896E3,3.6777793E3,1.2274326E3,7.691984E2,3.3218848E2,4.874668E2,2.6795508E2,1.7767041E2,3.1147095E1,9.142123E1,3.8166748E1,5.806714E1,9.53291E1,0E0,0E0,0E0,8.898193E0,8.836572E1,1.3383545E1,2.6238007E1,4.1848766E1,5.5200577E1,1.6258606E1,2.5973389E1,3.664044E1,1.289502E1,5.6712402E1,1.8666992E1,0E0,0E0,0E0,0E0,0E0,0E0,0E0,0E0,0E0,0E0,0E0,0E0,0E0,0E0,0E0,0E0,0E0,0E0,0E0,0E0,0E0,0E0,0E0,0E0],"parents":[2147483647,0,0,1,1,2,2,3,3,4,4,5,5,6,6,7,7,8,8,9,9,10,10,11,11,12,12,13,13,17,17,18,18,19,19,20,20,21,21,22,22,23,23,24,24,25,25,26,26,27,27,28,28],"right_children":[2,4,6,8,10,12,14,16,18,20,22,24,26,28,-1,-1,-1,30,32,34,36,38,40,42,44,46,48,50,52,-1,-1,-1,-1,-1,-1,-1,-1,-1,-1,-1,-1,-1,-1,-1,-1,-1,-1,-1,-1,-1,-1,-1,-1],"split_conditions":[1.7852573E2,1.4473518E2,2.0932108E2,1.2275496E2,1.6060759E2,1.926214E2,2.4474959E2,1.0001133E2,1.362166E2,1.4983347E2,-1.3311403E-3,1.8258195E2,3.9204997E-3,2.2471907E2,8.510749E-1,-7.5189036E-1,-4.2779422E-1,5.52092E7,-3.5786603E-2,1.4403313E2,-1.3491515E-2,1.6714056E2,1.747751E2,-6.5016593E-3,1.9177759E2,-9.561902E-3,1.987394E2,9.88447E7,9.02218E7,-1.3672648E-1,-3.0954465E-1,-3.5809228E-1,-1.95616E-1,-5.037705E-2,-1.619125E-1,-1.570317E-1,-8.638514E-2,-5.0247975E-2,1.676641E-2,4.0760603E-2,1.4053737E-1,6.9453E-2,1.4138806E-1,1.9540405E-1,8.394115E-2,3.0385768E-1,1.851484E-1,2.6162696E-1,4.0146324E-1,4.5669055E-1,3.7089158E-2,5.716695E-1,1.3880578E-1],"split_indices":[0,2,2,2,0,5,2,0,0,5,6,2,6,2,0,0,0,4,6,5,6,2,0,6,5,6,0,4,4,0,0,0,0,0,0,0,0,0,0,0,0,0,0,0,0,0,0,0,0,0,0,0,0],"split_type":[0,0,0,0,0,0,0,0,0,0,0,0,0,0,0,0,0,0,0,0,0,0,0,0,0,0,0,0,0,0,0,0,0,0,0,0,0,0,0,0,0,0,0,0,0,0,0,0,0,0,0,0,0],"sum_hessian":[1.041E3,6.88E2,3.53E2,3.48E2,3.4E2,1.92E2,1.61E2,1.2E2,2.28E2,1.44E2,1.96E2,1.19E2,7.3E1,1.48E2,1.3E1,8E0,1.12E2,1.03E2,1.25E2,6.1E1,8.3E1,9.5E1,1.01E2,4.5E1,7.4E1,4.1E1,3.2E1,8.1E1,6.7E1,3E0,1E2,1E1,1.15E2,4E0,5.7E1,1.9E1,6.4E1,3.8E1,5.7E1,8.5E1,1.6E1,1.5E1,3E1,6.6E1,8E0,1.9E1,2.2E1,1.2E1,2E1,8E1,1E0,6.6E1,1E0],"tree_param":{"num_deleted":"0","num_feature":"8","num_nodes":"53","size_leaf_vector":"1"}},{"base_weights":[6.0300868E-2,-3.8429196E0,6.582901E0,-7.005754E0,-1.4018633E0,3.606213E0,9.737015E0,-1.0534331E1,-6.0628686E0,-2.6914735E0,3.2966754E-1,2.6360307E0,4.8991933E0,8.780823E0,1.3759302E1,-7.3414296E-1,-9.427531E0,-6.802748E0,-4.922337E0,-3.473898E0,-1.9710639E0,2.746668E-2,1.6104689E0,1.467126E0,3.0221155E0,4.2206264E0,5.6898227E0,7.7079325E0,9.792217E0,5.6727433E-1,8.1124014E-1,-4.7569576E-1,-1.3634586E-1,-6.284981E-2,-3.418127E-1,-3.7701666E-1,-2.3211184E-1,-1.292287E-1,-1.8836479E-1,-1.135234E-1,-5.3792954E-3,-3.010991E-2,1.8458387E-2,5.192802E-2,1.3829905E-1,2.7218908E-1,4.943292E-2,1.5354286E-1,3.412323E-2,3.246765E-1,1.9623993E-1,2.9798654E-1,1.05405234E-1,3.9779934E-1,1.2723802E-1,1.1748238E-1,4.931476E-1],"categories":[],"categories_nodes":[],"categories_segments":[],"categories_sizes":[],"default_left":[0,0,0,0,0,0,0,0,0,0,0,0,0,0,0,0,0,0,0,0,0,0,0,0,0,0,0,0,0,0,0,0,0,0,0,0,0,0,0,0,0,0,0,0,0,0,0,0,0,0,0,0,0,0,0,0,0],"id":36,"left_children":[1,3,5,7,9,11,13,15,17,19,21,23,25,27,29,-1,31,33,35,37,39,41,43,45,47,49,51,53,55,-1,-1,-1,-1,-1,-1,-1,-1,-1,-1,-1,-1,-1,-1,-1,-1,-1,-1,-1,-1,-1,-1,-1,-1,-1,-1,-1,-1],"loss_changes":[2.5433525E4,4.815589E3,3.4763027E3,8.410869E2,7.91369E2,2.3044434E2,5.753203E2,1.18706055E2,1.4963135E2,1.07576904E2,5.878878E1,4.6562622E1,1.9978027E1,8.62041E1,1.2312988E1,0E0,1.2617188E0,1.5377441E1,3.0259766E1,1.5312012E1,6.001248E1,2.6901798E1,1.6291939E1,5.1698982E1,7.4835815E0,6.7888794E0,2.127185E1,7.837109E1,1.5256348E1,0E0,0E0,0E0,0E0,0E0,0E0,0E0,0E0,0E0,0E0,0E0,0E0,0E0,0E0,0E0,0E0,0E0,0E0,0E0,0E0,0E0,0E0,0E0,0E0,0E0,0E0,0E0,0E0],"parents":[2147483647,0,0,1,1,2,2,3,3,4,4,5,5,6,6,7,7,8,8,9,9,10,10,11,11,12,12,13,13,14,14,16,16,17,17,18,18,19,19,20,20,21,21,22,22,23,23,24,24,25,25,26,26,27,27,28,28],"right_children":[2,4,6,8,10,12,