{"learner":{"attributes":{"scikit_learn":"{\"_estimator_type\": \"regressor\"}"},"feature_names":[],"feature_types":[],"gradient_booster":{"model":{"gbtree_model_param":{"num_parallel_tree":"1","num_trees":"300"},"iteration_indptr":[0,1,2,3,4,5,6,7,8,9,10,11,12,13,14,15,16,17,18,19,20,21,22,23,24,25,26,27,28,29,30,31,32,33,34,35,36,37,38,39,40,41,42,43,44,45,46,47,48,49,50,51,52,53,54,55,56,57,58,59,60,61,62,63,64,65,66,67,68,69,70,71,72,73,74,75,76,77,78,79,80,81,82,83,84,85,86,87,88,89,90,91,92,93,94,95,96,97,98,99,100,101,102,103,104,105,106,107,108,109,110,111,112,113,114,115,116,117,118,119,120,121,122,123,124,125,126,127,128,129,130,131,132,133,134,135,136,137,138,139,140,141,142,143,144,145,146,147,148,149,150,151,152,153,154,155,156,157,158,159,160,161,162,163,164,165,166,167,168,169,170,171,172,173,174,175,176,177,178,179,180,181,182,183,184,185,186,187,188,189,190,191,192,193,194,195,196,197,198,199,200,201,202,203,204,205,206,207,208,209,210,211,212,213,214,215,216,217,218,219,220,221,222,223,224,225,226,227,228,229,230,231,232,233,234,235,236,237,238,239,240,241,242,243,244,245,246,247,248,249,250,251,252,253,254,255,256,257,258,259,260,261,262,263,264,265,266,267,268,269,270,271,272,273,274,275,276,277,278,279,280,281,282,283,284,285,286,287,288,289,290,291,292,293,294,295,296,297,298,299,300],"tree_info":[0,0,0,0,0,0,0,0,0,0,0,0,0,0,0,0,0,0,0,0,0,0,0,0,0,0,0,0,0,0,0,0,0,0,0,0,0,0,0,0,0,0,0,0,0,0,0,0,0,0,0,0,0,0,0,0,0,0,0,0,0,0,0,0,0,0,0,0,0,0,0,0,0,0,0,0,0,0,0,0,0,0,0,0,0,0,0,0,0,0,0,0,0,0,0,0,0,0,0,0,0,0,0,0,0,0,0,0,0,0,0,0,0,0,0,0,0,0,0,0,0,0,0,0,0,0,0,0,0,0,0,0,0,0,0,0,0,0,0,0,0,0,0,0,0,0,0,0,0,0,0,0,0,0,0,0,0,0,0,0,0,0,0,0,0,0,0,0,0,0,0,0,0,0,0,0,0,0,0,0,0,0,0,0,0,0,0,0,0,0,0,0,0,0,0,0,0,0,0,0,0,0,0,0,0,0,0,0,0,0,0,0,0,0,0,0,0,0,0,0,0,0,0,0,0,0,0,0,0,0,0,0,0,0,0,0,0,0,0,0,0,0,0,0,0,0,0,0,0,0,0,0,0,0,0,0,0,0,0,0,0,0,0,0,0,0,0,0,0,0,0,0,0,0,0,0,0,0,0,0,0,0,0,0,0,0,0,0,0,0,0,0,0,0,0,0,0,0,0,0],"trees":[{"base_weights":[-2.8230938E-1,-2.159213E1,4.2402176E1,-3.9572205E1,-5.095755E0,2.3214874E1,6.0227413E1,-4.898372E1,-2.9298191E1,-1.5495926E1,3.4892595E0,1.8584751E1,1.4919261E0,5.2924595E1,3.530906E0,-2.787168E0,-2.1642509E0,-1.7294868E0,-1.2796029E0,-9.5113796E-1,-9.875739E0,1.7365524E-1,7.0169063E0,1.5302142E1,1.0777535E0,2.1877728E0,2.8259704E0,-6.0092556E-1,-4.2998004E-1,-1.18601464E-1,8.86086E-2,2.6681814E-1,4.5551085E-1,3.1746015E-1,7.771453E-1],"categories":[],"categories_nodes":[],"categories_segments":[],"categories_sizes":[],"default_left":[0,0,0,0,0,0,0,0,0,0,0,0,0,0,0,0,0,0,0,0,0,0,0,0,0,0,0,0,0,0,0,0,0,0,0],"id":0,"left_children":[1,3,5,7,9,11,13,15,17,19,21,23,-1,25,-1,-1,-1,-1,-1,-1,27,29,31,33,-1,-1,-1,-1,-1,-1,-1,-1,-1,-1,-1],"loss_changes":[9.0960475E5,1.976346E5,1.1249381E5,2.9410281E4,3.121475E4,4.4137188E3,9.3141875E3,3.943125E3,2.1545156E3,2.9439258E3,2.2444675E3,6.256992E2,0E0,9.8790625E2,0E0,0E0,0E0,0E0,0E0,0E0,6.891797E1,4.1113556E2,2.7854932E2,9.092773E0,0E0,0E0,0E0,0E0,0E0,0E0,0E0,0E0,0E0,0E0,0E0],"parents":[2147483647,0,0,1,1,2,2,3,3,4,4,5,5,6,6,7,7,8,8,9,9,10,10,11,11,13,13,20,20,21,21,22,22,23,23],"right_children":[2,4,6,8,10,12,14,16,18,20,22,24,-1,26,-1,-1,-1,-1,-1,-1,28,30,32,34,-1,-1,-1,-1,-1,-1,-1,-1,-1,-1,-1],"split_conditions":[1.8042357E2,1.4499184E2,2.0542928E2,1.2864917E2,1.6172432E2,1.9121552E2,2.2930684E2,1.1612824E2,1.3566304E2,1.521145E2,1.7069212E2,1.8742348E2,1.4919261E0,2.1603061E2,3.530906E0,-2.787168E0,-2.1642509E0,-1.7294868E0,-1.2796029E0,-9.5113796E-1,1.5493307E2,1.6596956E2,1.7478806E2,-3.5786603E-2,1.0777535E0,2.1877728E0,2.8259704E0,-6.0092556E-1,-4.2998004E-1,-1.18601464E-1,8.86086E-2,2.6681814E-1,4.5551085E-1,3.1746015E-1,7.771453E-1],"split_indices":[1,3,2,3,3,3,3,2,3,3,3,1,0,3,0,0,0,0,0,0,3,3,3,6,0,0,0,0,0,0,0,0,0,0,0],"split_type":[0,0,0,0,0,0,0,0,0,0,0,0,0,0,0,0,0,0,0,0,0,0,0,0,0,0,0,0,0,0,0,0,0,0,0],"sum_hessian":[9.98E2,6.66E2,3.32E2,3.18E2,3.48E2,1.61E2,1.71E2,1.64E2,1.54E2,1.57E2,1.91E2,9.7E1,6.4E1,1.04E2,6.7E1,7.1E1,9.3E1,6E1,9.4E1,9.5E1,6.2E1,9.9E1,9.2E1,4.9E1,4.8E1,3.3E1,7.1E1,2E1,4.2E1,3.8E1,6.1E1,5.3E1,3.9E1,2E0,4.7E1],"tree_param":{"num_deleted":"0","num_feature":"8","num_nodes":"35","size_leaf_vector":"1"}},{"base_weights":[2.6939693E-1,-2.0268793E1,4.0971542E1,-4.0160156E1,-6.956312E0,2.217064E1,5.7097908E1,-5.0101665E1,-3.3299274E1,-1.7194538E1,2.7109668E0,1.8042305E1,1.4740795E0,5.0708168E1,3.3927705E0,-2.7270188E0,-2.216622E0,-1.857569E0,-1.3756409E0,-1.9458103E1,-1.0422125E1,-1.5181894E0,6.300328E0,1.3561563E1,1.0321051E0,2.0795467E0,2.6649485E0,-1.0163242E0,-7.769303E-1,-6.5693736E-1,-4.609244E-1,-2.4133216E-1,2.6312992E-2,1.9918522E-1,3.7583655E-1,1.8446313E-1,6.8600506E-1],"categories":[],"categories_nodes":[],"categories_segments":[],"categories_sizes":[],"default_left":[0,0,0,0,0,0,0,0,0,0,0,0,0,0,0,0,0,0,0,0,0,0,0,0,0,0,0,0,0,0,0,0,0,0,0,0,0],"id":1,"left_children":[1,3,5,7,9,11,13,15,17,19,21,23,-1,25,-1,-1,-1,-1,-1,27,29,31,33,35,-1,-1,-1,-1,-1,-1,-1,-1,-1,-1,-1,-1,-1],"loss_changes":[8.225677E5,1.7290203E5,9.878694E4,1.6202E4,3.8944105E4,4.1161094E3,8.7256875E3,2.7090625E2,2.4997031E3,2.7251953E3,3.0910989E3,8.966133E2,0E0,4.99625E2,0E0,0E0,0E0,0E0,0E0,1.6746484E2,4.237207E1,6.383528E2,2.800298E2,1.1988281E1,0E0,0E0,0E0,0E0,0E0,0E0,0E0,0E0,0E0,0E0,0E0,0E0,0E0],"parents":[2147483647,0,0,1,1,2,2,3,3,4,4,5,5,6,6,7,7,8,8,9,9,10,10,11,11,13,13,19,19,20,20,21,21,22,22,23,23],"right_children":[2,4,6,8,10,12,14,16,18,20,22,24,-1,26,-1,-1,-1,-1,-1,28,30,32,34,36,-1,-1,-1,-1,-1,-1,-1,-1,-1,-1,-1,-1,-1],"split_conditions":[1.7642387E2,1.4147896E2,2.0542928E2,1.2296011E2,1.5710944E2,1.9248042E2,2.2930684E2,1.1513848E2,1.3287625E2,1.521145E2,1.6961781E2,1.8514627E2,1.4740795E0,2.1603061E2,3.3927705E0,-2.7270188E0,-2.216622E0,-1.857569E0,-1.3756409E0,1.4748174E2,1.538717E2,1.6391977E2,1.7199127E2,1.7517273E2,1.0321051E0,2.0795467E0,2.6649485E0,-1.0163242E0,-7.769303E-1,-6.5693736E-1,-4.609244E-1,-2.4133216E-1,2.6312992E-2,1.9918522E-1,3.7583655E-1,1.8446313E-1,6.8600506E-1],"split_indices":[2,3,2,3,2,3,3,3,3,3,3,3,0,3,0,0,0,0,0,2,3,3,3,5,0,0,0,0,0,0,0,0,0,0,0,0,0],"split_type":[0,0,0,0,0,0,0,0,0,0,0,0,0,0,0,0,0,0,0,0,0,0,0,0,0,0,0,0,0,0,0,0,0,0,0,0,0],"sum_hessian":[9.82E2,6.53E2,3.29E2,2.61E2,3.92E2,1.53E2,1.76E2,1.04E2,1.57E2,1.9E2,2.02E2,1E2,5.3E1,1.14E2,6.2E1,5.4E1,5E1,9.1E1,6.6E1,1.41E2,4.9E1,9.3E1,1.09E2,3.9E1,6.1E1,2.9E1,8.5E1,1.12E2,2.9E1,1.2E1,3.7E1,3.5E1,5.8E1,3.9E1,7E1,1E0,3.8E1],"tree_param":{"num_deleted":"0","num_feature":"8","num_nodes":"37","size_leaf_vector":"1"}},{"base_weights":[-5.2071337E-2,-1.8789587E1,3.8409306E1,-3.5868736E1,-4.6617465E0,2.180792E1,5.497835E1,-4.464051E1,-2.703411E1,-1.3927691E1,3.09106E0,1.6947386E1,2.8023384E1,2.4257853E0,3.2257614E0,-2.5807645E0,-2.0126095E0,-1.5942702E0,-1.157178E0,-1.6710695E1,-8.162669E0,-7.016458E-1,5.983753E0,1.3782914E1,9.6191245E-1,1.1141196E0,1.5095228E0,-9.0267706E-1,-6.9379044E-1,-4.3980622E-1,-2.817004E-1,-1.5695365E-1,6.263333E-2,2.369437E-1,4.3684444E-1,7.011406E-1,9.2681505E-2],"categories":[],"categories_nodes":[],"categories_segments":[],"categories_sizes":[],"default_left":[0,0,0,0,0,0,0,0,0,0,0,0,0,0,0,0,0,0,0,0,0,0,0,0,0,0,0,0,0,0,0,0,0,0,0,0,0],"id":2,"left_children":[1,3,5,7,9,11,13,15,17,19,21,23,25,-1,-1,-1,-1,-1,-1,27,29,31,33,35,-1,-1,-1,-1,-1,-1,-1,-1,-1,-1,-1,-1,-1],"loss_changes":[7.1058225E5,1.5980903E5,8.764841E4,2.2041812E4,2.6191748E4,4.4493906E3,6.793E3,2.482875E3,2.1309297E3,2.526914E3,2.1874543E3,4.162832E2,1.9816406E2,0E0,0E0,0E0,0E0,0E0,0E0,1.7204688E2,4.0143066E1,4.1835617E2,3.4588428E2,9.7063965E1,0E0,0E0,0E0,0E0,0E0,0E0,0E0,0E0,0E0,0E0,0E0,0E0,0E0],"parents":[2147483647,0,0,1,1,2,2,3,3,4,4,5,5,6,6,7,7,8,8,9,9,10,10,11,11,12,12,19,19,20,20,21,21,22,22,23,23],"right_children":[2,4,6,8,10,12,14,16,18,20,22,24,26,-1,-1,-1,-1,-1,-1,28,30,32,34,36,-1,-1,-1,-1,-1,-1,-1,-1,-1,-1,-1,-1,-1],"split_conditions":[1.8042357E2,1.4418675E2,2.0884332E2,1.2644737E2,1.6172432E2,1.9170064E2,2.2930684E2,1.15914E2,1.3566304E2,1.538717E2,1.6961781E2,1.8514627E2,1.9626492E2,2.4257853E0,3.2257614E0,-2.5807645E0,-2.0126095E0,-1.5942702E0,-1.157178E0,1.4930649E2,1.5710944E2,1.6556107E2,1.7368758E2,1.9011092E2,9.6191245E-1,1.1141196E0,1.5095228E0,-9.0267706E-1,-6.9379044E-1,-4.3980622E-1,-2.817004E-1,-1.5695365E-1,6.263333E-2,2.369437E-1,4.3684444E-1,7.011406E-1,9.2681505E-2],"split_indices":[1,3,3,2,3,3,3,3,3,3,3,3,1,0,0,0,0,0,0,3,2,3,2,1,0,0,0,0,0,0,0,0,0,0,0,0,0],"split_type":[0,0,0,0,0,0,0,0,0,0,0,0,0,0,0,0,0,0,0,0,0,0,0,0,0,0,0,0,0,0,0,0,0,0,0,0,0],"sum_hessian":[9.84E2,6.62E2,3.22E2,2.99E2,3.63E2,1.62E2,1.6E2,1.48E2,1.51E2,1.65E2,1.98E2,9.3E1,6.9E1,9.9E1,6.1E1,5.3E1,9.5E1,6.4E1,8.7E1,1.1E2,5.5E1,8.6E1,1.12E2,4.2E1,5.1E1,2.2E1,4.7E1,7.1E1,3.9E1,4.2E1,1.3E1,3.8E1,4.8E1,7.9E1,3.3E1,4.1E1,1E0],"tree_param":{"num_deleted":"0","num_feature":"8","num_nodes":"37","size_leaf_vector":"1"}},{"base_weights":[-6.053965E-1,-1.8706244E1,3.6143326E1,-3.59006E1,-6.245251E0,1.9694807E1,5.1701946E1,-4.5001125E1,-2.8623312E1,-1.529146E1,1.9133967E0,1.5165348E1,2.5495869E1,2.1284842E0,5.7976982E1,-2.5356889E0,-2.0490975E0,-1.6343949E0,-1.2021029E0,-1.7066662E1,-8.162708E0,-2.705953E0,4.2934E0,6.142873E-1,8.779575E-1,1.0472435E0,1.410201E0,2.6488063E0,3.331787E0,-9.320186E-1,-7.074209E-1,-4.535826E-1,-2.5121683E-1,-2.169795E-1,-2.2902336E-2,1.4425261E-1,3.1394777E-1],"categories":[],"categories_nodes":[],"categories_segments":[],"categories_sizes":[],"default_left":[0,0,0,0,0,0,0,0,0,0,0,0,0,0,0,0,0,0,0,0,0,0,0,0,0,0,0,0,0,0,0,0,0,0,0,0,0],"id":3,"left_children":[1,3,5,7,9,11,13,15,17,19,21,23,25,-1,27,-1,-1,-1,-1,29,31,33,35,-1,-1,-1,-1,-1,-1,-1,-1,-1,-1,-1,-1,-1,-1],"loss_changes":[6.69185E5,1.4418617E5,8.394594E4,1.7454188E4,2.8960752E4,3.8962773E3,7.2738438E3,7.687031E2,2.1934688E3,2.2145117E3,2.2873892E3,4.3223438E2,2.720078E2,0E0,7.1340625E2,0E0,0E0,0E0,0E0,4.1595703E2,6.567261E1,2.5874304E2,3.6498535E2,0E0,0E0,0E0,0E0,0E0,0E0,0E0,0E0,0E0,0E0,0E0,0E0,0E0,0E0],"parents":[2147483647,0,0,1,1,2,2,3,3,4,4,5,5,6,6,7,7,8,8,9,9,10,10,11,11,12,12,14,14,19,19,20,20,21,21,22,22],"right_children":[2,4,6,8,10,12,14,16,18,20,22,24,26,-1,28,-1,-1,-1,-1,30,32,34,36,-1,-1,-1,-1,-1,-1,-1,-1,-1,-1,-1,-1,-1,-1],"split_conditions":[1.7825804E2,1.4240863E2,2.0542928E2,1.2347062E2,1.5710944E2,1.9121552E2,2.237435E2,1.1133402E2,1.3130334E2,1.538717E2,1.6780656E2,1.8300981E2,1.9477908E2,2.1284842E0,2.3901343E2,-2.5356889E0,-2.0490975E0,-1.6343949E0,-1.2021029E0,1.4812132E2,1.177263E8,1.6391977E2,1.723934E2,6.142873E-1,8.779575E-1,1.0472435E0,1.410201E0,2.6488063E0,3.331787E0,-9.320186E-1,-7.074209E-1,-4.535826E-1,-2.5121683E-1,-2.169795E-1,-2.2902336E-2,1.4425261E-1,3.1394777E-1],"split_indices":[3,3,2,3,2,3,3,2,2,3,3,2,0,0,3,0,0,0,0,3,4,3,3,0,0,0,0,0,0,0,0,0,0,0,0,0,0],"split_type":[0,0,0,0,0,0,0,0,0,0,0,0,0,0,0,0,0,0,0,0,0,0,0,0,0,0,0,0,0,0,0,0,0,0,0,0,0],"sum_hessian":[1.004E3,6.73E2,3.31E2,2.82E2,3.91E2,1.62E2,1.69E2,1.23E2,1.59E2,1.85E2,2.06E2,9.3E1,6.9E1,7.2E1,9.7E1,4.6E1,7.7E1,8.1E1,7.8E1,1.47E2,3.8E1,7E1,1.36E2,4.5E1,4.8E1,2.9E1,4E1,6.6E1,3.1E1,9.2E1,5.5E1,2.8E1,1E1,4E1,3E1,8.1E1,5.5E1],"tree_param":{"num_deleted":"0","num_feature":"8","num_nodes":"37","size_leaf_vector":"1"}},{"base_weights":[-5.48443E-1,-2.3552729E1,2.5686571E1,-3.753003E1,-1.3679403E1,1.2289049E1,4.828186E1,-2.2021089E0,-1.5819011E0,-1.8592089E1,-5.2607355E0,5.6425743E0,1.9464918E1,1.9393559E0,5.5055573E1,-1.0462486E0,-7.776138E-1,-8.332441E0,-2.0453672E0,4.3264565E0,9.799778E0,7.987218E-1,1.1623319E0,2.4876192E0,3.1787374E0,-4.9302003E-1,-3.3675438E-1,-1.7940214E-1,-3.8397264E-2,1.550653E-1,3.1582263E-1,4.9970245E-1,7.500725E-2],"categories":[],"categories_nodes":[],"categories_segments":[],"categories_sizes":[],"default_left":[0,0,0,0,0,0,0,0,0,0,0,0,0,0,0,0,0,0,0,0,0,0,0,0,0,0,0,0,0,0,0,0,0],"id":4,"left_children":[1,3,5,7,9,11,13,-1,-1,15,17,19,21,-1,23,-1,-1,25,27,29,31,-1,-1,-1,-1,-1,-1,-1,-1,-1,-1,-1,-1],"loss_changes":[5.9808756E5,7.235191E4,1.3956647E5,6.9711562E3,1.2764609E4,1.3816887E4,8.926625E3,0E0,0E0,1.0645078E3,1.1286501E3,7.947212E2,1.4766445E3,0E0,1.2645625E3,0E0,0E0,7.758984E1,1.1154213E2,2.6809985E2,4.3053223E1,0E0,0E0,0E0,0E0,0E0,0E0,0E0,0E0,0E0,0E0,0E0,0E0],"parents":[2147483647,0,0,1,1,2,2,3,3,4,4,5,5,6,6,9,9,10,10,11,11,12,12,14,14,17,17,18,18,19,19,20,20],"right_children":[2,4,6,8,10,12,14,-1,-1,16,18,20,22,-1,24,-1,-1,26,28,30,32,-1,-1,-1,-1,-1,-1,-1,-1,-1,-1,-1,-1],"split_conditions":[1.6801581E2,1.3618513E2,2.0392E2,1.198312E2,1.521145E2,1.8164299E2,2.2205151E2,-2.2021089E0,-1.5819011E0,1.4499184E2,1.6172432E2,1.763902E2,1.9121552E2,1.9393559E0,2.3768663E2,-1.0462486E0,-7.776138E-1,1.562769E2,1.6391977E2,1.7271597E2,1.9011092E2,7.987218E-1,1.1623319E0,2.4876192E0,3.1787374E0,-4.9302003E-1,-3.3675438E-1,-1.7940214E-1,-3.8397264E-2,1.550653E-1,3.1582263E-1,4.9970245E-1,7.500725E-2],"split_indices":[3,1,3,2,3,3,2,0,0,3,3,5,3,0,3,0,0,3,3,3,1,0,0,0,0,0,0,0,0,0,0,0,0],"split_type":[0,0,0,0,0,0,0,0,0,0,0,0,0,0,0,0,0,0,0,0,0,0,0,0,0,0,0,0,0,0,0,0,0],"sum_hessian":[9.89E2,5.27E2,4.62E2,2.17E2,3.1E2,2.91E2,1.71E2,1E2,1.17E2,1.95E2,1.15E2,1.52E2,1.39E2,7.4E1,9.7E1,1.07E2,8.8E1,5.8E1,5.7E1,1.17E2,3.5E1,7.5E1,6.4E1,6.4E1,3.3E1,2.7E1,3.1E1,2.5E1,3.2E1,7.4E1,4.3E1,3.4E1,1E0],"tree_param":{"num_deleted":"0","num_feature":"8","num_nodes":"33","size_leaf_vector":"1"}},{"base_weights":[-2.9002103E-1,-1.6898388E1,3.2878716E1,-3.3666027E1,-5.88283E0,1.789558E1,4.657564E1,-4.1757088E1,-2.8064173E1,-1.4167493E1,1.9606384E0,1.1768161E1,2.025644E1,1.8369303E0,5.143185E1,-2.3955343E0,-1.9267848E0,-1.5447736E0,-1.1738905E0,-8.4601736E-1,-9.644818E0,-2.2363753E0,4.089889E0,1.6917343E-1,6.0295796E-1,9.0491813E-1,2.4266699E1,2.390655E0,3.031969E0,-5.873632E-1,-3.4328267E-1,-1.978185E-1,-2.5121225E-2,1.4370245E-1,3.089568E-1,3.9154103E-1,1.248114E0],"categories":[],"categories_nodes":[],"categories_segments":[],"categories_sizes":[],"default_left":[0,0,0,0,0,0,0,0,0,0,0,0,0,0,0,0,0,0,0,0,0,0,0,0,0,0,0,0,0,0,0,0,0,0,0,0,0],"id":5,"left_children":[1,3,5,7,9,11,13,15,17,19,21,23,25,-1,27,-1,-1,-1,-1,-1,29,31,33,-1,-1,-1,35,-1,-1,-1,-1,-1,-1,-1,-1,-1,-1],"loss_changes":[5.6134994E5,1.2521658E5,6.894228E4,1.1020531E4,2.6734762E4,2.1340352E3,6.5659062E3,2.9464062E2,1.3782656E3,2.3268594E3,1.9036833E3,7.631494E1,5.733867E2,0E0,9.6575E2,0E0,0E0,0E0,0E0,0E0,3.75104E2,2.1274402E2,3.4040747E2,0E0,0E0,0E0,2.3895703E2,0E0,0E0,0E0,0E0,0E0,0E0,0E0,0E0,0E0,0E0],"parents":[2147483647,0,0,1,1,2,2,3,3,4,4,5,5,6,6,7,7,8,8,9,9,10,10,11,11,12,12,14,14,20,20,21,21,22,22,26,26],"right_children":[2,4,6,8,10,12,14,16,18,20,22,24,26,-1,28,-1,-1,-1,-1,-1,30,32,34,-1,-1,-1,36,-1,-1,-1,-1,-1,-1,-1,-1,-1,-1],"split_conditions":[1.8042357E2,1.4184436E2,2.0855652E2,1.198312E2,1.5710944E2,1.8578943E2,2.2504713E2,1.09311485E2,1.3026778E2,1.4748174E2,1.6965538E2,-3.5786603E-2,1.9626492E2,1.8369303E0,2.3658928E2,-2.3955343E0,-1.9267848E0,-1.5447736E0,-1.1738905E0,-8.4601736E-1,1.5183736E2,1.6217964E2,1.7186336E2,1.6917343E-1,6.0295796E-1,9.0491813E-1,-5.641909E-2,2.390655E0,3.031969E0,-5.873632E-1,-3.4328267E-1,-1.978185E-1,-2.5121225E-2,1.4370245E-1,3.089568E-1,3.9154103E-1,1.248114E0],"split_indices":[1,1,1,2,2,0,1,2,2,2,1,6,1,0,2,0,0,0,0,0,2,2,2,0,0,0,6,0,0,0,0,0,0,0,0,0,0],"split_type":[0,0,0,0,0,0,0,0,0,0,0,0,0,0,0,0,0,0,0,0,0,0,0,0,0,0,0,0,0,0,0,0,0,0,0,0,0],"sum_hessian":[1.017E3,6.78E2,3.39E2,2.68E2,4.1E2,1.63E2,1.76E2,1.07E2,1.61E2,1.99E2,2.11E2,4.7E1,1.16E2,6.1E1,1.15E2,3.2E1,7.5E1,9.6E1,6.5E1,1.22E2,7.7E1,7.1E1,1.4E2,2E0,4.5E1,7.9E1,3.7E1,8.7E1,2.8E1,4.2E1,3.5E1,3.5E1,3.6E1,9E1,5E1,2E0,3.5E1],"tree_param":{"num_deleted":"0","num_feature":"8","num_nodes":"37","size_leaf_vector":"1"}},{"base_weights":[-3.2994586E-1,-1.5924957E1,3.1288996E1,-3.0906404E1,-5.347405E0,1.7520245E1,4.4620426E1,-3.9070198E1,-2.5227085E1,-1.3165521E1,1.957872E0,1.3156685E1,2.2106731E1,1.8721905E0,2.5590205E0,-2.3091223E0,-1.7995846E0,-1.4053452E0,-1.0406519E0,-1.5072886E1,-7.85048E0,-2.2970047E0,3.8018472E0,1.0820765E1,7.6204795E-1,9.428412E-1,2.537449E1,-8.093711E-1,-6.359085E-1,-4.554158E-1,-3.063843E-1,-1.9070473E-1,-2.195703E-2,1.1629435E-1,2.9193884E-1,5.5041575E-1,6.890259E-2,3.4150887E-1,1.2854589E0],"categories":[],"categories_nodes":[],"categories_segments":[],"categories_sizes":[],"default_left":[0,0,0,0,0,0,0,0,0,0,0,0,0,0,0,0,0,0,0,0,0,0,0,0,0,0,0,0,0,0,0,0,0,0,0,0,0,0,0],"id":6,"left_children":[1,3,5,7,9,11,13,15,17,19,21,23,25,-1,-1,-1,-1,-1,-1,27,29,31,33,35,-1,-1,37,-1,-1,-1,-1,-1,-1,-1,-1,-1,-1,-1,-1],"loss_changes":[4.896512E5,1.052153E5,5.9425E4,1.1764719E4,2.2357156E4,2.971332E3,5.898625E3,7.681719E2,1.5124297E3,1.7977012E3,1.601448E3,2.5379004E2,3.498711E2,0E0,0E0,0E0,0E0,0E0,0E0,1.5629688E2,5.687085E1,1.7307501E2,4.1333228E2,6.275293E1,0E0,0E0,4.7839844E1,0E0,0E0,0E0,0E0,0E0,0E0,0E0,0E0,0E0,0E0,0E0,0E0],"parents":[2147483647,0,0,1,1,2,2,3,3,4,4,5,5,6,6,7,7,8,8,9,9,10,10,11,11,12,12,19,19,20,20,21,21,22,22,23,23,26,26],"right_children":[2,4,6,8,10,12,14,16,18,20,22,24,26,-1,-1,-1,-1,-1,-1,28,30,32,34,36,-1,-1,38,-1,-1,-1,-1,-1,-1,-1,-1,-1,-1,-1,-1],"split_conditions":[1.8042357E2,1.4147896E2,2.0884332E2,1.2321036E2,1.5710944E2,1.9017062E2,2.2668318E2,1.09311485E2,1.3130334E2,1.521145E2,1.6780656E2,1.8514627E2,1.991788E2,1.8721905E0,2.5590205E0,-2.3091223E0,-1.7995846E0,-1.4053452E0,-1.0406519E0,1.477988E2,1.562769E2,1.6391977E2,1.7249153E2,1.9011092E2,7.6204795E-1,9.428412E-1,-5.641909E-2,-8.093711E-1,-6.359085E-1,-4.554158E-1,-3.063843E-1,-1.9070473E-1,-2.195703E-2,1.1629435E-1,2.9193884E-1,5.5041575E-1,6.890259E-2,3.4150887E-1,1.2854589E0],"split_indices":[1,3,3,3,2,3,3,2,2,3,3,3,1,0,0,0,0,0,0,3,3,3,3,1,0,0,6,0,0,0,0,0,0,0,0,0,0,0,0],"split_type":[0,0,0,0,0,0,0,0,0,0,0,0,0,0,0,0,0,0,0,0,0,0,0,0,0,0,0,0,0,0,0,0,0,0,0,0,0,0,0],"sum_hessian":[9.91E2,6.64E2,3.27E2,2.74E2,3.9E2,1.62E2,1.65E2,1.1E2,1.64E2,1.88E2,2.02E2,8.5E1,7.7E1,8.2E1,8.3E1,2.9E1,8.1E1,9.6E1,6.8E1,1.37E2,5.1E1,6.1E1,1.41E2,4.3E1,4.2E1,4.2E1,3.5E1,8.9E1,4.8E1,2.7E1,2.4E1,3.3E1,2.8E1,8.3E1,5.8E1,4.2E1,1E0,1E0,3.4E1],"tree_param":{"num_deleted":"0","num_feature":"8","num_nodes":"39","size_leaf_vector":"1"}},{"base_weights":[1.1477845E-1,-1.5286579E1,2.9448246E1,-2.9194836E1,-5.738877E0,1.58535385E1,4.0922604E1,-3.553343E1,-2.314574E1,-1.25391E1,1.8599682E0,1.1659453E1,1.9417032E1,1.6889963E0,4.617898E1,-2.033148E0,-1.6048721E0,-1.307133E0,-9.9325174E-1,-1.4678601E1,-8.23416E0,-1.1315838E0,4.07926E0,8.473897E0,6.4001745E-1,8.683713E-1,1.1213536E0,2.1450748E0,2.7243717E0,-7.912013E-1,-6.5410036E-1,-5.103707E-1,-3.2706776E-1,-1.7746235E-1,-4.6883966E-3,1.406818E-1,2.681896E-1,4.3684646E-1,6.717987E-2],"categories":[],"categories_nodes":[],"categories_segments":[],"categories_sizes":[],"default_left":[0,0,0,0,0,0,0,0,0,0,0,0,0,0,0,0,0,0,0,0,0,0,0,0,0,0,0,0,0,0,0,0,0,0,0,0,0,0,0],"id":7,"left_children":[1,3,5,7,9,11,13,15,17,19,21,23,25,-1,27,-1,-1,-1,-1,29,31,33,35,37,-1,-1,-1,-1,-1,-1,-1,-1,-1,-1,-1,-1,-1,-1,-1],"loss_changes":[4.5403247E5,8.73423E4,5.332397E4,9.4534375E3,2.027947E4,2.1649062E3,5.4609375E3,9.684375E2,8.5715625E2,1.7856914E3,1.2394937E3,1.6774414E2,1.3490039E2,0E0,5.216406E2,0E0,0E0,0E0,0E0,4.353125E1,1.7039307E2,2.0039433E2,1.588617E2,3.1397583E1,0E0,0E0,0E0,0E0,0E0,0E0,0E0,0E0,0E0,0E0,0E0,0E0,0E0,0E0,0E0],"parents":[2147483647,0,0,1,1,2,2,3,3,4,4,5,5,6,6,7,7,8,8,9,9,10,10,11,11,12,12,14,14,19,19,20,20,21,21,22,22,23,23],"right_children":[2,4,6,8,10,12,14,16,18,20,22,24,26,-1,28,-1,-1,-1,-1,30,32,34,36,38,-1,-1,-1,-1,-1,-1,-1,-1,-1,-1,-1,-1,-1,-1,-1],"split_conditions":[1.7825804E2,1.410825E2,2.0392E2,1.2484565E2,1.6060759E2,1.8878976E2,2.237435E2,1.13810524E2,1.3287625E2,1.5059009E2,1.6961781E2,1.8134135E2,1.9477908E2,1.6889963E0,2.3901343E2,-2.033148E0,-1.6048721E0,-1.307133E0,-9.9325174E-1,1.4611726E2,1.538717E2,1.6391977E2,1.7271597E2,1.374261E8,6.4001745E-1,8.683713E-1,1.1213536E0,2.1450748E0,2.7243717E0,-7.912013E-1,-6.5410036E-1,-5.103707E-1,-3.2706776E-1,-1.7746235E-1,-4.6883966E-3,1.406818E-1,2.681896E-1,4.3684646E-1,6.717987E-2],"split_indices":[3,3,3,3,0,3,3,3,3,3,3,3,0,0,3,0,0,0,0,3,3,3,3,4,0,0,0,0,0,0,0,0,0,0,0,0,0,0,0],"split_type":[0,0,0,0,0,0,0,0,0,0,0,0,0,0,0,0,0,0,0,0,0,0,0,0,0,0,0,0,0,0,0,0,0,0,0,0,0,0,0],"sum_hessian":[1.003E3,6.58E2,3.45E2,2.67E2,3.91E2,1.59E2,1.86E2,1.28E2,1.39E2,2.06E2,1.85E2,7.5E1,8.4E1,8.2E1,1.04E2,4.7E1,8.1E1,6.9E1,7E1,1.36E2,7E1,7.9E1,1.06E2,2.2E1,5.3E1,5.4E1,3E1,7.9E1,2.5E1,7.4E1,6.2E1,3E1,4E1,2.3E1,5.6E1,5.5E1,5.1E1,2.1E1,1E0],"tree_param":{"num_deleted":"0","num_feature":"8","num_nodes":"39","size_leaf_vector":"1"}},{"base_weights":[-1.5725553E-1,-1.4994507E1,2.6400618E1,-2.788319E1,-5.427342E0,1.4753041E1,3.956401E1,-3.42141E1,-2.2427378E1,-1.2483513E1,3.0645955E-1,9.647252E0,1.8587608E1,3.5128872E1,2.4481485E0,-1.8954319E0,-1.530703E0,-1.2281686E0,-9.1073674E-1,-1.3508697E1,-7.9734216E0,-3.7648506E0,2.5556958E0,6.32277E0,1.1196587E1,1.6180265E1,1.147642E0,1.4479809E0,1.897879E0,-7.165402E-1,-5.76005E-1,-1.16846465E-1,-4.0382662E-1,-2.6600382E-1,-1.0962019E-1,5.1855125E-2,2.0067394E-1,3.6585998E-2,3.3549106E-1,1.02248766E-1,5.662899E-1,8.1493914E-1,1.9117394E-1],"categories":[],"categories_nodes":[],"categories_segments":[],"categories_sizes":[],"default_left":[0,0,0,0,0,0,0,0,0,0,0,0,0,0,0,0,0,0,0,0,0,0,0,0,0,0,0,0,0,0,0,0,0,0,0,0,0,0,0,0,0,0,0],"id":8,"left_children":[1,3,5,7,9,11,13,15,17,19,21,23,25,27,-1,-1,-1,-1,-1,29,31,33,35,37,39,41,-1,-1,-1,-1,-1,-1,-1,-1,-1,-1,-1,-1,-1,-1,-1,-1,-1],"loss_changes":[3.9247147E5,7.864259E4,5.415214E4,8.627609E3,1.489262E4,3.5601719E3,5.2414844E3,4.8871875E2,8.933125E2,6.551953E2,1.8777189E3,3.6186816E2,7.635469E2,9.425469E2,0E0,0E0,0E0,0E0,0E0,5.2341797E1,3.0493164E-1,1.668584E2,2.8805652E2,5.7846924E1,4.3058594E1,4.4589844E1,0E0,0E0,0E0,0E0,0E0,0E0,0E0,0E0,0E0,0E0,0E0,0E0,0E0,0E0,0E0,0E0,0E0],"parents":[2147483647,0,0,1,1,2,2,3,3,4,4,5,5,6,6,7,7,8,8,9,9,10,10,11,11,12,12,13,13,19,19,20,20,21,21,22,22,23,23,24,24,25,25],"right_children":[2,4,6,8,10,12,14,16,18,20,22,24,26,28,-1,-1,-1,-1,-1,30,32,34,36,38,40,42,-1,-1,-1,-1,-1,-1,-1,-1,-1,-1,-1,-1,-1,-1,-1,-1,-1],"split_conditions":[1.7751447E2,1.419555E2,2.080968E2,1.2613609E2,1.562769E2,1.8818584E2,2.3390779E2,1.1513848E2,1.3475444E2,1.521145E2,1.6596956E2,1.8033092E2,1.9658E2,2.1722412E2,2.4481485E0,-1.8954319E0,-1.530703E0,-1.2281686E0,-9.1073674E-1,1.477988E2,4.62405E7,1.6172432E2,1.7069212E2,1.7271597E2,-3.5786603E-2,1.219465E8,1.147642E0,1.4479809E0,1.897879E0,-7.165402E-1,-5.76005E-1,-1.16846465E-1,-4.0382662E-1,-2.6600382E-1,-1.0962019E-1,5.1855125E-2,2.0067394E-1,3.6585998E-2,3.3549106E-1,1.02248766E-1,5.662899E-1,8.1493914E-1,1.9117394E-1],"split_indices":[1,3,3,1,3,1,1,3,3,3,3,3,3,3,0,0,0,0,0,3,4,3,3,3,6,4,0,0,0,0,0,0,0,0,0,0,0,0,0,0,0,0,0],"split_type":[0,0,0,0,0,0,0,0,0,0,0,0,0,0,0,0,0,0,0,0,0,0,0,0,0,0,0,0,0,0,0,0,0,0,0,0,0,0,0,0,0,0,0],"sum_hessian":[9.94E2,6.38E2,3.56E2,2.71E2,3.67E2,1.9E2,1.66E2,1.23E2,1.48E2,1.64E2,2.03E2,8.3E1,1.07E2,1.16E2,5E1,5.6E1,6.7E1,9.5E1,5.3E1,1.32E2,3.2E1,7.2E1,1.31E2,2.8E1,5.5E1,7.2E1,3.5E1,4E1,7.6E1,8.9E1,4.3E1,1E0,3.1E1,3.5E1,3.7E1,6.5E1,6.6E1,2E0,2.6E1,1E0,5.4E1,7.1E1,1E0],"tree_param":{"num_deleted":"0","num_feature":"8","num_nodes":"43","size_leaf_vector":"1"}},{"base_weights":[-4.1185492E-1,-1.4793904E1,2.5297735E1,-2.7362871E1,-5.91171E0,1.440501E1,3.960716E1,-3.3859585E1,-2.2701508E1,-1.2553807E1,-4.4858683E-2,8.626503E0,1.8201973E1,3.6498035E1,2.5282705E0,-1.9495192E0,-1.5726053E0,-1.2246889E0,-8.8117105E-1,-1.3890443E1,-9.240158E0,-3.6288123E0,2.415693E0,5.4296923E0,9.933355E0,1.5550375E1,2.2996546E1,1.4471408E0,1.8935379E0,-6.9707435E-1,-1.9285356E-1,-4.7882852E-1,-1.3624822E-1,-2.614041E-1,-9.294297E-2,4.033329E-2,1.7934693E-1,6.577168E-2,2.954571E-1,1.6201502E-1,5.0589126E-1,6.0720827E-2,7.8571975E-1,1.1647607E0,2.7624628E-1],"categories":[],"categories_nodes":[],"categories_segments":[],"categories_sizes":[],"default_left":[0,0,0,0,0,0,0,0,0,0,0,0,0,0,0,0,0,0,0,0,0,0,0,0,0,0,0,0,0,0,0,0,0,0,0,0,0,0,0,0,0,0,0,0,0],"id":9,"left_children":[1,3,5,7,9,11,13,15,17,19,21,23,25,27,-1,-1,-1,-1,-1,29,31,33,35,37,39,41,43,-1,-1,-1,-1,-1,-1,-1,-1,-1,-1,-1,-1,-1,-1,-1,-1,-1,-1],"loss_changes":[3.6384494E5,7.028309E4,5.445111E4,7.135328E3,1.4456636E4,4.2750156E3,3.3331719E3,9.536719E1,9.7903125E2,6.4232227E2,1.7548296E3,2.886411E2,1.1807031E3,1.6921875E2,0E0,0E0,0E0,0E0,0E0,8.707031E0,9.006885E1,2.1956299E2,2.1948535E2,4.3513977E1,3.759082E1,1.7137695E2,8.5240234E1,0E0,0E0,0E0,0E0,0E0,0E0,0E0,0E0,0E0,0E0,0E0,0E0,0E0,0E0,0E0,0E0,0E0,0E0],"parents":[2147483647,0,0,1,1,2,2,3,3,4,4,5,5,6,6,7,7,8,8,9,9,10,10,11,11,12,12,13,13,19,19,20,20,21,21,22,22,23,23,24,24,25,25,26,26],"right_children":[2,4,6,8,10,12,14,16,18,20,22,24,26,28,-1,-1,-1,-1,-1,30,32,34,36,38,40,42,44,-1,-1,-1,-1,-1,-1,-1,-1,-1,-1,-1,-1,-1,-1,-1,-1,-1,-1],"split_conditions":[1.7751447E2,1.4184436E2,2.1473578E2,1.202344E2,1.5311496E2,1.8818584E2,2.3658928E2,1.09311485E2,1.3618513E2,1.4748174E2,1.6424922E2,1.7642387E2,2.0027736E2,2.167182E2,2.5282705E0,-1.9495192E0,-1.5726053E0,-1.2246889E0,-8.8117105E-1,1.5164978E2,1.5757643E2,1.5935553E2,1.7160812E2,1.740389E2,-3.5786603E-2,1.7698901E2,2.1777443E2,1.4471408E0,1.8935379E0,-6.9707435E-1,-1.9285356E-1,-4.7882852E-1,-1.3624822E-1,-2.614041E-1,-9.294297E-2,4.033329E-2,1.7934693E-1,6.577168E-2,2.954571E-1,1.6201502E-1,5.0589126E-1,6.0720827E-2,7.8571975E-1,1.1647607E0,2.7624628E-1],"split_indices":[1,1,1,2,2,1,2,2,1,2,2,2,1,2,0,0,0,0,0,5,5,2,1,2,6,0,5,0,0,0,0,0,0,0,0,0,0,0,0,0,0,0,0,0,0],"split_type":[0,0,0,0,0,0,0,0,0,0,0,0,0,0,0,0,0,0,0,0,0,0,0,0,0,0,0,0,0,0,0,0,0,0,0,0,0,0,0,0,0,0,0,0,0],"sum_hessian":[9.82E2,6.3E2,3.52E2,2.6E2,3.7E2,2.01E2,1.51E2,1.06E2,1.54E2,1.73E2,1.97E2,8.1E1,1.2E2,1.21E2,3E1,2.9E1,7.7E1,1.11E2,4.3E1,1.21E2,5.2E1,8E1,1.17E2,2.5E1,5.6E1,8E1,4E1,2.2E1,9.9E1,1.2E2,1E0,4.9E1,3E0,4.1E1,3.9E1,5E1,6.7E1,3E0,2.2E1,2E0,5.4E1,1E0,7.9E1,3.9E1,1E0],"tree_param":{"num_deleted":"0","num_feature":"8","num_nodes":"45","size_leaf_vector":"1"}},{"base_weights":[-1.0118138E0,-1.3416646E1,2.5595442E1,-2.630266E1,-5.164616E0,1.4147029E1,3.56053E1,-3.362266E1,-2.2304129E1,-1.0886838E1,1.7959838E0,1.1652883E1,9.6021616E-1,1.4474728E0,3.891208E1,-2.2293077E0,-1.5948334E0,-1.265661E0,-9.6571314E-1,-1.3123165E1,-7.2871413E0,-1.6110202E0,3.3931253E0,9.001755E0,6.738711E-1,1.8209566E0,2.2782738E0,-6.9290394E-1,-5.687062E-1,-4.6160966E-1,-2.9706782E-1,-1.4222445E-1,2.3794104E-3,1.17344216E-1,2.2785941E-1,9.564209E-2,4.5596963E-1],"categories":[],"categories_nodes":[],"categories_segments":[],"categories_sizes":[],"default_left":[0,0,0,0,0,0,0,0,0,0,0,0,0,0,0,0,0,0,0,0,0,0,0,0,0,0,0,0,0,0,0,0,0,0,0,0,0],"id":10,"left_children":[1,3,5,7,9,11,13,15,17,19,21,23,-1,-1,25,-1,-1,-1,-1,27,29,31,33,35,-1,-1,-1,-1,-1,-1,-1,-1,-1,-1,-1,-1,-1],"loss_changes":[3.3007188E5,7.238515E4,3.593814E4,7.0357188E3,1.6628703E4,1.6682598E3,2.5931094E3,3.187578E2,1.0855234E3,1.7478457E3,1.0339038E3,3.769004E2,0E0,0E0,1.650625E2,0E0,0E0,0E0,0E0,2.2330078E1,1.8073438E2,1.2493172E2,1.4641272E2,2.0082275E1,0E0,0E0,0E0,0E0,0E0,0E0,0E0,0E0,0E0,0E0,0E0,0E0,0E0],"parents":[2147483647,0,0,1,1,2,2,3,3,4,4,5,5,6,6,7,7,8,8,9,9,10,10,11,11,14,14,19,19,20,20,21,21,22,22,23,23],"right_children":[2,4,6,8,10,12,14,16,18,20,22,24,-1,-1,26,-1,-1,-1,-1,28,30,32,34,36,-1,-1,-1,-1,-1,-1,-1,-1,-1,-1,-1,-1,-1],"split_conditions":[1.7855243E2,1.415366E2,2.0855652E2,1.2075218E2,1.6060759E2,1.9245265E2,2.2504713E2,1.0001133E2,1.306683E2,1.514125E2,1.6965538E2,1.8742348E2,9.6021616E-1,1.4474728E0,2.3731552E2,-2.2293077E0,-1.5948334E0,-1.265661E0,-9.6571314E-1,1.4761993E2,1.549719E2,-9.237938E-4,1.7393953E2,-3.5786603E-2,6.738711E-1,1.8209566E0,2.2782738E0,-6.9290394E-1,-5.687062E-1,-4.6160966E-1,-2.9706782E-1,-1.4222445E-1,2.3794104E-3,1.17344216E-1,2.2785941E-1,9.564209E-2,4.5596963E-1],"split_indices":[0,1,1,1,0,5,1,0,1,1,1,1,0,0,5,0,0,0,0,1,1,6,1,6,0,0,0,0,0,0,0,0,0,0,0,0,0],"split_type":[0,0,0,0,0,0,0,0,0,0,0,0,0,0,0,0,0,0,0,0,0,0,0,0,0,0,0,0,0,0,0,0,0,0,0,0,0],"sum_hessian":[9.98E2,6.81E2,3.17E2,2.65E2,4.16E2,1.49E2,1.68E2,9.1E1,1.74E2,2.28E2,1.88E2,1.02E2,4.7E1,5.9E1,1.09E2,9E0,8.2E1,8.3E1,9.1E1,1.39E2,8.9E1,6E1,1.28E2,4.4E1,5.8E1,8.4E1,2.5E1,9.3E1,4.6E1,3.4E1,5.5E1,3.4E1,2.6E1,6.9E1,5.9E1,1E0,4.3E1],"tree_param":{"num_deleted":"0","num_feature":"8","num_nodes":"37","size_leaf_vector":"1"}},{"base_weights":[4.1523024E-1,-1.2313834E1,2.452831E1,-2.3508112E1,-3.3553019E0,1.4474264E1,3.5678955E1,-2.9943249E1,-1.8357893E1,-9.547177E0,1.4805188E0,1.0234134E1,1.924877E1,3.1890848E1,2.1966202E0,-2.1689003E0,-1.4205565E0,-1.0513004E0,-7.365362E-1,-1.1019057E1,-6.1475344E0,-7.7225804E-1,3.6751785E0,8.349465E0,1.1876427E1,7.3450345E-1,2.1039047E1,1.3280458E0,1.6739098E0,-5.9835094E-1,-4.756969E-1,-3.5555273E-1,-2.3536347E-1,-1.2711802E-1,2.3984222E-2,1.3989232E-1,2.4171484E-1,4.343062E-1,1.8248215E-1,6.001138E-1,1.4274597E-1,2.4533463E-1,1.0617994E0],"categories":[],"categories_nodes":[],"categories_segments":[],"categories_sizes":[],"default_left":[0,0,0,0,0,0,0,0,0,0,0,0,0,0,0,0,0,0,0,0,0,0,0,0,0,0,0,0,0,0,0,0,0,0,0,0,0,0,0,0,0,0,0],"id":11,"left_children":[1,3,5,7,9,11,13,15,17,19,21,23,25,27,-1,-1,-1,-1,-1,29,31,33,35,37,39,-1,41,-1,-1,-1,-1,-1,-1,-1,-1,-1,-1,-1,-1,-1,-1,-1,-1],"loss_changes":[3.0294188E5,6.4704773E4,3.771278E4,8.962172E3,1.0793542E4,3.4672695E3,3.632625E3,1.3611172E3,1.2580586E3,7.228711E2,1.0064861E3,2.0416602E2,3.7648633E2,7.527344E1,0E0,0E0,0E0,0E0,0E0,4.1666992E1,3.591272E1,2.2504219E2,9.121838E1,4.582837E1,2.2501465E1,0E0,8.0072266E1,0E0,0E0,0E0,0E0,0E0,0E0,0E0,0E0,0E0,0E0,0E0,0E0,0E0,0E0,0E0,0E0],"parents":[2147483647,0,0,1,1,2,2,3,3,4,4,5,5,6,6,7,7,8,8,9,9,10,10,11,11,12,12,13,13,19,19,20,20,21,21,22,22,23,23,24,24,26,26],"right_children":[2,4,6,8,10,12,14,16,18,20,22,24,26,28,-1,-1,-1,-1,-1,30,32,34,36,38,40,-1,42,-1,-1,-1,-1,-1,-1,-1,-1,-1,-1,-1,-1,-1,-1,-1,-1],"split_conditions":[1.7825804E2,1.4357025E2,2.1225734E2,1.2441184E2,1.5710944E2,1.9170064E2,2.3417685E2,1.0344273E2,1.3566304E2,1.521145E2,1.6979236E2,1.8604071E2,1.958597E2,2.167182E2,2.1966202E0,-2.1689003E0,-1.4205565E0,-1.0513004E0,-7.365362E-1,1.4916711E2,1.562769E2,1.6481804E2,1.7428772E2,1.8451815E1,1.9564723E2,7.3450345E-1,-5.641909E-2,1.3280458E0,1.6739098E0,-5.9835094E-1,-4.756969E-1,-3.5555273E-1,-2.3536347E-1,-1.2711802E-1,2.3984222E-2,1.3989232E-1,2.4171484E-1,4.343062E-1,1.8248215E-1,6.001138E-1,1.4274597E-1,2.4533463E-1,1.0617994E0],"split_indices":[3,3,3,3,2,3,3,1,3,3,3,3,5,2,0,0,0,0,0,1,3,3,3,7,1,0,6,0,0,0,0,0,0,0,0,0,0,0,0,0,0,0,0],"split_type":[0,0,0,0,0,0,0,0,0,0,0,0,0,0,0,0,0,0,0,0,0,0,0,0,0,0,0,0,0,0,0,0,0,0,0,0,0,0,0,0,0,0,0],"sum_hessian":[9.85E2,6.45E2,3.4E2,2.86E2,3.59E2,1.8E2,1.6E2,1.25E2,1.61E2,1.57E2,2.02E2,9.7E1,8.3E1,1.13E2,4.7E1,1E1,1.15E2,9E1,7.1E1,1.08E2,4.9E1,1E2,1.02E2,4.8E1,4.9E1,2.6E1,5.7E1,3E1,8.3E1,6.2E1,4.6E1,2.7E1,2.2E1,4.1E1,5.9E1,6E1,4.2E1,4.4E1,4E0,4.8E1,1E0,1E0,5.6E1],"tree_param":{"num_deleted":"0","num_feature":"8","num_nodes":"43","size_leaf_vector":"1"}},{"base_weights":[-5.689305E-1,-1.451003E1,1.7815191E1,-2.3957653E1,-7.602759E0,8.710391E0,3.182491E1,-2.9936407E1,-2.0338654E1,-1.14753895E1,-2.292741E0,4.5841036E0,1.3336163E1,1.2947091E0,3.6172066E1,-2.048764E0,-1.408007E0,-1.1222323E0,-8.5872823E-1,-6.2822425E-1,-4.5402375E-1,-4.282672E0,3.2820269E-3,3.5021756E0,7.8541684E0,5.486228E-1,8.029532E-1,1.6615337E0,2.1744533E0,-2.4976645E-1,-1.2271293E-1,-3.916644E-2,4.0681507E-2,1.3206266E-1,2.3858345E-1,4.8944473E-2,4.0164238E-1],"categories":[],"categories_nodes":[],"categories_segments":[],"categories_sizes":[],"default_left":[0,0,0,0,0,0,0,0,0,0,0,0,0,0,0,0,0,0,0,0,0,0,0,0,0,0,0,0,0,0,0,0,0,0,0,0,0],"id":12,"left_children":[1,3,5,7,9,11,13,15,17,19,21,23,25,-1,27,-1,-1,-1,-1,-1,-1,29,31,33,35,-1,-1,-1,-1,-1,-1,-1,-1,-1,-1,-1,-1],"loss_changes":[2.5552819E5,3.681875E4,5.457175E4,4.5623906E3,6.73916E3,4.9397285E3,3.4204688E3,5.716406E2,6.273828E2,3.8148438E2,6.3966376E2,4.6781006E2,6.1543555E2,0E0,5.994297E2,0E0,0E0,0E0,0E0,0E0,0E0,8.546753E1,4.2707626E1,1.0434094E2,3.390454E1,0E0,0E0,0E0,0E0,0E0,0E0,0E0,0E0,0E0,0E0,0E0,0E0],"parents":[2147483647,0,0,1,1,2,2,3,3,4,4,5,5,6,6,7,7,8,8,9,9,10,10,11,11,12,12,14,14,21,21,22,22,23,23,24,24],"right_children":[2,4,6,8,10,12,14,16,18,20,22,24,26,-1,28,-1,-1,-1,-1,-1,-1,30,32,34,36,-1,-1,-1,-1,-1,-1,-1,-1,-1,-1,-1,-1],"split_conditions":[1.6979236E2,1.3869185E2,2.057E2,1.2022083E2,1.538717E2,1.8326321E2,2.2351431E2,1.0001133E2,1.3060817E2,1.477988E2,1.6391977E2,1.8042357E2,1.9324515E2,1.2947091E0,2.3901343E2,-2.048764E0,-1.408007E0,-1.1222323E0,-8.5872823E-1,-6.2822425E-1,-4.5402375E-1,1.6172432E2,1.6780656E2,1.7478806E2,1.7698901E2,5.486228E-1,8.029532E-1,1.6615337E0,2.1744533E0,-2.4976645E-1,-1.2271293E-1,-3.916644E-2,4.0681507E-2,1.3206266E-1,2.3858345E-1,4.8944473E-2,4.0164238E-1],"split_indices":[3,3,1,3,3,3,0,0,3,3,3,1,1,0,3,0,0,0,0,0,0,3,3,3,0,0,0,0,0,0,0,0,0,0,0,0,0],"split_type":[0,0,0,0,0,0,0,0,0,0,0,0,0,0,0,0,0,0,0,0,0,0,0,0,0,0,0,0,0,0,0,0,0,0,0,0,0],"sum_hessian":[9.95E2,5.66E2,4.29E2,2.38E2,3.28E2,2.61E2,1.68E2,8.7E1,1.51E2,1.89E2,1.39E2,1.39E2,1.22E2,7.4E1,9.4E1,9E0,7.8E1,8.7E1,6.4E1,1.27E2,6.2E1,7.4E1,6.5E1,1.06E2,3.3E1,6.8E1,5.4E1,7.1E1,2.3E1,5.2E1,2.2E1,3.3E1,3.2E1,6.5E1,4.1E1,1E0,3.2E1],"tree_param":{"num_deleted":"0","num_feature":"8","num_nodes":"37","size_leaf_vector":"1"}},{"base_weights":[1.7594333E-1,-1.1416215E1,2.2082932E1,-2.194988E1,-4.054037E0,1.3523168E1,3.2862614E1,-2.7807861E1,-1.7883968E1,-9.277774E0,1.355997E0,1.079461E1,2.0054354E1,1.4841446E0,1.9881834E0,-1.6876748E0,-1.280517E0,-1.0088174E0,-7.45811E-1,-1.0501472E1,-5.5927196E0,-1.5120295E0,2.75701E0,7.758629E0,1.2261267E1,2.0683365E-1,1.0134277E0,-5.7239556E-1,-4.5549875E-1,-3.2225418E-1,-2.137419E-1,-1.8440934E-1,-4.075006E-2,8.642811E-2,2.0898731E-1,3.9415464E-1,4.772072E-2,6.171827E-1,1.19103625E-1],"categories":[],"categories_nodes":[],"categories_segments":[],"categories_sizes":[],"default_left":[0,0,0,0,0,0,0,0,0,0,0,0,0,0,0,0,0,0,0,0,0,0,0,0,0,0,0,0,0,0,0,0,0,0,0,0,0,0,0],"id":13,"left_children":[1,3,5,7,9,11,13,15,17,19,21,23,25,-1,-1,-1,-1,-1,-1,27,29,31,33,35,37,-1,-1,-1,-1,-1,-1,-1,-1,-1,-1,-1,-1,-1,-1],"loss_changes":[2.5318558E5,5.0474086E4,3.1389281E4,5.885922E3,1.0892908E4,3.2407422E3,2.1550938E3,5.4664844E2,7.943594E2,8.251113E2,7.676157E2,5.237998E2,1.0708984E2,0E0,0E0,0E0,0E0,0E0,0E0,8.7987305E1,2.9737305E1,9.255524E1,1.8006586E2,3.312622E1,4.5475586E1,0E0,0E0,0E0,0E0,0E0,0E0,0E0,0E0,0E0,0E0,0E0,0E0,0E0,0E0],"parents":[2147483647,0,0,1,1,2,2,3,3,4,4,5,5,6,6,7,7,8,8,9,9,10,10,11,11,12,12,19,19,20,20,21,21,22,22,23,23,24,24],"right_children":[2,4,6,8,10,12,14,16,18,20,22,24,26,-1,-1,-1,-1,-1,-1,28,30,32,34,36,38,-1,-1,-1,-1,-1,-1,-1,-1,-1,-1,-1,-1,-1,-1],"split_conditions":[1.7775032E2,1.4147896E2,2.1495811E2,1.202344E2,1.5710944E2,1.9878E2,2.3417685E2,1.0798708E2,1.3287625E2,1.521145E2,1.6780656E2,1.8604071E2,-5.641909E-2,1.4841446E0,1.9881834E0,-1.6876748E0,-1.280517E0,-1.0088174E0,-7.45811E-1,1.4534811E2,1.562769E2,1.6172432E2,1.7249153E2,1.374261E8,2.0855067E2,2.0683365E-1,1.0134277E0,-5.7239556E-1,-4.5549875E-1,-3.2225418E-1,-2.137419E-1,-1.8440934E-1,-4.075006E-2,8.642811E-2,2.0898731E-1,3.9415464E-1,4.772072E-2,6.171827E-1,1.19103625E-1],"split_indices":[5,3,3,2,2,3,3,2,3,3,3,3,6,0,0,0,0,0,0,2,3,3,3,4,5,0,0,0,0,0,0,0,0,0,0,0,0,0,0],"split_type":[0,0,0,0,0,0,0,0,0,0,0,0,0,0,0,0,0,0,0,0,0,0,0,0,0,0,0,0,0,0,0,0,0,0,0,0,0,0,0],"sum_hessian":[9.95E2,6.51E2,3.44E2,2.67E2,3.84E2,1.93E2,1.51E2,1.07E2,1.6E2,1.95E2,1.89E2,1.38E2,5.5E1,1.07E2,4.4E1,2.5E1,8.2E1,8.7E1,7.3E1,1.45E2,5E1,6.2E1,1.27E2,4.7E1,9.1E1,1E0,5.4E1,8.2E1,6.3E1,2.8E1,2.2E1,1.4E1,4.8E1,7.5E1,5.2E1,4.6E1,1E0,9E1,1E0],"tree_param":{"num_deleted":"0","num_feature":"8","num_nodes":"39","size_leaf_vector":"1"}},{"base_weights":[3.962678E-2,-1.1484097E1,1.9935448E1,-2.2163944E1,-5.252154E0,1.0485316E1,2.9753466E1,-2.7336576E1,-1.864342E1,-9.815355E0,7.4768686E-1,7.2545133E0,1.3638114E1,2.6390081E1,1.8367122E0,-1.8211912E0,-1.3010929E0,-1.0355303E0,-1.5939582E1,-1.1327542E1,-6.5115204E0,-1.4806795E0,2.2189329E0,5.2596245E0,4.3492457E-1,1.1935418E1,1.6372244E1,1.0564836E0,1.4042062E0,-8.036739E-1,-1.8425599E-1,-5.860247E-1,-4.577352E-1,-4.0338227E-1,-2.5501063E-1,-1.1761379E-1,-9.868227E-3,1.3051291E-2,1.285975E-1,-2.518158E-2,2.7062377E-1,4.6527863E-2,6.0516614E-1,8.315899E-1,2.0166282E-1],"categories":[],"categories_nodes":[],"categories_segments":[],"categories_sizes":[],"default_left":[0,0,0,0,0,0,0,0,0,0,0,0,0,0,0,0,0,0,0,0,0,0,0,0,0,0,0,0,0,0,0,0,0,0,0,0,0,0,0,0,0,0,0,0,0],"id":14,"left_children":[1,3,5,7,9,11,13,15,17,19,21,23,25,27,-1,-1,-1,-1,29,31,33,35,37,39,-1,41,43,-1,-1,-1,-1,-1,-1,-1,-1,-1,-1,-1,-1,-1,-1,-1,-1,-1,-1],"loss_changes":[2.2629305E5,4.148122E4,3.3274953E4,3.6787422E3,1.0849219E4,1.7956699E3,3.186375E3,1.39375E2,4.5238672E2,1.0503457E3,5.671833E2,2.2502295E2,2.3754102E2,5.026953E2,0E0,0E0,0E0,0E0,4.741992E1,2.3335938E1,1.1917407E2,7.671449E1,7.1210815E1,3.972461E1,0E0,1.0145117E2,3.8606445E1,0E0,0E0,0E0,0E0,0E0,0E0,0E0,0E0,0E0,0E0,0E0,0E0,0E0,0E0,0E0,0E0,0E0,0E0],"parents":[2147483647,0,0,1,1,2,2,3,3,4,4,5,5,6,6,7,7,8,8,9,9,10,10,11,11,12,12,13,13,18,18,19,19,20,20,21,21,22,22,23,23,25,25,26,26],"right_children":[2,4,6,8,10,12,14,16,18,20,22,24,26,28,-1,-1,-1,-1,30,32,34,36,38,40,-1,42,44,-1,-1,-1,-1,-1,-1,-1,-1,-1,-1,-1,-1,-1,-1,-1,-1,-1,-1],"split_conditions":[1.7751447E2,1.3551639E2,2.0855652E2,1.1803571E2,1.5710944E2,1.8969287E2,2.290349E2,1.0001133E2,1.27576126E2,1.4748174E2,1.6965538E2,1.801805E2,1.991788E2,2.1347006E2,1.8367122E0,-1.8211912E0,-1.3010929E0,-1.0355303E0,1.415366E2,1.4534811E2,1.549719E2,1.6367259E2,-1.4767242E-2,1.7496648E2,4.3492457E-1,1.7698901E2,2.1027063E2,1.0564836E0,1.4042062E0,-8.036739E-1,-1.8425599E-1,-5.860247E-1,-4.577352E-1,-4.0338227E-1,-2.5501063E-1,-1.1761379E-1,-9.868227E-3,1.3051291E-2,1.285975E-1,-2.518158E-2,2.7062377E-1,4.6527863E-2,6.0516614E-1,8.315899E-1,2.0166282E-1],"split_indices":[1,2,1,2,2,1,2,0,2,2,1,2,1,2,0,0,0,0,1,2,1,2,6,0,0,0,5,0,0,0,0,0,0,0,0,0,0,0,0,0,0,0,0,0,0],"split_type":[0,0,0,0,0,0,0,0,0,0,0,0,0,0,0,0,0,0,0,0,0,0,0,0,0,0,0,0,0,0,0,0,0,0,0,0,0,0,0,0,0,0,0,0,0],"sum_hessian":[9.85E2,6.24E2,3.61E2,2.29E2,3.95E2,1.85E2,1.76E2,9E1,1.39E2,2.24E2,1.71E2,9.3E1,9.2E1,1.22E2,5.4E1,8E0,8.2E1,7.5E1,6.4E1,1.52E2,7.2E1,6.8E1,1.03E2,4.1E1,5.2E1,6E1,3.2E1,3.3E1,8.9E1,6.3E1,1E0,1.25E2,2.7E1,3.2E1,4E1,4E1,2.8E1,1.6E1,8.7E1,1E0,4E1,1E0,5.9E1,3.1E1,1E0],"tree_param":{"num_deleted":"0","num_feature":"8","num_nodes":"45","size_leaf_vector":"1"}},{"base_weights":[1.8013003E-1,-1.0256746E1,2.0112827E1,-1.9915998E1,-3.5086668E0,1.2247875E1,2.9966925E1,-2.47133E1,-1.602919E1,-8.865433E0,8.428955E-1,9.528395E0,1.6996965E1,1.3648437E0,1.8501652E0,-1.8039318E0,-1.1727712E0,-8.789541E-1,-6.52916E-1,-1.0096257E1,-6.5921974E0,-1.4815873E0,2.993818E0,7.339061E0,1.0797861E1,2.0513713E-1,1.7320633E1,-5.569282E-1,-4.5783874E-1,-3.7339768E-1,-2.512509E-1,-1.5400717E-1,-2.1718133E-2,5.5535417E-2,1.8041493E-1,1.0759913E-1,3.7570006E-1,4.5364764E-2,5.458031E-1,2.316784E-1,8.721328E-1],"categories":[],"categories_nodes":[],"categories_segments":[],"categories_sizes":[],"default_left":[0,0,0,0,0,0,0,0,0,0,0,0,0,0,0,0,0,0,0,0,0,0,0,0,0,0,0,0,0,0,0,0,0,0,0,0,0,0,0,0,0],"id":15,"left_children":[1,3,5,7,9,11,13,15,17,19,21,23,25,-1,-1,-1,-1,-1,-1,27,29,31,33,35,37,-1,39,-1,-1,-1,-1,-1,-1,-1,-1,-1,-1,-1,-1,-1,-1],"loss_changes":[2.0824139E5,4.2754305E4,2.6293656E4,4.638336E3,9.051869E3,2.3306543E3,1.845625E3,8.550156E2,4.7033594E2,4.202871E2,1.0793889E3,2.6816602E2,2.1690625E2,0E0,0E0,0E0,0E0,0E0,0E0,6.701172E0,5.0311523E1,1.7276302E2,1.2559119E2,2.8293945E1,8.011328E1,0E0,2.290039E1,0E0,0E0,0E0,0E0,0E0,0E0,0E0,0E0,0E0,0E0,0E0,0E0,0E0,0E0],"parents":[2147483647,0,0,1,1,2,2,3,3,4,4,5,5,6,6,7,7,8,8,9,9,10,10,11,11,12,12,19,19,20,20,21,21,22,22,23,23,24,24,26,26],"right_children":[2,4,6,8,10,12,14,16,18,20,22,24,26,-1,-1,-1,-1,-1,-1,28,30,32,34,36,38,-1,40,-1,-1,-1,-1,-1,-1,-1,-1,-1,-1,-1,-1,-1,-1],"split_conditions":[1.8143137E2,1.4265215E2,2.157709E2,1.23824646E2,1.5975148E2,1.9626492E2,2.353527E2,1.0001133E2,1.3618513E2,1.5067271E2,1.7071077E2,1.8742348E2,-5.641909E-2,1.3648437E0,1.8501652E0,-1.8039318E0,-1.1727712E0,-8.789541E-1,-6.52916E-1,-3.4348741E-3,1.549719E2,1.6444382E2,-8.147473E-3,-3.5786603E-2,1.7698901E2,2.0513713E-1,1.7173283E2,-5.569282E-1,-4.5783874E-1,-3.7339768E-1,-2.512509E-1,-1.5400717E-1,-2.1718133E-2,5.5535417E-2,1.8041493E-1,1.0759913E-1,3.7570006E-1,4.5364764E-2,5.458031E-1,2.316784E-1,8.721328E-1],"split_indices":[1,1,1,0,1,1,0,0,1,1,1,1,6,0,0,0,0,0,0,6,1,1,6,6,0,0,0,0,0,0,0,0,0,0,0,0,0,0,0,0,0],"split_type":[0,0,0,0,0,0,0,0,0,0,0,0,0,0,0,0,0,0,0,0,0,0,0,0,0,0,0,0,0,0,0,0,0,0,0,0,0,0,0,0,0],"sum_hessian":[9.99E2,6.56E2,3.43E2,2.69E2,3.87E2,1.92E2,1.51E2,1.18E2,1.51E2,1.73E2,2.14E2,1.24E2,6.8E1,1.13E2,3.8E1,9E0,1.09E2,9.6E1,5.5E1,1.1E2,6.3E1,1.03E2,1.11E2,4.8E1,7.6E1,2E0,6.6E1,4.7E1,6.3E1,3.8E1,2.5E1,4E1,6.3E1,2.8E1,8.3E1,2E0,4.6E1,1E0,7.5E1,1E0,6.5E1],"tree_param":{"num_deleted":"0","num_feature":"8","num_nodes":"41","size_leaf_vector":"1"}},{"base_weights":[1.0940054E-1,-9.57389E0,1.8726353E1,-1.6541393E1,-1.6319915E0,1.0834406E1,2.787221E1,-2.2880415E1,-1.2726018E1,-6.2556553E0,1.3509706E0,8.712015E0,1.5221724E1,2.5661015E1,1.7944611E0,-1.4781184E0,-1.0567602E0,-7.905927E-1,-1.1051867E1,-7.5640216E0,-4.1627803E0,-6.0616344E-1,2.6908908E0,6.4688516E0,4.9253306E-1,1.9829915E-1,7.776447E-1,1.0167935E0,1.3460319E0,-7.46726E-1,-5.3092283E-1,-3.8923204E-1,-2.2016624E-1,-2.9393566E-1,-1.560552E-1,-8.1583194E-2,8.83692E-3,4.1252002E-2,1.5739891E-1,3.2838252E-1,5.30426E-2],"categories":[],"categories_nodes":[],"categories_segments":[],"categories_sizes":[],"default_left":[0,0,0,0,0,0,0,0,0,0,0,0,0,0,0,0,0,0,0,0,0,0,0,0,0,0,0,0,0,0,0,0,0,0,0,0,0,0,0,0,0],"id":16,"left_children":[1,3,5,7,9,11,13,15,17,19,21,23,25,27,-1,-1,-1,-1,29,31,33,35,37,39,-1,-1,-1,-1,-1,-1,-1,-1,-1,-1,-1,-1,-1,-1,-1,-1,-1],"loss_changes":[1.7702744E5,3.5719547E4,2.395004E4,8.0287188E3,4.187492E3,1.5620996E3,1.8267656E3,8.6785156E2,9.463047E2,2.9436377E2,4.867757E2,2.5554883E2,1.5451562E2,2.91E2,0E0,0E0,0E0,0E0,8.3740234E1,1.5928223E1,6.744934E1,6.1306217E1,9.121704E1,1.7076538E1,0E0,0E0,0E0,0E0,0E0,0E0,0E0,0E0,0E0,0E0,0E0,0E0,0E0,0E0,0E0,0E0,0E0],"parents":[2147483647,0,0,1,1,2,2,3,3,4,4,5,5,6,6,7,7,8,8,9,9,10,10,11,11,12,12,13,13,18,18,19,19,20,20,21,21,22,22,23,23],"right_children":[2,4,6,8,10,12,14,16,18,20,22,24,26,28,-1,-1,-1,-1,30,32,34,36,38,40,-1,-1,-1,-1,-1,-1,-1,-1,-1,-1,-1,-1,-1,-1,-1,-1,-1],"split_conditions":[1.7642387E2,1.4534811E2,2.0930554E2,1.2383021E2,1.5935553E2,1.9626492E2,2.3658928E2,1.1024149E2,1.3618513E2,1.5554381E2,1.7095218E2,1.8300981E2,-5.641909E-2,2.167182E2,1.7944611E0,-1.4781184E0,-1.0567602E0,-7.905927E-1,-3.390509E-2,2.5083033E-2,-1.2154121E-2,1.6367259E2,-1.2317011E-2,1.8645549E2,4.9253306E-1,1.9829915E-1,7.776447E-1,1.0167935E0,1.3460319E0,-7.46726E-1,-5.3092283E-1,-3.8923204E-1,-2.2016624E-1,-2.9393566E-1,-1.560552E-1,-8.1583194E-2,8.83692E-3,4.1252002E-2,1.5739891E-1,3.2838252E-1,5.30426E-2],"split_indices":[2,2,2,2,2,1,2,0,1,1,1,2,6,2,0,0,0,0,6,6,6,2,6,0,0,0,0,0,0,0,0,0,0,0,0,0,0,0,0,0,0],"split_type":[0,0,0,0,0,0,0,0,0,0,0,0,0,0,0,0,0,0,0,0,0,0,0,0,0,0,0,0,0,0,0,0,0,0,0,0,0,0,0,0,0],"sum_hessian":[9.8E2,6.45E2,3.35E2,3.43E2,3.02E2,1.81E2,1.54E2,1.27E2,2.16E2,1.18E2,1.84E2,1.24E2,5.7E1,1.24E2,3E1,2.3E1,1.04E2,7.3E1,1.43E2,7.1E1,4.7E1,7.5E1,1.09E2,4.4E1,8E1,2E0,5.5E1,2.7E1,9.7E1,1.1E1,1.32E2,6.5E1,6E0,1.6E1,3.1E1,3.2E1,4.3E1,2.2E1,8.7E1,4.3E1,1E0],"tree_param":{"num_deleted":"0","num_feature":"8","num_nodes":"41","size_leaf_vector":"1"}},{"base_weights":[2.1881883E-1,-9.195818E0,1.829761E1,-1.6791567E1,-2.3682423E0,1.1245448E1,2.7108362E1,-2.121158E1,-1.2291735E1,-6.4603095E0,1.1836442E0,8.320723E0,1.5619085E1,2.5185047E1,1.8078194E0,-1.262954E0,-9.32049E-1,-6.9642764E-1,-1.0540764E1,-7.906001E0,-4.3881087E0,-3.9979455E-1,2.7543557E0,3.1326088E-1,9.402695E0,1.3025248E1,8.7815315E-1,2.5296083E1,2.7986526E-1,-1.5005341E-1,-5.299476E-1,-4.3127438E-1,-3.4543607E-1,-2.646825E-1,-1.6915332E-1,-8.195688E-2,1.0819341E-2,7.8938335E-2,1.7025274E-1,4.7380787E-1,1.00998305E-1,6.5921074E-1,1.8653527E-1,1.0854485E0,1.3299186E0],"categories":[],"categories_nodes":[],"categories_segments":[],"categories_sizes":[],"default_left":[0,0,0,0,0,0,0,0,0,0,0,0,0,0,0,0,0,0,0,0,0,0,0,0,0,0,0,0,0,0,0,0,0,0,0,0,0,0,0,0,0,0,0,0,0],"id":17,"left_children":[1,3,5,7,9,11,13,15,17,19,21,23,25,27,-1,-1,-1,-1,29,31,33,35,37,-1,39,41,-1,43,-1,-1,-1,-1,-1,-1,-1,-1,-1,-1,-1,-1,-1,-1,-1,-1,-1],"loss_changes":[1.6850127E5,3.3721453E4,2.0758867E4,5.8651797E3,5.007535E3,2.300457E3,1.6997188E3,1.1314453E3,2.9741602E2,4.446294E2,4.612194E2,1.9907324E2,1.4941406E2,1.3463281E2,0E0,0E0,0E0,0E0,2.8496094E0,7.13916E0,4.3978516E1,7.1375084E1,6.5765015E1,0E0,2.0993164E1,4.004883E0,0E0,1.11796875E1,0E0,0E0,0E0,0E0,0E0,0E0,0E0,0E0,0E0,0E0,0E0,0E0,0E0,0E0,0E0,0E0,0E0],"parents":[2147483647,0,0,1,1,2,2,3,3,4,4,5,5,6,6,7,7,8,8,9,9,10,10,11,11,12,12,13,13,18,18,19,19,20,20,21,21,22,22,24,24,25,25,27,27],"right_children":[2,4,6,8,10,12,14,16,18,20,22,24,26,28,-1,-1,-1,-1,30,32,34,36,38,-1,40,42,-1,44,-1,-1,-1,-1,-1,-1,-1,-1,-1,-1,-1,-1,-1,-1,-1,-1,-1],"split_conditions":[1.7642387E2,1.4499184E2,2.1495811E2,1.2864917E2,1.5935553E2,1.945026E2,2.4277437E2,1.1340151E2,1.3869185E2,1.521145E2,1.7069212E2,1.8300981E2,2.0392E2,1.8437506E1,1.8078194E0,-1.262954E0,-9.32049E-1,-6.9642764E-1,1.3528952E2,1.4812132E2,1.5673155E2,1.6451503E2,1.7249153E2,3.1326088E-1,1.977E2,2.0855067E2,8.7815315E-1,2.2205151E2,2.7986526E-1,-1.5005341E-1,-5.299476E-1,-4.3127438E-1,-3.4543607E-1,-2.646825E-1,-1.6915332E-1,-8.195688E-2,1.0819341E-2,7.8938335E-2,1.7025274E-1,4.7380787E-1,1.00998305E-1,6.5921074E-1,1.8653527E-1,1.0854485E0,1.3299186E0],"split_indices":[2,3,3,3,2,3,3,2,3,3,3,2,3,7,0,0,0,0,0,3,3,3,3,0,1,5,0,2,0,0,0,0,0,0,0,0,0,0,0,0,0,0,0,0,0],"split_type":[0,0,0,0,0,0,0,0,0,0,0,0,0,0,0,0,0,0,0,0,0,0,0,0,0,0,0,0,0,0,0,0,0,0,0,0,0,0,0,0,0,0,0,0,0],"sum_hessian":[9.88E2,6.5E2,3.38E2,3.07E2,3.43E2,1.89E2,1.49E2,1.53E2,1.54E2,1.59E2,1.84E2,1.15E2,7.4E1,1.26E2,2.3E1,5.6E1,9.7E1,7.6E1,7.8E1,9.2E1,6.7E1,9.2E1,9.2E1,4.2E1,7.3E1,3.5E1,3.9E1,1.25E2,1E0,1E0,7.7E1,4.9E1,4.3E1,3.3E1,3.4E1,3E1,6.2E1,3.4E1,5.8E1,7.2E1,1E0,3.4E1,1E0,3.8E1,8.7E1],"tree_param":{"num_deleted":"0","num_feature":"8","num_nodes":"45","size_leaf_vector":"1"}},{"base_weights":[-1.732107E-1,-8.576866E0,1.741275E1,-1.6660444E1,-2.7078395E0,1.0564021E1,2.5900301E1,-2.1104113E1,-1.3156275E1,-6.7364435E0,1.2335888E0,8.39101E0,1.5653726E1,1.1902355E0,1.6385593E0,-1.3780377E0,-9.7987217E-1,-1.4810608E1,-5.494408E-1,-8.244823E0,-4.5572767E0,-4.0396154E-1,2.5238423E0,6.0618196E0,9.5253935E0,1.818718E-1,7.907429E-1,-7.469733E-1,-8.677788E-2,-4.3576708E-1,-3.4129068E-1,-2.834257E-1,-1.7821923E-1,-7.378646E-2,8.300872E-3,8.518925E-2,1.6158132E-1,8.7213136E-2,3.1110358E-1,9.847336E-2,4.7959495E-1],"categories":[],"categories_nodes":[],"categories_segments":[],"categories_sizes":[],"default_left":[0,0,0,0,0,0,0,0,0,0,0,0,0,0,0,0,0,0,0,0,0,0,0,0,0,0,0,0,0,0,0,0,0,0,0,0,0,0,0,0,0],"id":18,"left_children":[1,3,5,7,9,11,13,15,17,19,21,23,25,-1,-1,-1,-1,27,-1,29,31,33,35,37,39,-1,-1,-1,-1,-1,-1,-1,-1,-1,-1,-1,-1,-1,-1,-1,-1],"loss_changes":[1.480835E5,3.212105E4,1.8560164E4,4.1601875E3,6.264421E3,1.8705078E3,1.2932969E3,6.6615234E2,4.181328E2,6.0339355E2,4.2359055E2,2.8310254E2,4.5092773E1,0E0,0E0,0E0,0E0,1.24021484E2,0E0,1.6625E1,7.026904E1,5.4613758E1,5.9501465E1,2.028247E1,2.3822266E1,0E0,0E0,0E0,0E0,0E0,0E0,0E0,0E0,0E0,0E0,0E0,0E0,0E0,0E0,0E0,0E0],"parents":[2147483647,0,0,1,1,2,2,3,3,4,4,5,5,6,6,7,7,8,8,9,9,10,10,11,11,12,12,17,17,19,19,20,20,21,21,22,22,23,23,24,24],"right_children":[2,4,6,8,10,12,14,16,18,20,22,24,26,-1,-1,-1,-1,28,-1,30,32,34,36,38,40,-1,-1,-1,-1,-1,-1,-1,-1,-1,-1,-1,-1,-1,-1,-1,-1],"split_conditions":[1.8143137E2,1.4258252E2,2.1495811E2,1.2441184E2,1.6172432E2,2.0074E2,2.3901343E2,1.10309654E2,1.340242E2,1.5059009E2,1.6979236E2,1.8742348E2,-5.641909E-2,1.1902355E0,1.6385593E0,-1.3780377E0,-9.7987217E-1,1.3671208E2,-5.494408E-1,1.4729453E2,1.524392E2,1.6451503E2,1.7271597E2,-3.5786603E-2,-5.641909E-2,1.818718E-1,7.907429E-1,-7.469733E-1,-8.677788E-2,-4.3576708E-1,-3.4129068E-1,-2.834257E-1,-1.7821923E-1,-7.378646E-2,8.300872E-3,8.518925E-2,1.6158132E-1,8.7213136E-2,3.1110358E-1,9.847336E-2,4.7959495E-1],"split_indices":[1,3,3,3,3,1,3,1,3,3,3,1,6,0,0,0,0,0,0,3,2,3,3,6,6,0,0,0,0,0,0,0,0,0,0,0,0,0,0,0,0],"split_type":[0,0,0,0,0,0,0,0,0,0,0,0,0,0,0,0,0,0,0,0,0,0,0,0,0,0,0,0,0,0,0,0,0,0,0,0,0,0,0,0,0],"sum_hessian":[1E3,6.77E2,3.23E2,2.84E2,3.93E2,1.8E2,1.43E2,1.23E2,1.61E2,1.94E2,1.99E2,1.28E2,5.2E1,1.13E2,3E1,2E1,1.03E2,8.8E1,7.3E1,1.13E2,8.1E1,8.8E1,1.11E2,4.4E1,8.4E1,1E0,5.1E1,8.7E1,1E0,8.1E1,3.2E1,3.6E1,4.5E1,3E1,5.8E1,5.3E1,5.8E1,2E0,4.2E1,1E0,8.3E1],"tree_param":{"num_deleted":"0","num_feature":"8","num_nodes":"41","size_leaf_vector":"1"}},{"base_weights":[1.5969852E-1,-1.0357018E1,1.3193482E1,-1.754903E1,-5.602989E0,6.5306315E0,2.2422415E1,-2.326476E1,-1.540755E1,-8.292486E0,-1.4040467E0,3.6633408E0,9.767435E0,1.905039E1,2.7314154E1,-1.5603446E0,-1.0684941E0,-8.2899773E-1,-6.5299606E-1,-4.8291704E-1,-6.964017E0,-3.8359287E0,-2.6621038E-1,2.2733479E0,5.2322044E0,7.4544683E0,5.6089294E-1,8.242628E-1,1.0365243E0,1.2364236E0,1.5986235E0,-3.8552937E-1,-3.0589882E-1,-9.668683E-2,-2.1849672E-1,-7.344559E-2,9.326605E-3,1.1976814E-1,2.253062E-2,2.219884E-1,3.161256E-1,3.79428E-1,1.412089E-1],"categories":[],"categories_nodes":[],"categories_segments":[],"categories_sizes":[],"default_left":[0,0,0,0,0,0,0,0,0,0,0,0,0,0,0,0,0,0,0,0,0,0,0,0,0,0,0,0,0,0,0,0,0,0,0,0,0,0,0,0,0,0,0],"id":19,"left_children":[1,3,5,7,9,11,13,15,17,19,21,23,25,27,29,-1,-1,-1,-1,-1,31,33,35,37,39,41,-1,-1,-1,-1,-1,-1,-1,-1,-1,-1,-1,-1,-1,-1,-1,-1,-1],"loss_changes":[1.3720925E5,1.8843512E4,2.7340055E4,2.334375E3,3.7715273E3,2.3865225E3,2.5642266E3,2.0597656E2,2.3210156E2,3.028955E2,3.642339E2,2.9340454E2,3.2565918E2,1.4955469E2,1.0069141E2,0E0,0E0,0E0,0E0,0E0,2.0411133E1,3.4212524E1,4.9824768E1,1.582312E1,2.8089355E1,9.613037E0,0E0,0E0,0E0,0E0,0E0,0E0,0E0,0E0,0E0,0E0,0E0,0E0,0E0,0E0,0E0,0E0,0E0],"parents":[2147483647,0,0,1,1,2,2,3,3,4,4,5,5,6,6,7,7,8,8,9,9,10,10,11,11,12,12,13,13,14,14,20,20,21,21,22,22,23,23,24,24,25,25],"right_children":[2,4,6,8,10,12,14,16,18,20,22,24,26,28,30,-1,-1,-1,-1,-1,32,34,36,38,40,42,-1,-1,-1,-1,-1,-1,-1,-1,-1,-1,-1,-1,-1,-1,-1,-1,-1],"split_conditions":[1.7069212E2,1.3566304E2,2.0392E2,1.15914E2,1.543143E2,1.8457678E2,2.274613E2,1.0001133E2,1.27576126E2,1.4471825E2,1.6060759E2,1.7450053E2,1.9017062E2,2.1722412E2,2.4277437E2,-1.5603446E0,-1.0684941E0,-8.2899773E-1,-6.5299606E-1,-4.8291704E-1,1.4812132E2,6.80341E7,1.6391977E2,1.7593846E2,1.8134135E2,1.212516E8,5.6089294E-1,8.242628E-1,1.0365243E0,1.2364236E0,1.5986235E0,-3.8552937E-1,-3.0589882E-1,-9.668683E-2,-2.1849672E-1,-7.344559E-2,9.326605E-3,1.1976814E-1,2.253062E-2,2.219884E-1,3.161256E-1,3.79428E-1,1.412089E-1],"split_indices":[3,3,3,3,3,0,3,0,2,3,0,2,3,3,3,0,0,0,0,0,3,4,3,0,3,4,0,0,0,0,0,0,0,0,0,0,0,0,0,0,0,0,0],"split_type":[0,0,0,0,0,0,0,0,0,0,0,0,0,0,0,0,0,0,0,0,0,0,0,0,0,0,0,0,0,0,0,0,0,0,0,0,0,0,0,0,0,0,0],"sum_hessian":[9.99E2,5.53E2,4.46E2,2.19E2,3.34E2,2.6E2,1.86E2,5.7E1,1.62E2,2.03E2,1.31E2,1.39E2,1.21E2,1.13E2,7.3E1,8E0,4.9E1,1.04E2,5.8E1,9.7E1,1.06E2,4.1E1,9E1,7.5E1,6.4E1,4.9E1,7.2E1,4.9E1,6.4E1,5.1E1,2.2E1,5.2E1,5.4E1,1E1,3.1E1,2.4E1,6.6E1,7E1,5E0,4E1,2.4E1,4.7E1,2E0],"tree_param":{"num_deleted":"0","num_feature":"8","num_nodes":"43","size_leaf_vector":"1"}},{"base_weights":[1.0019961E-1,-8.14375E0,1.4893862E1,-1.49703E1,-2.473474E0,8.238877E0,2.1993597E1,-1.8514149E1,-1.0696359E1,-6.2054086E0,8.415542E-1,6.2863307E0,1.1148963E1,1.9500166E1,1.4308167E0,-1.477541E0,-1.7587543E1,-5.852145E-1,-9.207777E0,-7.1141915E0,-4.138293E0,-1.4176413E0,1.6311193E0,4.4679136E0,7.375921E0,4.754466E-1,1.2088327E1,8.0047053E-1,1.0429319E0,-9.817649E-1,-7.905752E-1,-1.20493315E-1,-4.641075E-1,-3.574241E-1,-7.927094E-2,-2.3467611E-1,-1.1083358E-1,-4.70003E-2,-1.4259097E-1,5.549596E-2,1.4439899E-1,-4.817009E-3,2.394295E-1,3.7142223E-1,9.248123E-2,6.108771E-1,1.6330262E-1],"categories":[],"categories_nodes":[],"categories_segments":[],"categories_sizes":[],"default_left":[0,0,0,0,0,0,0,0,0,0,0,0,0,0,0,0,0,0,0,0,0,0,0,0,0,0,0,0,0,0,0,0,0,0,0,0,0,0,0,0,0,0,0,0,0,0,0],"id":20,"left_children":[1,3,5,7,9,11,13,15,17,19,21,23,25,27,-1,-1,29,-1,31,33,35,37,39,41,43,-1,45,-1,-1,-1,-1,-1,-1,-1,-1,-1,-1,-1,-1,-1,-1,-1,-1,-1,-1,-1,-1],"loss_changes":[1.243967E5,2.5316988E4,1.7064547E4,4.3003906E3,4.446579E3,1.0095088E3,2.3483281E3,1.1267617E3,9.77832E1,2.8803564E2,3.4301465E2,1.968789E2,5.9765625E-1,2.8728125E2,0E0,0E0,2.3871094E2,0E0,7.9658203E0,1.0658691E1,4.7210815E1,3.1569984E1,8.981531E1,6.7789246E1,6.8688965E0,0E0,1.0254395E1,0E0,0E0,0E0,0E0,0E0,0E0,0E0,0E0,0E0,0E0,0E0,0E0,0E0,0E0,0E0,0E0,0E0,0E0,0E0,0E0],"parents":[2147483647,0,0,1,1,2,2,3,3,4,4,5,5,6,6,7,7,8,8,9,9,10,10,11,11,12,12,13,13,16,16,18,18,19,19,20,20,21,21,22,22,23,23,24,24,26,26],"right_children":[2,4,6,8,10,12,14,16,18,20,22,24,26,28,-1,-1,30,-1,32,34,36,38,40,42,44,-1,46,-1,-1,-1,-1,-1,-1,-1,-1,-1,-1,-1,-1,-1,-1,-1,-1,-1,-1,-1,-1],"split_conditions":[1.763902E2,1.4357025E2,2.0542928E2,1.2864917E2,1.5710944E2,1.9170064E2,2.3417685E2,1.0001133E2,1.3869185E2,1.521145E2,1.6596956E2,1.8300981E2,1.958597E2,2.2004651E2,1.4308167E0,-1.477541E0,1.1612824E2,-5.852145E-1,1.3528952E2,1.501858E8,1.163079E8,8.34772E7,1.7271597E2,1.7450053E2,1.212516E8,4.754466E-1,2.1777443E2,8.0047053E-1,1.0429319E0,-9.817649E-1,-7.905752E-1,-1.20493315E-1,-4.641075E-1,-3.574241E-1,-7.927094E-2,-2.3467611E-1,-1.1083358E-1,-4.70003E-2,-1.4259097E-1,5.549596E-2,1.4439899E-1,-4.817009E-3,2.394295E-1,3.7142223E-1,9.248123E-2,6.108771E-1,1.6330262E-1],"split_indices":[5,3,2,3,2,3,3,0,3,3,3,0,5,3,0,0,2,0,0,4,4,4,3,2,4,0,5,0,0,0,0,0,0,0,0,0,0,0,0,0,0,0,0,0,0,0,0],"split_type":[0,0,0,0,0,0,0,0,0,0,0,0,0,0,0,0,0,0,0,0,0,0,0,0,0,0,0,0,0,0,0,0,0,0,0,0,0,0,0,0,0,0,0,0,0,0,0],"sum_hessian":[1.018E3,6.54E2,3.64E2,2.96E2,3.58E2,1.89E2,1.75E2,1.6E2,1.36E2,1.68E2,1.9E2,1.15E2,7.4E1,1.3E2,4.5E1,1E1,1.5E2,7.7E1,5.9E1,1.15E2,5.3E1,4.9E1,1.41E2,4.5E1,7E1,3.1E1,4.3E1,4E1,9E1,6.5E1,8.5E1,1E0,5.8E1,1.14E2,1E0,4E1,1.3E1,3.8E1,1.1E1,1.01E2,4E1,3E0,4.2E1,6.9E1,1E0,4.2E1,1E0],"tree_param":{"num_deleted":"0","num_feature":"8","num_nodes":"47","size_leaf_vector":"1"}},{"base_weights":[7.172635E-3,-7.1804767E0,1.50238085E1,-1.2888861E1,-1.1399729E0,7.8375187E0,2.0627115E1,-1.7203485E1,-9.43304E0,-4.663823E0,1.2506123E0,6.0124245E0,4.9226385E-1,1.7789625E1,1.2916051E0,-1.0728415E0,-7.5966E-1,-5.6640726E-1,-4.0558004E-1,-5.854388E0,-2.952807E0,-2.2384104E-1,2.2733006E0,6.110241E0,-3.798599E-2,1.5211973E1,9.75587E-1,-2.9696953E-1,-8.74761E-2,2.58667E-3,-1.5902704E-1,-5.2005686E-2,2.1879612E-2,7.762881E-2,1.6959791E-1,2.3651472E-1,3.4452066E-1,1.830143E-1,7.6818657E-1],"categories":[],"categories_nodes":[],"categories_segments":[],"categories_sizes":[],"default_left":[0,0,0,0,0,0,0,0,0,0,0,0,0,0,0,0,0,0,0,0,0,0,0,0,0,0,0,0,0,0,0,0,0,0,0,0,0,0,0],"id":21,"left_children":[1,3,5,7,9,11,13,15,17,19,21,23,-1,25,-1,-1,-1,-1,-1,27,29,31,33,35,-1,37,-1,-1,-1,-1,-1,-1,-1,-1,-1,-1,-1,-1,-1],"loss_changes":[1.0836599E5,2.3398262E4,1.2925102E4,5.041508E3,2.7941975E3,4.6847266E2,2.2284297E3,9.9076953E2,3.9894727E2,2.556814E2,2.9907434E2,5.6311523E1,0E0,2.403125E2,0E0,0E0,0E0,0E0,0E0,1.6824951E1,3.9165955E1,4.4727757E1,8.906421E1,5.03042E1,0E0,3.6676758E1,0E0,0E0,0E0,0E0,0E0,0E0,0E0,0E0,0E0,0E0,0E0,0E0,0E0],"parents":[2147483647,0,0,1,1,2,2,3,3,4,4,5,5,6,6,7,7,8,8,9,9,10,10,11,11,13,13,19,19,20,20,21,21,22,22,23,23,25,25],"right_children":[2,4,6,8,10,12,14,16,18,20,22,24,-1,26,-1,-1,-1,-1,-1,28,30,32,34,36,-1,38,-1,-1,-1,-1,-1,-1,-1,-1,-1,-1,-1,-1,-1],"split_conditions":[1.8018181E2,1.4534811E2,2.0392E2,1.2864917E2,1.6222517E2,1.9001137E2,2.2930684E2,1.1133402E2,1.3869185E2,1.538717E2,1.6961781E2,1.8879741E2,4.9226385E-1,2.167182E2,1.2916051E0,-1.0728415E0,-7.5966E-1,-5.6640726E-1,-4.0558004E-1,3.079095E-2,1.5332072E2,1.6596956E2,1.7478806E2,1.8389935E2,-3.798599E-2,-3.6734242E-2,9.75587E-1,-2.9696953E-1,-8.74761E-2,2.58667E-3,-1.5902704E-1,-5.2005686E-2,2.1879612E-2,7.762881E-2,1.6959791E-1,2.3651472E-1,3.4452066E-1,1.830143E-1,7.6818657E-1],"split_indices":[0,2,3,3,3,3,3,2,3,3,3,2,0,2,0,0,0,0,0,6,0,3,3,0,0,6,0,0,0,0,0,0,0,0,0,0,0,0,0],"split_type":[0,0,0,0,0,0,0,0,0,0,0,0,0,0,0,0,0,0,0,0,0,0,0,0,0,0,0,0,0,0,0,0,0,0,0,0,0,0,0],"sum_hessian":[1.002E3,6.78E2,3.24E2,3.48E2,3.3E2,1.43E2,1.81E2,1.53E2,1.95E2,1.33E2,1.97E2,7.7E1,6.6E1,1.2E2,6.1E1,4.6E1,1.07E2,7.7E1,1.18E2,7.7E1,5.6E1,8.1E1,1.16E2,7.6E1,1E0,5.2E1,6.8E1,7.5E1,2E0,4E0,5.2E1,3.6E1,4.5E1,7.2E1,4.4E1,3E1,4.6E1,1E0,5.1E1],"tree_param":{"num_deleted":"0","num_feature":"8","num_nodes":"39","size_leaf_vector":"1"}},{"base_weights":[-8.165454E-2,-8.899015E0,1.1319588E1,-1.4541935E1,-4.40687E0,5.5057225E0,1.9519522E1,-1.8430145E1,-1.2259703E1,-6.4948983E0,-8.891569E-1,3.0598853E0,8.557536E0,7.9815525E-1,2.2670488E1,-1.3061584E0,-8.673916E-1,-6.927949E-1,-5.527661E-1,-7.3333387E0,-4.9607105E0,-2.1353297E0,2.1288529E-1,2.2550778E0,4.922401E0,3.5453758E-1,1.000166E1,1.0513481E0,1.4342232E0,-3.686243E-1,-6.29551E-2,-2.5143477E-1,-3.3439638E-3,-4.317566E-2,-1.3912898E-1,2.6091344E-3,8.654315E-2,9.30584E-2,1.5422569E-1,2.5833476E-1,1.481416E-1,8.155594E-2,5.06441E-1],"categories":[],"categories_nodes":[],"categories_segments":[],"categories_sizes":[],"default_left":[0,0,0,0,0,0,0,0,0,0,0,0,0,0,0,0,0,0,0,0,0,0,0,0,0,0,0,0,0,0,0,0,0,0,0,0,0,0,0,0,0,0,0],"id":22,"left_children":[1,3,5,7,9,11,13,15,17,19,21,23,25,-1,27,-1,-1,-1,-1,29,31,33,35,37,39,-1,41,-1,-1,-1,-1,-1,-1,-1,-1,-1,-1,-1,-1,-1,-1,-1,-1],"loss_changes":[9.9121664E4,1.4029855E4,2.0392055E4,1.9570078E3,2.278546E3,1.8622671E3,1.6328047E3,2.8785742E2,1.505625E2,2.1445508E2,1.6113477E2,2.0175293E2,1.6632129E2,0E0,3.061914E2,0E0,0E0,0E0,0E0,2.0203613E1,2.3618652E1,4.287227E1,1.5278086E1,2.725824E1,4.7977295E0,0E0,4.0956055E1,0E0,0E0,0E0,0E0,0E0,0E0,0E0,0E0,0E0,0E0,0E0,0E0,0E0,0E0,0E0,0E0],"parents":[2147483647,0,0,1,1,2,2,3,3,4,4,5,5,6,6,7,7,8,8,9,9,10,10,11,11,12,12,14,14,19,19,20,20,21,21,22,22,23,23,24,24,26,26],"right_children":[2,4,6,8,10,12,14,16,18,20,22,24,26,-1,28,-1,-1,-1,-1,30,32,34,36,38,40,-1,42,-1,-1,-1,-1,-1,-1,-1,-1,-1,-1,-1,-1,-1,-1,-1,-1],"split_conditions":[1.6979236E2,1.3869185E2,2.0392E2,1.197166E2,1.562769E2,1.8587743E2,2.2604543E2,1.0001133E2,1.2862384E2,1.4812132E2,1.6391977E2,1.7825804E2,1.9408234E2,7.9815525E-1,2.445493E2,-1.3061584E0,-8.673916E-1,-6.927949E-1,-5.527661E-1,1.5137611E2,1.5757643E2,7.23481E7,9.88447E7,1.7554242E2,7.05558E7,3.5453758E-1,1.8833086E2,1.0513481E0,1.4342232E0,-3.686243E-1,-6.29551E-2,-2.5143477E-1,-3.3439638E-3,-4.317566E-2,-1.3912898E-1,2.6091344E-3,8.654315E-2,9.30584E-2,1.5422569E-1,2.5833476E-1,1.481416E-1,8.155594E-2,5.06441E-1],"split_indices":[3,3,3,3,3,1,3,0,1,3,3,3,1,0,3,0,0,0,0,5,5,4,4,3,4,0,3,0,0,0,0,0,0,0,0,0,0,0,0,0,0,0,0],"split_type":[0,0,0,0,0,0,0,0,0,0,0,0,0,0,0,0,0,0,0,0,0,0,0,0,0,0,0,0,0,0,0,0,0,0,0,0,0,0,0,0,0,0,0],"sum_hessian":[9.84E2,5.55E2,4.29E2,2.45E2,3.1E2,2.52E2,1.77E2,8.8E1,1.57E2,1.94E2,1.16E2,1.41E2,1.11E2,8.6E1,9.1E1,8E0,8E1,6.3E1,9.4E1,1.23E2,7.1E1,5.4E1,6.2E1,1E2,4.1E1,5.8E1,5.3E1,7.5E1,1.6E1,1.22E2,1E0,7E1,1E0,1.9E1,3.5E1,5.7E1,5E0,7E1,3E1,3.5E1,6E0,1E0,5.2E1],"tree_param":{"num_deleted":"0","num_feature":"8","num_nodes":"43","size_leaf_vector":"1"}},{"base_weights":[-4.5062613E-2,-7.336007E0,1.1911448E1,-1.3759651E1,-3.1898935E0,6.357804E0,1.871242E1,-1.8033974E1,-1.1766149E1,-6.241022E0,-1.3804917E-1,4.5788527E0,9.110378E0,1.6448168E1,1.1764344E0,-1.2851827E0,-8.4499055E-1,-6.5515876E-1,-4.9934354E-1,-3.526295E-1,-4.9268093E0,-1.6825473E0,1.0818121E0,2.7879477E0,5.473138E0,3.8726488E-1,5.225936E-1,1.2898097E1,8.789838E-1,-7.202632E-2,-2.500285E-1,-1.3254641E-1,-4.6614733E-2,2.6736518E-2,8.0461234E-2,6.6488005E-2,1.8389313E-1,2.790411E-1,9.2174344E-2,6.5367174E-1,1.8218194E-1],"categories":[],"categories_nodes":[],"categories_segments":[],"categories_sizes":[],"default_left":[0,0,0,0,0,0,0,0,0,0,0,0,0,0,0,0,0,0,0,0,0,0,0,0,0,0,0,0,0,0,0,0,0,0,0,0,0,0,0,0,0],"id":23,"left_children":[1,3,5,7,9,11,13,15,17,19,21,23,25,27,-1,-1,-1,-1,-1,-1,29,31,33,35,37,-1,-1,39,-1,-1,-1,-1,-1,-1,-1,-1,-1,-1,-1,-1,-1],"loss_changes":[8.883076E4,1.6814898E4,1.446032E4,1.9009883E3,3.593404E3,1.00617773E3,1.4996055E3,2.3541016E2,2.7831836E2,1.7110254E2,3.6733047E2,1.961499E2,7.104053E1,2.5930078E2,0E0,0E0,0E0,0E0,0E0,0E0,1.2597046E1,6.0010178E1,3.059011E1,5.480182E1,2.3716064E1,0E0,0E0,5.913086E0,0E0,0E0,0E0,0E0,0E0,0E0,0E0,0E0,0E0,0E0,0E0,0E0,0E0],"parents":[2147483647,0,0,1,1,2,2,3,3,4,4,5,5,6,6,7,7,8,8,9,9,10,10,11,11,12,12,13,13,20,20,21,21,22,22,23,23,24,24,27,27],"right_children":[2,4,6,8,10,12,14,16,18,20,22,24,26,28,-1,-1,-1,-1,-1,-1,30,32,34,36,38,-1,-1,40,-1,-1,-1,-1,-1,-1,-1,-1,-1,-1,-1,-1,-1],"split_conditions":[1.7389975E2,1.3930551E2,2.080968E2,1.18202324E2,1.5562442E2,1.9001137E2,2.323096E2,1.0001133E2,1.27576126E2,1.4729453E2,1.6661226E2,1.7947307E2,1.9477908E2,2.1722412E2,1.1764344E0,-1.2851827E0,-8.4499055E-1,-6.5515876E-1,-4.9934354E-1,-3.526295E-1,1.4403313E2,1.6060759E2,1.7069212E2,1.7554242E2,1.212516E8,3.8726488E-1,5.225936E-1,2.1815315E2,8.789838E-1,-7.202632E-2,-2.500285E-1,-1.3254641E-1,-4.6614733E-2,2.6736518E-2,8.0461234E-2,6.6488005E-2,1.8389313E-1,2.790411E-1,9.2174344E-2,6.5367174E-1,1.8218194E-1],"split_indices":[5,3,3,3,3,3,3,0,2,3,3,0,0,3,0,0,0,0,0,0,5,0,3,3,4,0,0,0,0,0,0,0,0,0,0,0,0,0,0,0,0],"split_type":[0,0,0,0,0,0,0,0,0,0,0,0,0,0,0,0,0,0,0,0,0,0,0,0,0,0,0,0,0,0,0,0,0,0,0,0,0,0,0,0,0],"sum_hessian":[1.017E3,6.32E2,3.85E2,2.47E2,3.85E2,2.13E2,1.72E2,7.6E1,1.71E2,1.92E2,1.93E2,1.31E2,8.2E1,1.2E2,5.2E1,7E0,6.9E1,9.4E1,7.7E1,1.16E2,7.6E1,8.5E1,1.08E2,4.5E1,8.6E1,4.4E1,3.8E1,3.2E1,8.8E1,2E0,7.4E1,3.6E1,4.9E1,5.4E1,5.4E1,1.8E1,2.7E1,8.3E1,3E0,3.1E1,1E0],"tree_param":{"num_deleted":"0","num_feature":"8","num_nodes":"41","size_leaf_vector":"1"}},{"base_weights":[5.7298973E-2,-6.971546E0,1.2209998E1,-1.2420004E1,-2.5093904E0,7.0992055E0,1.9142689E1,-1.5833228E1,-9.908058E0,-5.053031E0,4.709847E-1,4.6215987E0,9.53362E0,8.7366456E-1,1.2309479E0,-1.1278485E0,-7.4386424E-1,-1.1115638E1,-8.223894E0,-6.028544E0,-2.9908295E0,-1.0211971E0,1.2614836E0,3.475237E0,5.7036037E0,8.265756E0,5.952816E-1,-5.614138E-1,-1.3190079E-2,-4.1404185E-1,-1.0167732E-1,-6.243057E-2,-3.0472532E-1,-2.2452044E-1,-1.2555653E-1,-4.5012597E-2,-1.9485322E-1,-1.8994743E-2,7.988581E-2,4.6366204E-2,1.944597E-1,5.0463146E-1,2.7151826E-1,3.132948E-1,4.3374643E-1],"categories":[],"categories_nodes":[],"categories_segments":[],"categories_sizes":[],"default_left":[0,0,0,0,0,0,0,0,0,0,0,0,0,0,0,0,0,0,0,0,0,0,0,0,0,0,0,0,0,0,0,0,0,0,0,0,0,0,0,0,0,0,0,0,0],"id":24,"left_children":[1,3,5,7,9,11,13,15,17,19,21,23,25,-1,-1,-1,-1,27,29,31,33,35,37,39,41,43,-1,-1,-1,-1,-1,-1,-1,-1,-1,-1,-1,-1,-1,-1,-1,-1,-1,-1,-1],"loss_changes":[8.601708E4,1.5479807E4,1.2938344E4,2.3038125E3,2.6708928E3,1.2466855E3,9.959922E2,4.3571484E2,2.5025781E2,3.6419336E2,1.9355782E2,1.1413843E2,2.2338184E2,0E0,0E0,0E0,0E0,1.1316016E2,9.245117E0,3.2748535E1,3.4042847E1,1.6317532E1,5.965866E1,5.4403442E1,9.953003E0,5.378418E0,0E0,0E0,0E0,0E0,0E0,0E0,0E0,0E0,0E0,0E0,0E0,0E0,0E0,0E0,0E0,0E0,0E0,0E0,0E0],"parents":[2147483647,0,0,1,1,2,2,3,3,4,4,5,5,6,6,7,7,8,8,9,9,10,10,11,11,12,12,17,17,18,18,19,19,20,20,21,21,22,22,23,23,24,24,25,25],"right_children":[2,4,6,8,10,12,14,16,18,20,22,24,26,-1,-1,-1,-1,28,30,32,34,36,38,40,42,44,-1,-1,-1,-1,-1,-1,-1,-1,-1,-1,-1,-1,-1,-1,-1,-1,-1,-1,-1],"split_conditions":[1.7708815E2,1.4258252E2,2.1495811E2,1.25018585E2,1.6172432E2,1.9001137E2,2.3901343E2,1.0592258E2,1.340242E2,1.521145E2,1.6780656E2,1.8258195E2,2.0392E2,8.7366456E-1,1.2309479E0,-1.1278485E0,-7.4386424E-1,1.3671208E2,1.614982E8,1.4274135E2,-1.2154121E-2,3.4234807E-2,-1.3232992E-2,-1.2317011E-2,1.723934E2,1.9324515E2,5.952816E-1,-5.614138E-1,-1.3190079E-2,-4.1404185E-1,-1.0167732E-1,-6.243057E-2,-3.0472532E-1,-2.2452044E-1,-1.2555653E-1,-4.5012597E-2,-1.9485322E-1,-1.8994743E-2,7.988581E-2,4.6366204E-2,1.944597E-1,5.0463146E-1,2.7151826E-1,3.132948E-1,4.3374643E-1],"split_indices":[1,3,3,1,3,3,3,3,3,3,3,0,3,0,0,0,0,0,4,3,6,6,6,6,3,1,0,0,0,0,0,0,0,0,0,0,0,0,0,0,0,0,0,0,0],"split_type":[0,0,0,0,0,0,0,0,0,0,0,0,0,0,0,0,0,0,0,0,0,0,0,0,0,0,0,0,0,0,0,0,0,0,0,0,0,0,0,0,0,0,0,0,0],"sum_hessian":[1.005E3,6.37E2,3.68E2,2.86E2,3.51E2,2.13E2,1.55E2,1.19E2,1.67E2,1.89E2,1.62E2,1.07E2,1.06E2,1.22E2,3.3E1,1.2E1,1.07E2,9.4E1,7.3E1,1.27E2,6.2E1,5.6E1,1.06E2,5.4E1,5.3E1,7.2E1,3.4E1,9.3E1,1E0,7.2E1,1E0,2E0,1.25E2,1.3E1,4.9E1,5.5E1,1E0,1.8E1,8.8E1,8E0,4.6E1,1E0,5.2E1,1.5E1,5.7E1],"tree_param":{"num_deleted":"0","num_feature":"8","num_nodes":"45","size_leaf_vector":"1"}},{"base_weights":[7.0332035E-2,-6.135007E0,1.2035022E1,-1.1716588E1,-1.6980344E0,7.5746746E0,1.7941294E1,-1.4967858E1,-9.096032E0,-4.451217E0,8.93601E-1,5.891886E0,1.054915E1,1.66497E1,1.2951107E0,-1.1730812E0,-1.4148961E1,-5.181292E-1,-7.5891247E0,-5.6704597E0,-3.0242665E0,-1.7624399E-1,1.9010178E0,4.6183605E0,6.7359924E0,1.2051239E-1,1.0750129E1,1.3489736E1,1.7750008E1,-7.696733E-1,-6.229864E-1,-3.8174972E-1,-9.913521E-2,-2.8908923E-1,-8.183517E-2,-1.941043E-1,-1.2476987E-1,-5.5665698E-2,1.1599197E-2,2.746654E-2,1.0759711E-1,2.4492685E-1,7.5691484E-2,5.428987E-1,3.178094E-1,1.5339851E-1,5.408992E-1,7.0038885E-1,1.3883337E-1,2.4732628E-1,8.917246E-1],"categories":[],"categories_nodes":[],"categories_segments":[],"categories_sizes":[],"default_left":[0,0,0,0,0,0,0,0,0,0,0,0,0,0,0,0,0,0,0,0,0,0,0,0,0,0,0,0,0,0,0,0,0,0,0,0,0,0,0,0,0,0,0,0,0,0,0,0,0,0,0],"id":25,"left_children":[1,3,5,7,9,11,13,15,17,19,21,23,25,27,-1,-1,29,-1,31,33,35,37,39,41,43,-1,45,47,49,-1,-1,-1,-1,-1,-1,-1,-1,-1,-1,-1,-1,-1,-1,-1,-1,-1,-1,-1,-1,-1,-1],"loss_changes":[7.5655195E4,1.6597637E4,9.03182E3,2.394336E3,2.6796943E3,9.3892773E2,1.1007969E3,5.7921484E2,2.4008887E2,2.9949463E2,2.0942432E2,1.0863965E2,9.022803E1,2.1603516E2,0E0,0E0,6.4677734E1,0E0,5.4350586E0,3.409546E1,2.9328613E1,3.6599392E1,3.2735046E1,4.0424316E1,4.996631E1,0E0,2.777832E0,1.7199805E2,1.3457031E1,0E0,0E0,0E0,0E0,0E0,0E0,0E0,0E0,0E0,0E0,0E0,0E0,0E0,0E0,0E0,0E0,0E0,0E0,0E0,0E0,0E0,0E0],"parents":[2147483647,0,0,1,1,2,2,3,3,4,4,5,5,6,6,7,7,8,8,9,9,10,10,11,11,12,12,13,13,16,16,18,18,19,19,20,20,21,21,22,22,23,23,24,24,26,26,27,27,28,28],"right_children":[2,4,6,8,10,12,14,16,18,20,22,24,26,28,-1,-1,30,-1,32,34,36,38,40,42,44,-1,46,48,50,-1,-1,-1,-1,-1,-1,-1,-1,-1,-1,-1,-1,-1,-1,-1,-1,-1,-1,-1,-1,-1,-1],"split_conditions":[1.8042357E2,1.4357025E2,2.1293416E2,1.2467889E2,1.6222517E2,1.9626492E2,2.445493E2,1.0001133E2,1.3566304E2,1.5059009E2,1.7036427E2,1.8645549E2,-5.641909E-2,2.2504713E2,1.2951107E0,-1.1730812E0,1.18202324E2,-5.181292E-1,1.4784917E2,1.5164978E2,1.538717E2,1.6481804E2,-1.0346987E-2,1.8451815E1,-1.935768E-2,1.2051239E-1,1.7173283E2,2.2345697E2,-4.63123E-2,-7.696733E-1,-6.229864E-1,-3.8174972E-1,-9.913521E-2,-2.8908923E-1,-8.183517E-2,-1.941043E-1,-1.2476987E-1,-5.5665698E-2,1.1599197E-2,2.746654E-2,1.0759711E-1,2.4492685E-1,7.5691484E-2,5.428987E-1,3.178094E-1,1.5339851E-1,5.408992E-1,7.0038885E-1,1.3883337E-1,2.4732628E-1,8.917246E-1],"split_indices":[1,3,0,3,3,1,3,0,3,3,3,0,6,1,0,0,3,0,5,5,3,3,6,7,6,0,0,3,6,0,0,0,0,0,0,0,0,0,0,0,0,0,0,0,0,0,0,0,0,0,0],"split_type":[0,0,0,0,0,0,0,0,0,0,0,0,0,0,0,0,0,0,0,0,0,0,0,0,0,0,0,0,0,0,0,0,0,0,0,0,0,0,0,0,0,0,0,0,0,0,0,0,0,0,0],"sum_hessian":[1.017E3,6.7E2,3.47E2,2.96E2,3.74E2,1.99E2,1.48E2,1.3E2,1.66E2,1.81E2,1.93E2,1.29E2,7E1,1.3E2,1.8E1,9E0,1.21E2,8.7E1,7.9E1,9.6E1,8.5E1,9.4E1,9.9E1,5.4E1,7.5E1,2E0,6.8E1,3.7E1,9.3E1,6.5E1,5.6E1,7.8E1,1E0,9.3E1,3E0,3E1,5.5E1,2.8E1,6.6E1,1.6E1,8.3E1,4.9E1,5E0,4E0,7.1E1,1E0,6.7E1,3.5E1,2E0,1E0,9.2E1],"tree_param":{"num_deleted":"0","num_feature":"8","num_nodes":"51","size_leaf_vector":"1"}},{"base_weights":[2.5599787E-1,-6.378701E0,1.0705845E1,-1.1621563E1,-2.7837691E0,5.743764E0,1.6655876E1,-1.4924826E1,-9.796241E0,-4.963086E0,1.2586133E-1,3.8789914E0,7.956625E0,1.5124903E1,1.1073498E0,-9.2498964E-1,-6.887962E-1,-5.58761E-1,-8.479014E0,-5.7882295E0,-3.4948142E0,-1.0420091E0,9.2820376E-1,2.8832166E0,5.1111073E0,3.2660508E-1,9.363018E0,1.22374935E1,8.0593395E-1,-4.2776328E-1,-4.8036195E-2,-3.1670532E-1,-2.568254E-1,-2.0066941E-1,-1.3200755E-1,-8.941849E-2,2.3508708E-3,-2.2219298E-2,6.2053885E-2,1.0931778E-2,1.6464582E-1,2.6337084E-1,-6.760903E-2,4.7378397E-1,1.0733109E-1,6.204727E-1,1.382763E-1],"categories":[],"categories_nodes":[],"categories_segments":[],"categories_sizes":[],"default_left":[0,0,0,0,0,0,0,0,0,0,0,0,0,0,0,0,0,0,0,0,0,0,0,0,0,0,0,0,0,0,0,0,0,0,0,0,0,0,0,0,0,0,0,0,0,0,0],"id":26,"left_children":[1,3,5,7,9,11,13,15,17,19,21,23,25,27,-1,-1,-1,-1,29,31,33,35,37,39,41,-1,43,45,-1,-1,-1,-1,-1,-1,-1,-1,-1,-1,-1,-1,-1,-1,-1,-1,-1,-1,-1],"loss_changes":[6.8914555E4,1.1427068E4,1.1300805E4,1.3430859E3,2.296069E3,8.439502E2,1.1362148E3,9.837305E1,1.9950586E2,2.305586E2,1.471442E2,1.2881201E2,1.3116992E2,2.0446875E2,0E0,0E0,0E0,0E0,4.165625E1,1.4069824E1,2.3530945E1,5.21037E1,4.0490135E1,7.242255E1,5.8646362E1,0E0,1.7058105E1,3.0833008E1,0E0,0E0,0E0,0E0,0E0,0E0,0E0,0E0,0E0,0E0,0E0,0E0,0E0,0E0,0E0,0E0,0E0,0E0,0E0],"parents":[2147483647,0,0,1,1,2,2,3,3,4,4,5,5,6,6,7,7,8,8,9,9,10,10,11,11,12,12,13,13,18,18,19,19,20,20,21,21,22,22,23,23,24,24,26,26,27,27],"right_children":[2,4,6,8,10,12,14,16,18,20,22,24,26,28,-1,-1,-1,-1,30,32,34,36,38,40,42,-1,44,46,-1,-1,-1,-1,-1,-1,-1,-1,-1,-1,-1,-1,-1,-1,-1,-1,-1,-1,-1],"split_conditions":[1.7389975E2,1.3998555E2,2.0884332E2,1.1803571E2,1.5696396E2,1.8940422E2,2.3768663E2,1.0673075E2,1.27576126E2,1.4748174E2,1.6780656E2,1.8258195E2,1.9658E2,2.167182E2,1.1073498E0,-9.2498964E-1,-6.887962E-1,-5.58761E-1,1.4359816E2,1.4499184E2,1.5183736E2,-1.3401603E-3,-8.147473E-3,1.7428772E2,1.8879741E2,3.2660508E-1,2.1777443E2,2.2341866E2,8.0593395E-1,-4.2776328E-1,-4.8036195E-2,-3.1670532E-1,-2.568254E-1,-2.0066941E-1,-1.3200755E-1,-8.941849E-2,2.3508708E-3,-2.2219298E-2,6.2053885E-2,1.0931778E-2,1.6464582E-1,2.6337084E-1,-6.760903E-2,4.7378397E-1,1.0733109E-1,6.204727E-1,1.382763E-1],"split_indices":[5,3,3,2,2,3,3,2,2,2,3,0,3,2,0,0,0,0,5,3,2,6,6,3,2,0,5,5,0,0,0,0,0,0,0,0,0,0,0,0,0,0,0,0,0,0,0],"split_type":[0,0,0,0,0,0,0,0,0,0,0,0,0,0,0,0,0,0,0,0,0,0,0,0,0,0,0,0,0,0,0,0,0,0,0,0,0,0,0,0,0,0,0,0,0,0,0],"sum_hessian":[9.92E2,6.07E2,3.85E2,2.46E2,3.61E2,2.11E2,1.74E2,8.5E1,1.61E2,2.06E2,1.55E2,1.16E2,9.5E1,1.39E2,3.5E1,1.7E1,6.8E1,7.5E1,8.6E1,1.3E2,7.6E1,6.3E1,9.2E1,6.6E1,5E1,5E1,4.5E1,3.9E1,1E2,8.5E1,1E0,6.6E1,6.4E1,4.5E1,3.1E1,3.7E1,2.6E1,1.7E1,7.5E1,9E0,5.7E1,4.9E1,1E0,4.4E1,1E0,3.8E1,1E0],"tree_param":{"num_deleted":"0","num_feature":"8","num_nodes":"47","size_leaf_vector":"1"}},{"base_weights":[5.2393857E-2,-5.5184946E0,1.12766695E1,-1.0542846E1,-1.7230589E0,7.000701E0,1.6373255E1,-1.4773241E1,-8.931892E0,-4.130164E0,8.8634384E-1,5.2725587E0,9.521663E0,1.5090971E1,1.0667872E0,-1.0767759E0,-6.853989E-1,-5.175738E-1,-7.4694357E0,-4.8467164E0,-2.2675738E0,-1.6529791E-1,1.7272242E0,4.159322E0,6.2020884E0,1.7333435E-1,9.818138E0,7.593241E-1,8.119164E-2,-3.7528655E-1,-8.8739015E-2,-2.7017763E-1,-1.9839029E-1,-2.1428286E-1,-8.789277E-2,-6.7659795E-2,1.1353195E-2,6.738096E-2,1.21854246E-1,2.1358453E-1,-4.4905473E-2,5.6233466E-1,2.865504E-1,1.3771896E-1,4.940296E-1],"categories":[],"categories_nodes":[],"categories_segments":[],"categories_sizes":[],"default_left":[0,0,0,0,0,0,0,0,0,0,0,0,0,0,0,0,0,0,0,0,0,0,0,0,0,0,0,0,0,0,0,0,0,0,0,0,0,0,0,0,0,0,0,0,0],"id":27,"left_children":[1,3,5,7,9,11,13,15,17,19,21,23,25,27,-1,-1,-1,-1,29,31,33,35,37,39,41,-1,43,-1,-1,-1,-1,-1,-1,-1,-1,-1,-1,-1,-1,-1,-1,-1,-1,-1,-1],"loss_changes":[6.3529355E4,1.2930096E4,7.2295625E3,1.8580176E3,2.44073E3,7.557637E2,6.516094E2,2.73875E2,3.6696094E2,2.586079E2,1.6565051E2,9.009961E1,9.88042E1,1.361211E2,0E0,0E0,0E0,0E0,9.208008E0,4.9523926E1,5.2128387E1,3.9458473E1,2.4740265E1,3.4524536E1,7.575366E1,0E0,3.6669922E0,0E0,0E0,0E0,0E0,0E0,0E0,0E0,0E0,0E0,0E0,0E0,0E0,0E0,0E0,0E0,0E0,0E0,0E0],"parents":[2147483647,0,0,1,1,2,2,3,3,4,4,5,5,6,6,7,7,8,8,9,9,10,10,11,11,12,12,13,13,18,18,19,19,20,20,21,21,22,22,23,23,24,24,26,26],"right_children":[2,4,6,8,10,12,14,16,18,20,22,24,26,28,-1,-1,-1,-1,30,32,34,36,38,40,42,-1,44,-1,-1,-1,-1,-1,-1,-1,-1,-1,-1,-1,-1,-1,-1,-1,-1,-1,-1],"split_conditions":[1.8042357E2,1.4258252E2,2.1495811E2,1.1985016E2,1.5997481E2,1.9626492E2,2.4206607E2,1.0001133E2,1.3060817E2,1.538717E2,1.6979236E2,1.8884946E2,-3.6734242E-2,1.8437506E1,1.0667872E0,-1.0767759E0,-6.853989E-1,-5.175738E-1,1.8900005E1,1.4916711E2,-1.273087E-2,-1.1200381E-2,1.7368758E2,1.88033E2,-1.935768E-2,1.7333435E-1,1.7173283E2,7.593241E-1,8.119164E-2,-3.7528655E-1,-8.8739015E-2,-2.7017763E-1,-1.9839029E-1,-2.1428286E-1,-8.789277E-2,-6.7659795E-2,1.1353195E-2,6.738096E-2,1.21854246E-1,2.1358453E-1,-4.4905473E-2,5.6233466E-1,2.865504E-1,1.3771896E-1,4.940296E-1],"split_indices":[1,3,3,1,2,1,3,0,3,3,3,1,6,7,0,0,0,0,7,1,6,6,2,3,6,0,0,0,0,0,0,0,0,0,0,0,0,0,0,0,0,0,0,0,0],"split_type":[0,0,0,0,0,0,0,0,0,0,0,0,0,0,0,0,0,0,0,0,0,0,0,0,0,0,0,0,0,0,0,0,0,0,0,0,0,0,0,0,0,0,0,0,0],"sum_hessian":[1.014E3,6.78E2,3.36E2,2.91E2,3.87E2,1.84E2,1.52E2,7.8E1,2.13E2,2.01E2,1.86E2,1.11E2,7.3E1,1.24E2,2.8E1,8E0,7E1,1.05E2,1.08E2,1.44E2,5.7E1,8.3E1,1.03E2,5.3E1,5.8E1,4E0,6.9E1,1.23E2,1E0,1.07E2,1E0,8.5E1,5.9E1,1E1,4.7E1,2E1,6.3E1,6.9E1,3.4E1,5.2E1,1E0,3E0,5.5E1,1E0,6.8E1],"tree_param":{"num_deleted":"0","num_feature":"8","num_nodes":"45","size_leaf_vector":"1"}},{"base_weights":[-1.9465724E-1,-7.039491E0,7.4896393E0,-1.1383227E1,-3.9361238E0,3.7418203E0,1.4031726E1,-1.471618E1,-9.695997E0,-5.4511986E0,-1.7577808E0,1.9017311E0,5.9659457E0,1.1675512E1,1.644742E1,-1.0482498E0,-6.6740483E-1,-5.176124E-1,-8.571896E0,-6.362397E0,-4.658616E0,-2.4942656E0,-6.475766E-1,1.1652372E0,3.3401423E0,5.282574E0,7.8973985E0,1.0083771E-1,5.881177E-1,8.270456E-1,2.2420044E-1,-1.0123558E-1,-4.324274E-1,-3.1993335E-1,-8.652039E-2,-2.3795712E-1,-1.1452561E-1,-1.6685884E-1,-9.0269715E-2,-3.7905302E-2,1.24735646E-1,-1.6256787E-2,7.5002186E-2,8.3376214E-2,1.9353044E-1,2.5344303E-1,4.6256772E-1,4.0093994E-1,1.00314334E-1],"categories":[],"categories_nodes":[],"categories_segments":[],"categories_sizes":[],"default_left":[0,0,0,0,0,0,0,0,0,0,0,0,0,0,0,0,0,0,0,0,0,0,0,0,0,0,0,0,0,0,0,0,0,0,0,0,0,0,0,0,0,0,0,0,0,0,0,0,0],"id":28,"left_children":[1,3,5,7,9,11,13,15,17,19,21,23,25,27,29,-1,-1,-1,31,33,35,37,39,41,43,45,47,-1,-1,-1,-1,-1,-1,-1,-1,-1,-1,-1,-1,-1,-1,-1,-1,-1,-1,-1,-1,-1,-1],"loss_changes":[5.1914094E4,6.9918613E3,1.1348625E4,1.0776016E3,1.0003262E3,1.2041533E3,7.6989844E2,3.2713086E2,1.9702148E1,1.0035596E2,1.02226135E2,1.698465E2,1.3514746E2,5.0929688E1,1.6427734E1,0E0,0E0,0E0,1.2600586E1,2.5354004E0,1.2905029E1,3.810501E1,1.9951664E1,5.5376236E1,4.2345398E1,3.962085E1,7.5129395E0,0E0,0E0,0E0,0E0,0E0,0E0,0E0,0E0,0E0,0E0,0E0,0E0,0E0,0E0,0E0,0E0,0E0,0E0,0E0,0E0,0E0,0E0],"parents":[2147483647,0,0,1,1,2,2,3,3,4,4,5,5,6,6,7,7,8,8,9,9,10,10,11,11,12,12,13,13,14,14,18,18,19,19,20,20,21,21,22,22,23,23,24,24,25,25,26,26],"right_children":[2,4,6,8,10,12,14,16,18,20,22,24,26,28,30,-1,-1,-1,32,34,36,38,40,42,44,46,48,-1,-1,-1,-1,-1,-1,-1,-1,-1,-1,-1,-1,-1,-1,-1,-1,-1,-1,-1,-1,-1,-1],"split_conditions":[1.6801581E2,1.3566304E2,2.0392E2,1.1612824E2,1.5059009E2,1.8300981E2,2.2604543E2,1.0001133E2,1.2864917E2,1.4357025E2,1.6172432E2,1.7450053E2,1.9658E2,-3.6734242E-2,9.54671E7,-1.0482498E0,-6.6740483E-1,-5.176124E-1,1.256056E2,1.614982E8,3.2570586E-2,-6.1337776E-3,4.3270938E-2,-1.3232992E-2,-5.7142065E-3,1.163079E8,1.016968E8,1.0083771E-1,5.881177E-1,8.270456E-1,2.2420044E-1,-1.0123558E-1,-4.324274E-1,-3.1993335E-1,-8.652039E-2,-2.3795712E-1,-1.1452561E-1,-1.6685884E-1,-9.0269715E-2,-3.7905302E-2,1.24735646E-1,-1.6256787E-2,7.5002186E-2,8.3376214E-2,1.9353044E-1,2.5344303E-1,4.6256772E-1,4.0093994E-1,1.00314334E-1],"split_indices":[3,3,3,2,3,0,3,0,3,3,3,2,3,6,4,0,0,0,0,4,6,6,6,6,6,4,4,0,0,0,0,0,0,0,0,0,0,0,0,0,0,0,0,0,0,0,0,0,0],"split_type":[0,0,0,0,0,0,0,0,0,0,0,0,0,0,0,0,0,0,0,0,0,0,0,0,0,0,0,0,0,0,0,0,0,0,0,0,0,0,0,0,0,0,0,0,0,0,0,0,0],"sum_hessian":[9.85E2,5.21E2,4.64E2,2.16E2,3.05E2,2.96E2,1.68E2,7E1,1.46E2,1.79E2,1.26E2,1.63E2,1.33E2,8.8E1,8E1,1E1,6E1,8.7E1,5.9E1,8E1,9.9E1,7.5E1,5.1E1,1.09E2,5.4E1,1.01E2,3.2E1,1E0,8.7E1,7.9E1,1E0,1E0,5.8E1,7.9E1,1E0,9.4E1,5E0,3.2E1,4.3E1,5E1,1E0,2E1,8.9E1,1.4E1,4E1,9.8E1,3E0,3.1E1,1E0],"tree_param":{"num_deleted":"0","num_feature":"8","num_nodes":"49","size_leaf_vector":"1"}},{"base_weights":[5.2921563E-2,-6.384297E0,7.868412E0,-1.0496503E1,-3.1430728E0,3.737763E0,1.3724107E1,-1.5154954E1,-9.355461E0,-4.8514214E0,-9.342805E-1,2.0657754E0,5.963625E0,1.1989423E1,8.474049E-1,-1.0386928E0,-6.613369E-1,-5.322804E-1,-8.147452E0,-5.7152987E0,-4.170448E0,-2.0672042E0,-9.0687424E-2,4.4623643E-1,1.9626142E0,4.4802494E0,6.675244E0,9.466603E0,1.29035225E1,-1.8168525E-1,-4.121821E-1,-2.90149E-1,-8.5292816E-2,-2.1126111E-1,-4.8637643E-2,-1.7788975E-1,-7.0732534E-2,-5.6537546E-2,1.0636459E-2,6.724765E-2,1.4002673E-1,2.4510527E-1,-2.7099038E-2,3.1071684E-1,4.2885742E-1,3.1154186E-1,5.0069606E-1,1.8133545E-1,6.483864E-1],"categories":[],"categories_nodes":[],"categories_segments":[],"categories_sizes":[],"default_left":[0,0,0,0,0,0,0,0,0,0,0,0,0,0,0,0,0,0,0,0,0,0,0,0,0,0,0,0,0,0,0,0,0,0,0,0,0,0,0,0,0,0,0,0,0,0,0,0,0],"id":29,"left_children":[1,3,5,7,9,11,13,15,17,19,21,23,25,27,-1,-1,-1,-1,29,31,33,35,37,-1,39,41,43,45,47,-1,-1,-1,-1,-1,-1,-1,-1,-1,-1,-1,-1,-1,-1,-1,-1,-1,-1,-1,-1],"loss_changes":[5.046087E4,7.2977285E3,1.0905787E4,1.1445664E3,1.1614443E3,9.8135156E2,8.426172E2,2.2361523E2,2.2029102E2,7.852515E1,1.2979135E2,9.1451355E1,9.043115E1,1.6611133E2,0E0,0E0,0E0,0E0,1.6067871E1,1.6115479E1,1.35802E1,5.138301E1,2.5170773E1,0E0,7.54187E1,8.740314E1,1.2444092E1,3.131836E0,5.9804688E0,0E0,0E0,0E0,0E0,0E0,0E0,0E0,0E0,0E0,0E0,0E0,0E0,0E0,0E0,0E0,0E0,0E0,0E0,0E0,0E0],"parents":[2147483647,0,0,1,1,2,2,3,3,4,4,5,5,6,6,7,7,8,8,9,9,10,10,11,11,12,12,13,13,18,18,19,19,20,20,21,21,22,22,24,24,25,25,26,26,27,27,28,28],"right_children":[2,4,6,8,10,12,14,16,18,20,22,24,26,28,-1,-1,-1,-1,30,32,34,36,38,-1,40,42,44,46,48,-1,-1,-1,-1,-1,-1,-1,-1,-1,-1,-1,-1,-1,-1,-1,-1,-1,-1,-1,-1],"split_conditions":[1.6961781E2,1.3869185E2,2.0392E2,1.1133402E2,1.5183736E2,1.8514627E2,2.2930684E2,9.800886E1,1.24723755E2,1.4499184E2,1.5997481E2,-4.911874E-2,1.9001137E2,2.1495811E2,8.474049E-1,-1.0386928E0,-6.613369E-1,-5.322804E-1,5.84188E7,1.4428813E2,1.5493307E2,-1.2154121E-2,-1.1200381E-2,4.4623643E-1,1.7450053E2,1.907392E2,6.90239E7,-1.0346987E-2,-4.63123E-2,-1.8168525E-1,-4.121821E-1,-2.90149E-1,-8.5292816E-2,-2.1126111E-1,-4.8637643E-2,-1.7788975E-1,-7.0732534E-2,-5.6537546E-2,1.0636459E-2,6.724765E-2,1.4002673E-1,2.4510527E-1,-2.7099038E-2,3.1071684E-1,4.2885742E-1,3.1154186E-1,5.0069606E-1,1.8133545E-1,6.483864E-1],"split_indices":[3,3,3,2,2,3,3,2,5,3,2,6,3,3,0,0,0,0,4,2,3,6,6,0,2,5,4,6,6,0,0,0,0,0,0,0,0,0,0,0,0,0,0,0,0,0,0,0,0],"split_type":[0,0,0,0,0,0,0,0,0,0,0,0,0,0,0,0,0,0,0,0,0,0,0,0,0,0,0,0,0,0,0,0,0,0,0,0,0,0,0,0,0,0,0,0,0,0,0,0,0],"sum_hessian":[1.001E3,5.49E2,4.52E2,2.41E2,3.08E2,2.66E2,1.86E2,4.5E1,1.96E2,1.73E2,1.35E2,1.53E2,1.13E2,1.24E2,6.2E1,9E0,3.6E1,9.1E1,1.05E2,7.3E1,1E2,5.7E1,7.8E1,1E0,1.52E2,3.9E1,7.4E1,3.6E1,8.8E1,3E0,1.02E2,7.1E1,2E0,9.8E1,2E0,1.6E1,4.1E1,1.7E1,6.1E1,8.9E1,6.3E1,3.6E1,3E0,6.3E1,1.1E1,7E0,2.9E1,1E0,8.7E1],"tree_param":{"num_deleted":"0","num_feature":"8","num_nodes":"49","size_leaf_vector":"1"}},{"base_weights":[-2.0015072E-2,-4.723447E0,9.585846E0,-8.863003E0,-1.1296619E0,5.770587E0,1.4040851E1,-1.30730095E1,-7.5791197E0,-3.3739865E0,5.9719694E-1,3.865676E0,7.7181563E0,1.2933815E1,1.0165375E0,-9.287306E-1,-5.996116E-1,-8.791088E0,-6.0085244E0,-3.9139948E0,-2.015371E0,-6.4943266E-1,1.1509528E0,-2.767283E-1,3.9597588E0,6.063234E0,8.555554E0,1.0883397E1,1.3835348E1,-4.6475607E-1,-3.8069132E-1,-4.2986408E-1,-2.8300965E-1,-2.3228315E-1,-1.7677514E-1,-8.355034E-2,-1.7426358E-1,-6.661063E-2,3.573057E-2,2.6014405E-3,6.860737E-2,2.2885514E-2,-4.3640137E-2,1.593011E-1,2.1725284E-1,4.5607377E-2,3.0978504E-1,2.4959783E-1,4.4813815E-1,5.5016917E-1,1.4010124E-1,1.7680207E-1,6.9565433E-1],"categories":[],"categories_nodes":[],"categories_segments":[],"categories_sizes":[],"default_left":[0,0,0,0,0,0,0,0,0,0,0,0,0,0,0,0,0,0,0,0,0,0,0,0,0,0,0,0,0,0,0,0,0,0,0,0,0,0,0,0,0,0,0,0,0,0,0,0,0,0,0,0,0],"id":30,"left_children":[1,3,5,7,9,11,13,15,17,19,21,23,25,27,-1,-1,-1,29,31,33,35,37,39,41,43,45,47,49,51,-1,-1,-1,-1,-1,-1,-1,-1,-1,-1,-1,-1,-1,-1,-1,-1,-1,-1,-1,-1,-1,-1,-1,-1],"loss_changes":[4.549687E4,1.0046617E4,5.5449824E3,1.5981367E3,1.4088694E3,6.379541E2,7.954414E2,2.0536133E2,4.097334E2,1.0803052E2,1.4295514E2,3.7340576E1,7.00791E1,9.343164E1,0E0,0E0,0E0,9.333984E0,4.9628174E1,1.4591553E1,1.7966629E1,6.0557896E1,3.468846E1,1.712831E0,1.3285522E1,1.6866089E1,3.6521484E1,1.2802246E1,2.1259766E1,0E0,0E0,0E0,0E0,0E0,0E0,0E0,0E0,0E0,0E0,0E0,0E0,0E0,0E0,0E0,0E0,0E0,0E0,0E0,0E0,0E0,0E0,0E0,0E0],"parents":[2147483647,0,0,1,1,2,2,3,3,4,4,5,5,6,6,7,7,8,8,9,9,10,10,11,11,12,12,13,13,17,17,18,18,19,19,20,20,21,21,22,22,23,23,24,24,25,25,26,26,27,27,28,28],"right_children":[2,4,6,8,10,12,14,16,18,20,22,24,26,28,-1,-1,-1,30,32,34,36,38,40,42,44,46,48,50,52,-1,-1,-1,-1,-1,-1,-1,-1,-1,-1,-1,-1,-1,-1,-1,-1,-1,-1,-1,-1,-1,-1,-1,-1],"split_conditions":[1.7642387E2,1.4471825E2,2.157709E2,1.1612824E2,1.6060759E2,1.9324515E2,2.445493E2,1.0001133E2,1.3130334E2,1.538717E2,1.6780656E2,-3.5786603E-2,2.0027736E2,2.2205151E2,1.0165375E0,-9.287306E-1,-5.996116E-1,1.2864917E2,-3.390509E-2,1.4761993E2,1.6168468E2,-3.941046E-4,-1.2317011E-2,1.8389935E2,1.855225E2,1.8833086E2,-1.9163277E-2,2.3022862E2,-4.63123E-2,-4.6475607E-1,-3.8069132E-1,-4.2986408E-1,-2.8300965E-1,-2.3228315E-1,-1.7677514E-1,-8.355034E-2,-1.7426358E-1,-6.661063E-2,3.573057E-2,2.6014405E-3,6.860737E-2,2.2885514E-2,-4.3640137E-2,1.593011E-1,2.1725284E-1,4.5607377E-2,3.0978504E-1,2.4959783E-1,4.4813815E-1,5.5016917E-1,1.4010124E-1,1.7680207E-1,6.9565433E-1],"split_indices":[2,3,1,2,0,1,3,0,2,3,3,6,1,2,0,0,0,3,6,1,1,6,6,0,1,3,6,5,6,0,0,0,0,0,0,0,0,0,0,0,0,0,0,0,0,0,0,0,0,0,0,0,0],"split_type":[0,0,0,0,0,0,0,0,0,0,0,0,0,0,0,0,0,0,0,0,0,0,0,0,0,0,0,0,0,0,0,0,0,0,0,0,0,0,0,0,0,0,0,0,0,0,0,0,0,0,0,0,0],"sum_hessian":[1.005E3,6.75E2,3.3E2,3.13E2,3.62E2,1.79E2,1.51E2,7.1E1,2.42E2,1.57E2,2.05E2,9.2E1,8.7E1,1.31E2,2E1,9E0,6.2E1,1.34E2,1.08E2,1.11E2,4.6E1,6.3E1,1.42E2,2E0,9E1,3.2E1,5.5E1,4.4E1,8.7E1,8.9E1,4.5E1,1E1,9.8E1,3.4E1,7.7E1,3.9E1,7E0,4.2E1,2.1E1,2.4E1,1.18E2,1E0,1E0,3.3E1,5.7E1,1E0,3.1E1,7E0,4.8E1,4.3E1,1E0,1E0,8.6E1],"tree_param":{"num_deleted":"0","num_feature":"8","num_nodes":"53","size_leaf_vector":"1"}},{"base_weights":[-7.133803E-2,-5.268939E0,7.8606615E0,-9.380176E0,-2.5397692E0,4.030611E0,1.24430685E1,-1.21626835E1,-7.9573674E0,-4.3061123E0,-2.3438781E-1,2.4541543E0,5.515595E0,1.1218663E1,9.279116E-1,-8.945076E-1,-5.599138E-1,-4.335198E-1,-3.2825306E-1,-4.7378907E0,-3.223424E0,-1.1424435E0,3.8588095E-1,1.9029162E0,3.4340227E0,4.760777E0,6.997823E0,9.454779E0,1.2634868E1,-2.3822534E-1,-2.0634461E-2,-8.7597124E-2,-1.7676516E-1,-3.3485673E-2,-1.0981186E-1,9.139742E-3,7.884173E-2,1.806656E-1,8.4633924E-2,1.8126993E-1,4.5048904E-2,-1.3756561E-2,2.414876E-1,3.7179238E-1,1.3974518E-1,4.8539668E-1,1.3304387E-1,6.350569E-1,1.80019E-1],"categories":[],"categories_nodes":[],"categories_segments":[],"categories_sizes":[],"default_left":[0,0,0,0,0,0,0,0,0,0,0,0,0,0,0,0,0,0,0,0,0,0,0,0,0,0,0,0,0,0,0,0,0,0,0,0,0,0,0,0,0,0,0,0,0,0,0,0,0],"id":31,"left_children":[1,3,5,7,9,11,13,15,17,19,21,23,25,27,-1,-1,-1,-1,-1,29,31,33,35,37,39,41,43,45,47,-1,-1,-1,-1,-1,-1,-1,-1,-1,-1,-1,-1,-1,-1,-1,-1,-1,-1,-1,-1],"loss_changes":[4.196965E4,6.8766406E3,7.022842E3,8.7316406E2,1.5097375E3,5.0382764E2,1.162E3,2.4707422E2,1.0688281E2,8.2898926E1,9.16855E1,5.234076E1,9.3110596E1,2.6773633E2,0E0,0E0,0E0,0E0,0E0,1.5071289E1,2.2718628E1,3.14077E1,2.3172773E1,1.9774261E1,1.5154572E1,2.8421997E1,4.5492798E1,9.972168E1,3.9628906E0,0E0,0E0,0E0,0E0,0E0,0E0,0E0,0E0,0E0,0E0,0E0,0E0,0E0,0E0,0E0,0E0,0E0,0E0,0E0,0E0],"parents":[2147483647,0,0,1,1,2,2,3,3,4,4,5,5,6,6,7,7,8,8,9,9,10,10,11,11,12,12,13,13,19,19,20,20,21,21,22,22,23,23,24,24,25,25,26,26,27,27,28,28],"right_children":[2,4,6,8,10,12,14,16,18,20,22,24,26,28,-1,-1,-1,-1,-1,30,32,34,36,38,40,42,44,46,48,-1,-1,-1,-1,-1,-1,-1,-1,-1,-1,-1,-1,-1,-1,-1,-1,-1,-1,-1,-1],"split_conditions":[1.7199127E2,1.3869185E2,2.0392E2,1.18202324E2,1.5673155E2,1.8742348E2,2.3658928E2,1.0001133E2,1.3060817E2,1.4748174E2,1.6481804E2,1.8033092E2,1.9626492E2,2.2332558E2,9.279116E-1,-8.945076E-1,-5.599138E-1,-4.335198E-1,-3.2825306E-1,1.5137611E2,1.4995044E2,9.02218E7,9.69701E7,1.6996086E2,7.23481E7,1.7698901E2,2.054446E2,2.2061823E2,2.4340285E2,-2.3822534E-1,-2.0634461E-2,-8.7597124E-2,-1.7676516E-1,-3.3485673E-2,-1.0981186E-1,9.139742E-3,7.884173E-2,1.806656E-1,8.4633924E-2,1.8126993E-1,4.5048904E-2,-1.3756561E-2,2.414876E-1,3.7179238E-1,1.3974518E-1,4.8539668E-1,1.3304387E-1,6.350569E-1,1.80019E-1],"split_indices":[3,3,3,3,3,1,2,0,3,2,3,3,1,0,0,0,0,0,0,5,0,4,4,2,4,0,5,2,0,0,0,0,0,0,0,0,0,0,0,0,0,0,0,0,0,0,0,0,0],"split_type":[0,0,0,0,0,0,0,0,0,0,0,0,0,0,0,0,0,0,0,0,0,0,0,0,0,0,0,0,0,0,0,0,0,0,0,0,0,0,0,0,0,0,0,0,0,0,0,0,0],"sum_hessian":[1.016E3,6.14E2,4.02E2,2.44E2,3.7E2,2.2E2,1.82E2,8E1,1.64E2,2.09E2,1.61E2,1.08E2,1.12E2,1.54E2,2.8E1,9E0,7.1E1,1.05E2,5.9E1,1.47E2,6.2E1,6.5E1,9.6E1,7.1E1,3.7E1,7.7E1,3.5E1,7.2E1,8.2E1,1.46E2,1E0,1.2E1,5E1,4.6E1,1.9E1,8.3E1,1.3E1,6E0,6.5E1,3.4E1,3E0,1E0,7.6E1,3.1E1,4E0,6.9E1,3E0,8.1E1,1E0],"tree_param":{"num_deleted":"0","num_feature":"8","num_nodes":"49","size_leaf_vector":"1"}},{"base_weights":[-1.4983387E-1,-5.2970405E0,6.71346E0,-9.434749E0,-2.8435395E0,3.3278086E0,1.1742778E1,-1.2619385E1,-8.055533E0,-4.394431E0,-7.1276253E-1,1.8864547E0,4.92034E0,1.0904801E1,8.936326E-1,-8.7051404E-1,-5.6816226E-1,-4.4708806E-1,-3.6647674E-1,-5.2143126E0,-3.6383684E0,-1.5655632E0,2.3157741E-1,1.4982558E0,3.006985E0,4.223838E0,5.7935033E0,9.2522545E0,1.1989191E1,-3.2227874E-1,-2.2833991E-1,-1.9932112E-1,-1.5299462E-1,-1.08378164E-1,-5.595362E-2,-3.8772013E-2,3.001292E-2,1.4704618E-3,8.279401E-2,1.6374068E-1,7.530507E-2,3.8518772E-1,1.9785109E-1,2.9990757E-1,9.446754E-2,4.7208604E-1,2.0012283E-1,1.207222E-1,6.0352796E-1],"categories":[],"categories_nodes":[],"categories_segments":[],"categories_sizes":[],"default_left":[0,0,0,0,0,0,0,0,0,0,0,0,0,0,0,0,0,0,0,0,0,0,0,0,0,0,0,0,0,0,0,0,0,0,0,0,0,0,0,0,0,0,0,0,0,0,0,0,0],"id":32,"left_children":[1,3,5,7,9,11,13,15,17,19,21,23,25,27,-1,-1,-1,-1,-1,29,31,33,35,37,39,41,43,45,47,-1,-1,-1,-1,-1,-1,-1,-1,-1,-1,-1,-1,-1,-1,-1,-1,-1,-1,-1,-1],"loss_changes":[3.5115066E4,5.7394355E3,7.2146426E3,8.2511914E2,1.179916E3,5.7834106E2,6.8347656E2,1.7528027E2,3.097168E1,1.0934375E2,1.22773285E2,5.4653168E1,4.9116455E1,1.6325E2,0E0,0E0,0E0,0E0,0E0,4.789868E1,1.0150757E1,1.9077347E1,2.756805E1,2.3798462E1,8.735107E0,3.5439453E1,2.9415283E1,2.6863281E1,4.019336E1,0E0,0E0,0E0,0E0,0E0,0E0,0E0,0E0,0E0,0E0,0E0,0E0,0E0,0E0,0E0,0E0,0E0,0E0,0E0,0E0],"parents":[2147483647,0,0,1,1,2,2,3,3,4,4,5,5,6,6,7,7,8,8,9,9,10,10,11,11,12,12,13,13,19,19,20,20,21,21,22,22,23,23,24,24,25,25,26,26,27,27,28,28],"right_children":[2,4,6,8,10,12,14,16,18,20,22,24,26,28,-1,-1,-1,-1,-1,30,32,34,36,38,40,42,44,46,48,-1,-1,-1,-1,-1,-1,-1,-1,-1,-1,-1,-1,-1,-1,-1,-1,-1,-1,-1,-1],"split_conditions":[1.7069212E2,1.340242E2,2.0392E2,1.1757722E2,1.538717E2,1.855225E2,2.4277437E2,1.0344273E2,1.2365242E2,1.4499184E2,1.6451503E2,1.7966493E2,1.9248042E2,2.2504713E2,8.936326E-1,-8.7051404E-1,-5.6816226E-1,-4.4708806E-1,-3.6647674E-1,-6.5053077E-3,1.4877263E2,-4.70059E-3,-1.1685094E-2,-1.2317011E-2,1.8390915E2,-4.1673575E-2,2.054446E2,9.88447E7,2.2104623E2,-3.2227874E-1,-2.2833991E-1,-1.9932112E-1,-1.5299462E-1,-1.08378164E-1,-5.595362E-2,-3.8772013E-2,3.001292E-2,1.4704618E-3,8.279401E-2,1.6374068E-1,7.530507E-2,3.8518772E-1,1.9785109E-1,2.9990757E-1,9.446754E-2,4.7208604E-1,2.0012283E-1,1.207222E-1,6.0352796E-1],"split_indices":[3,3,3,1,3,1,3,1,5,3,3,3,3,1,0,0,0,0,0,6,3,6,6,6,5,6,5,4,3,0,0,0,0,0,0,0,0,0,0,0,0,0,0,0,0,0,0,0,0],"split_type":[0,0,0,0,0,0,0,0,0,0,0,0,0,0,0,0,0,0,0,0,0,0,0,0,0,0,0,0,0,0,0,0,0,0,0,0,0,0,0,0,0,0,0,0,0,0,0,0,0],"sum_hessian":[9.92E2,5.67E2,4.25E2,2.1E2,3.57E2,2.55E2,1.7E2,6.1E1,1.49E2,2.06E2,1.51E2,1.35E2,1.2E2,1.52E2,1.8E1,1E1,5.1E1,6.2E1,8.7E1,9.6E1,1.1E2,7.9E1,7.2E1,1.02E2,3.3E1,7E1,5E1,6.4E1,8.8E1,3E1,6.6E1,6.5E1,4.5E1,3.2E1,4.7E1,1.9E1,5.3E1,1E1,9.2E1,2.7E1,6E0,3E0,6.7E1,4.7E1,3E0,6.1E1,3E0,1E0,8.7E1],"tree_param":{"num_deleted":"0","num_feature":"8","num_nodes":"49","size_leaf_vector":"1"}},{"base_weights":[-6.0392298E-2,-4.0616207E0,8.2594185E0,-8.10184E0,-1.3284783E0,5.14968E0,1.2006739E1,-1.1167292E1,-6.786951E0,-3.2770033E0,6.1702204E-1,3.929884E0,7.118902E0,1.0630481E1,1.4920608E1,-8.309452E-1,-5.082695E-1,-3.9518598E-1,-5.8706245E0,-3.7906418E0,-2.039466E0,-1.5412991E-1,1.3972454E0,2.7148695E0,4.478464E0,6.5662645E-2,3.6374664E-1,1.0714138E1,4.24264E0,6.5893495E-1,9.0973186E-1,-2.9669473E-1,-8.074672E-2,-2.1228896E-1,-1.660687E-1,-1.1981409E-1,-2.5510758E-2,-4.7687992E-2,1.0725393E-2,9.6758327E-4,7.903748E-2,1.4461552E-1,2.417717E-2,4.734281E-1,2.1095736E-1,1.4141731E-1,5.382106E-1,1.7356873E-2,3.0084115E-1],"categories":[],"categories_nodes":[],"categories_segments":[],"categories_sizes":[],"default_left":[0,0,0,0,0,0,0,0,0,0,0,0,0,0,0,0,0,0,0,0,0,0,0,0,0,0,0,0,0,0,0,0,0,0,0,0,0,0,0,0,0,0,0,0,0,0,0,0,0],"id":33,"left_children":[1,3,5,7,9,11,13,15,17,19,21,23,25,27,29,-1,-1,-1,31,33,35,37,39,41,43,-1,-1,45,47,-1,-1,-1,-1,-1,-1,-1,-1,-1,-1,-1,-1,-1,-1,-1,-1,-1,-1,-1,-1],"loss_changes":[3.3622617E4,7.520218E3,3.760416E3,1.0326602E3,1.5486913E3,4.0679492E2,4.349004E2,2.7348242E2,1.5314844E2,1.2194092E2,1.2355787E2,6.382617E1,5.2044678E1,1.0120117E1,1.6856445E1,0E0,0E0,0E0,2.0304688E1,1.644043E1,3.2608368E1,3.0861061E1,2.5760025E1,1.36467285E1,5.968994E1,0E0,0E0,9.832031E0,1.864534E1,0E0,0E0,0E0,0E0,0E0,0E0,0E0,0E0,0E0,0E0,0E0,0E0,0E0,0E0,0E0,0E0,0E0,0E0,0E0,0E0],"parents":[2147483647,0,0,1,1,2,2,3,3,4,4,5,5,6,6,7,7,8,8,9,9,10,10,11,11,12,12,13,13,14,14,18,18,19,19,20,20,21,21,22,22,23,23,24,24,27,27,28,28],"right_children":[2,4,6,8,10,12,14,16,18,20,22,24,26,28,30,-1,-1,-1,32,34,36,38,40,42,44,-1,-1,46,48,-1,-1,-1,-1,-1,-1,-1,-1,-1,-1,-1,-1,-1,-1,-1,-1,-1,-1,-1,-1],"split_conditions":[1.7947307E2,1.4147896E2,2.1495811E2,1.1985016E2,1.631387E2,1.9626492E2,2.3417685E2,1.0001133E2,1.2864917E2,1.521145E2,1.7069212E2,1.8587743E2,-3.6734242E-2,9.54671E7,2.4474959E2,-8.309452E-1,-5.082695E-1,-3.9518598E-1,1.4030899E2,1.4473518E2,1.177263E8,1.6481804E2,-1.2317011E-2,1.016968E8,-4.1673575E-2,6.5662645E-2,3.6374664E-1,-4.63123E-2,2.1815315E2,6.5893495E-1,9.0973186E-1,-2.9669473E-1,-8.074672E-2,-2.1228896E-1,-1.660687E-1,-1.1981409E-1,-2.5510758E-2,-4.7687992E-2,1.0725393E-2,9.6758327E-4,7.903748E-2,1.4461552E-1,2.417717E-2,4.734281E-1,2.1095736E-1,1.4141731E-1,5.382106E-1,1.7356873E-2,3.0084115E-1],"split_indices":[0,3,3,1,1,1,3,0,3,3,3,1,6,4,2,0,0,0,2,2,4,3,6,4,6,0,0,6,0,0,0,0,0,0,0,0,0,0,0,0,0,0,0,0,0,0,0,0,0],"split_type":[0,0,0,0,0,0,0,0,0,0,0,0,0,0,0,0,0,0,0,0,0,0,0,0,0,0,0,0,0,0,0,0,0,0,0,0,0,0,0,0,0,0,0,0,0,0,0,0,0],"sum_hessian":[1.008E3,6.81E2,3.27E2,2.74E2,4.07E2,1.8E2,1.47E2,8E1,1.94E2,2.03E2,2.04E2,1.13E2,6.7E1,1.03E2,4.4E1,1E1,7E1,8.4E1,1.1E2,1.42E2,6.1E1,1.03E2,1.01E2,3.7E1,7.6E1,2E0,6.5E1,1.01E2,2E0,3.2E1,1.2E1,1.08E2,2E0,6.8E1,7.4E1,4.9E1,1.2E1,3.2E1,7.1E1,1.2E1,8.9E1,3.4E1,3E0,2E0,7.4E1,1E0,1E2,1E0,1E0],"tree_param":{"num_deleted":"0","num_feature":"8","num_nodes":"49","size_leaf_vector":"1"}},{"base_weights":[1.853852E-1,-3.6992278E0,7.851238E0,-7.5439525E0,-1.1396103E0,4.965447E0,1.1792045E1,-9.81462E0,-6.3601313E0,-3.0848813E0,7.4509156E-1,3.8166022E0,7.0116687E0,1.0953812E1,9.1073555E-1,-5.804635E-1,-4.4520745E-1,-6.9643617E0,-4.7922564E0,-3.4842634E0,-1.5549313E0,3.3572957E-1,1.6904528E0,3.1582193E0,4.8980737E0,5.928566E0,8.258187E0,1.1070426E1,4.542E0,-3.7306422E-1,-3.0387747E-1,7.314491E-2,-2.4703403E-1,-1.7657106E-1,-3.9881136E-2,-1.0112667E-1,3.7182238E-2,-8.258145E-3,3.406428E-2,9.971241E-2,4.185253E-2,4.0751266E-1,1.4989738E-1,4.5114824E-1,2.205882E-1,3.021502E-1,3.3776857E-2,1.0119553E-1,4.201686E-1,1.3788186E-1,5.557434E-1,1.6923143E-2,2.915179E-1],"categories":[],"categories_nodes":[],"categories_segments":[],"categories_sizes":[],"default_left":[0,0,0,0,0,0,0,0,0,0,0,0,0,0,0,0,0,0,0,0,0,0,0,0,0,0,0,0,0,0,0,0,0,0,0,0,0,0,0,0,0,0,0,0,0,0,0,0,0,0,0,0,0],"id":34,"left_children":[1,3,5,7,9,11,13,15,17,19,21,23,25,27,-1,-1,-1,29,31,33,35,37,39,41,43,45,47,49,51,-1,-1,-1,-1,-1,-1,-1,-1,-1,-1,-1,-1,-1,-1,-1,-1,-1,-1,-1,-1,-1,-1,-1,-1],"loss_changes":[3.0105703E4,6.5947314E3,3.808041E3,6.579795E2,1.4834661E3,4.386963E2,5.7034766E2,4.36875E1,1.3620166E2,1.161781E2,7.915344E1,7.6381714E1,4.5548096E1,4.617383E1,0E0,0E0,0E0,1.0619629E1,5.6433716E1,1.7074585E1,4.772126E1,2.5210052E1,1.44048E1,4.197284E1,5.4473633E1,2.0564575E1,1.0145874E1,1.5896484E1,1.9689278E1,0E0,0E0,0E0,0E0,0E0,0E0,0E0,0E0,0E0,0E0,0E0,0E0,0E0,0E0,0E0,0E0,0E0,0E0,0E0,0E0,0E0,0E0,0E0,0E0],"parents":[2147483647,0,0,1,1,2,2,3,3,4,4,5,5,6,6,7,7,8,8,9,9,10,10,11,11,12,12,13,13,17,17,18,18,19,19,20,20,21,21,22,22,23,23,24,24,25,25,26,26,27,27,28,28],"right_children":[2,4,6,8,10,12,14,16,18,20,22,24,26,28,-1,-1,-1,30,32,34,36,38,40,42,44,46,48,50,52,-1,-1,-1,-1,-1,-1,-1,-1,-1,-1,-1,-1,-1,-1,-1,-1,-1,-1,-1,-1,-1,-1,-1,-1],"split_conditions":[1.8179208E2,1.410825E2,2.1722412E2,1.1803571E2,1.6172432E2,2.0027736E2,2.4474959E2,1.09311485E2,1.3285732E2,1.5183736E2,1.7186336E2,1.9017062E2,4.1337474E-3,9.88447E7,9.1073555E-1,-5.804635E-1,-4.4520745E-1,1.27576126E2,1.3334132E2,1.5493307E2,1.177263E8,1.6801581E2,7.05558E7,1.6903578E2,-1.8894048E-2,2.207042E2,1.7186336E2,-4.63123E-2,2.2469017E2,-3.7306422E-1,-3.0387747E-1,7.314491E-2,-2.4703403E-1,-1.7657106E-1,-3.9881136E-2,-1.0112667E-1,3.7182238E-2,-8.258145E-3,3.406428E-2,9.971241E-2,4.185253E-2,4.0751266E-1,1.4989738E-1,4.5114824E-1,2.205882E-1,3.021502E-1,3.3776857E-2,1.0119553E-1,4.201686E-1,1.3788186E-1,5.557434E-1,1.6923143E-2,2.915179E-1],"split_indices":[1,3,3,2,3,1,2,2,2,2,2,3,6,4,0,0,0,2,3,3,4,3,4,2,6,1,2,6,1,0,0,0,0,0,0,0,0,0,0,0,0,0,0,0,0,0,0,0,0,0,0,0,0],"split_type":[0,0,0,0,0,0,0,0,0,0,0,0,0,0,0,0,0,0,0,0,0,0,0,0,0,0,0,0,0,0,0,0,0,0,0,0,0,0,0,0,0,0,0,0,0,0,0,0,0,0,0,0,0],"sum_hessian":[1.009E3,6.7E2,3.39E2,2.67E2,4.03E2,1.97E2,1.42E2,8.9E1,1.78E2,1.98E2,2.05E2,1.28E2,6.9E1,1.28E2,1.4E1,2.6E1,6.3E1,1.26E2,5.2E1,1.56E2,4.2E1,1.44E2,6.1E1,8.2E1,4.6E1,4E1,2.9E1,1.25E2,3E0,7.6E1,5E1,1E0,5.1E1,1.53E2,3E0,3.5E1,7E0,5.9E1,8.5E1,4.4E1,1.7E1,1E0,8.1E1,3E0,4.3E1,3.9E1,1E0,1E0,2.8E1,1E0,1.24E2,1E0,2E0],"tree_param":{"num_deleted":"0","num_feature":"8","num_nodes":"53","size_leaf_vector":"1"}},{"base_weights":[2.407889E-2,-3.6592999E0,7.327443E0,-6.3966503E0,-6.5452594E-1,4.3026757E0,1.0832745E1,-9.09738E0,-5.019853E0,-2.4436908E0,5.2959543E-1,3.2552128E0,5.886501E0,9.832858E0,7.4355763E-1,-7.475036E-1,-8.550729E0,-6.27844E0,-4.2857704E0,-2.605373E0,-8.94843E-1,-1.7463334E-1,1.1684179E0,1.958443E0,3.572213E0,4.9935865E0,3.4512007E-1,9.937004E0,2.0422516E0,-4.8917413E-1,-3.9826882E-1,-1.22886024E-1,-3.1697127E-1,-3.7648392E-1,-1.9938761E-1,-1.3766806E-1,-6.978821E-2,-6.892014E-3,-1.11494E-1,-5.6681264E-2,8.950322E-3,3.7277337E-2,1.1812165E-1,1.1068367E-1,-1.04177095E-1,1.1516482E-1,1.9145618E-1,3.0682215E-1,1.9165698E-1,3.9056778E-1,5.1722956E-1,1.6500091E-2,1.3666879E-1],"categories":[],"categories_nodes":[],"categories_segments":[],"categories_sizes":[],"default_left":[0,0,0,0,0,0,0,0,0,0,0,0,0,0,0,0,0,0,0,0,0,0,0,0,0,0,0,0,0,0,0,0,0,0,0,0,0,0,0,0,0,0,0,0,0,0,0,0,0,0,0,0,0],"id":35,"left_children":[1,3,5,7,9,11,13,15,17,19,21,23,25,27,-1,-1,29,31,33,35,37,39,41,43,45,47,-1,49,51,-1,-1,-1,-1,-1,-1,-1,-1,-1,-1,-1,-1,-1,-1,-1,-1,-1,-1,-1,-1,-1,-1,-1,-1],"loss_changes":[2.8003912E4,5.6875957E3,3.6537422E3,1.300377E3,7.025468E2,2.9438892E2,5.038828E2,2.59292E2,1.9667676E2,3.0724121E1,9.017948E1,4.0688843E1,3.265869E1,8.6805664E1,0E0,0E0,3.6113281E0,4.690918E0,1.2078589E2,1.7458923E1,1.3841403E1,3.2760147E1,5.1254715E1,3.0403214E1,2.1172241E1,3.350586E1,0E0,3.1825195E1,2.6481113E0,0E0,0E0,0E0,0E0,0E0,0E0,0E0,0E0,0E0,0E0,0E0,0E0,0E0,0E0,0E0,0E0,0E0,0E0,0E0,0E0,0E0,0E0,0E0,0E0],"parents":[2147483647,0,0,1,1,2,2,3,3,4,4,5,5,6,6,7,7,8,8,9,9,10,10,11,11,12,12,13,13,16,16,17,17,18,18,19,19,20,20,21,21,22,22,23,23,24,24,25,25,27,27,28,28],"right_children":[2,4,6,8,10,12,14,16,18,20,22,24,26,28,-1,-1,30,32,34,36,38,40,42,44,46,48,-1,50,52,-1,-1,-1,-1,-1,-1,-1,-1,-1,-1,-1,-1,-1,-1,-1,-1,-1,-1,-1,-1,-1,-1,-1,-1],"split_conditions":[1.7855243E2,1.4534811E2,2.0930554E2,1.2275496E2,1.6060759E2,1.9245265E2,2.3437265E2,1.0001133E2,1.3333542E2,1.5710944E2,-1.3401603E-3,-7.0150164E-3,3.9204997E-3,9.88447E7,7.4355763E-1,-7.475036E-1,1.1214433E2,5.50209E7,-3.390509E-2,1.163079E8,1.608572E2,1.6424922E2,1.7329341E2,-7.395046E-3,1.8218587E2,-9.583055E-3,3.4512007E-1,2.167182E2,2.1815315E2,-4.8917413E-1,-3.9826882E-1,-1.22886024E-1,-3.1697127E-1,-3.7648392E-1,-1.9938761E-1,-1.3766806E-1,-6.978821E-2,-6.892014E-3,-1.11494E-1,-5.6681264E-2,8.950322E-3,3.7277337E-2,1.1812165E-1,1.1068367E-1,-1.04177095E-1,1.1516482E-1,1.9145618E-1,3.0682215E-1,1.9165698E-1,3.9056778E-1,5.1722956E-1,1.6500091E-2,1.3666879E-1],"split_indices":[0,2,2,2,0,5,2,0,0,2,6,6,6,4,0,0,5,4,6,4,5,2,0,6,5,6,0,2,0,0,0,0,0,0,0,0,0,0,0,0,0,0,0,0,0,0,0,0,0,0,0,0,0],"split_type":[0,0,0,0,0,0,0,0,0,0,0,0,0,0,0,0,0,0,0,0,0,0,0,0,0,0,0,0,0,0,0,0,0,0,0,0,0,0,0,0,0,0,0,0,0,0,0,0,0,0,0,0,0],"sum_hessian":[1.039E3,6.91E2,3.48E2,3.61E2,3.3E2,1.88E2,1.6E2,1.2E2,2.41E2,1.31E2,1.99E2,1.15E2,7.3E1,1.31E2,2.9E1,8E0,1.12E2,8.6E1,1.55E2,1.18E2,1.3E1,9.5E1,1.04E2,2.4E1,9.1E1,4.2E1,3.1E1,1.29E2,2E0,3.1E1,8.1E1,2E0,8.4E1,1.1E1,1.44E2,1.04E2,1.4E1,9E0,4E0,2.5E1,7E1,7.8E1,2.6E1,2.3E1,1E0,1.7E1,7.4E1,1.9E1,2.3E1,2.4E1,1.05E2,1E0,1E0],"tree_param":{"num_deleted":"0","num_feature":"8","num_nodes":"53","size_leaf_vector":"1"}},{"base_weights":[5.9210345E-2,-3.8339674E0,6.554621E0,-7.006848E0,-1.3782804E0,3.5551507E0,9.73331E0,-1.0544966E1,-6.061496E0,-2.6700778E0,3.4751812E-1,2.6132765E0,4.809744E0,8.770787E0,1.3784294E1,-7.2989875E-1,-9.458262E0,-6.782166E0,-4.948822E0,-3.438409E0,-1.95578E0,6.292749E-2,1.5027558E0,3.3382049E0,2.0060937E0,2.0462925E0,4.9626136E0,7.6315074E0,9.852346E0,5.66942E-1,8.146605E-1,-4.7736844E-1,-1.339842E-1,-6.2057305E-2,-3.4078795E-1,-3.8561937E-1,-2.3280631E-1,-1.2386014E-1,-1.8800199E-1,-1.1327886E-1,4.767354E-3,-5.8787074E-3,6.8518884E-2,-5.720749E-2,8.663415E-2,4.9073603E-2,1.7338762E-1,4.3751735E-2,1.2690608E-1,3.3527375E-3,1.2143647E-1,2.2038892E-1,2.864485E-1,3.943954E-1,1.1808777E-1,1.2150421E-1,4.9608412E-1],"categories":[],"categories_nodes":[],"categories_segments":[],"categories_sizes":[],"default_left":[0,0,0,0,0,0,0,0,0,0,0,0,0,0,0,0,0,0,0,0,0,0,0,0,0,0,0,0,0,0,0,0,0,0,0,0,0,0,0,0,0,0,0,0,0,0,0,0,0,0,0,0,0,0,0,0,0],"id":36,"left_children":[1,3,5,7,9,11,13,15,17,19,21,23,25,27,29,-1,31,33,35,37,39,41,43,45,47,49,51,53,55,-1,-1,-1,-1,-1,-1,-1,-1,-1,-1,-1,-1,-1,-1,-1,-1,-1,-1,-1,-1,-1,-1,-1,-1,-1,-1,-1,-1],"loss_changes":[2.5237055E4,4.852302E3,3.531255E3,8.458594E2,7.8789966E2,2.1667456E2,5.848496E2,1.0857568E2,1.404419E2,1.0413635E2,4.987844E1,4.304181E1,2.448584E1,1.0841016E2,1.7723145E1,0E0,2.8051758E0,1.5552734E1,3.608081E1,2.0364502E1,6.820737E1,2.918874E1,2.0240318E1,1.1861938E1,3.629138E1,4.3787403E0,7.4886475E0,8.541113E1,1.3457031E1,0E0,0E0,0E0,0E0,0E0,0E0,0E0,0E0,0E0,0E0,0E0,0E0,0E0,0E0,0E0,0E0,0E0,0E0,0E0,0E0,0E0,0E0,0E0,0E0,0E0,0E0,0E0,0E0],"parents":[2147483647,0,0,1,1,2,2,3,3,4,4,5,5,6,6,7,7,8,8,9,9,10,10,11,11,12,12,13,13,14,14,16,16,17,17,18,18,19,19,20,20,21,21,22,22,23,23,24,24,25,25,26,26,27,27,28,28],"right_children":[2,4,6,8,10,12,14,16,18,20,22,24,26,28,30,-1,32,34,36,38,40,42,44,46,48,50,52,54,56,-1,-1,-1,-1,-1,-1,-1,-1,-1,-1,-1,-1,-1,-1,-1,-1,-1,-1,-1,-1,-1,-1,-1,-1,-1,-1,-1,-1],"split_conditions":[1.7466513E2,1.419555E2,2.0626535E2,1.1513848E2,1.6172432E2,1.9001137E2,2.3655978E2,1.0001133E2,1.3060817E2,1.4812132E2,9.11859E7,5.24887E7,3.54172E7,2.2205151E2,2.4474959E2,-7.2989875E-1,3.824788E-2,1.1302418E2,-3.390509E-2,1.4239548E2,1.177263E8,1.7271597E2,1.6222517E2,-9.92183E-3,-6.625677E-3,1.9167635E2,1.9658E2,2.2345697E2,-4.63123E-2,5.66942E-1,8.146605E-1,-4.7736844E-1,